788 300
a -0.0015949643 -0.00013766692 0.0013898994 0.0002828274 0.0010080459 6.851971e-05 -0.0012919147 0.001513723 0.0012093221 0.00074157247 -0.00032560772 -0.0015956303 -0.000950413 0.0009846197 -0.0004920699 -0.000754828 -0.0016070927 -0.0005199862 -0.0012256312 -0.0015731378 -0.0013895814 0.00036598498 -0.0004529208 -0.00036903145 0.00095968693 0.0011572854 4.1518368e-05 -0.0015881705 0.00049696845 0.0003749714 0.0010808686 -0.00067374494 -0.00044057055 0.0006974953 0.00082988065 -0.0015974275 -0.00023720546 -0.00021840516 -0.00014537145 -0.0009215573 0.00015977724 -0.00034260968 0.0016357162 -0.001369171 0.0005605246 -3.3793247e-05 -0.0011004432 -0.0015653564 1.01257665e-05 -0.0011549116 -5.75852e-05 -0.00068814587 -0.0009980068 -0.0005211996 -0.0014204142 0.0012341163 0.0007274438 0.0006830142 -0.0016221316 0.0005963217 -0.00037237027 -0.0014560417 -0.0014573119 -0.0005569517 0.000116030395 0.00035911944 0.0012229995 0.00047518674 0.0016298306 0.00031796945 -0.0013738942 0.0014440059 0.001074908 0.0005227492 0.0010573553 -0.00022237205 7.207461e-06 -0.0008623041 0.00073943025 0.0003305683 0.0013139416 -0.001364237 -0.00013216928 -0.0015765945 -0.00025357198 0.0012933853 9.958132e-05 -0.0007414343 -0.0011645864 0.0014161754 -0.001261757 0.00036119323 -0.00014879153 -0.0013312525 -0.00015926539 -0.0015245255 0.00047717485 0.00023159411 5.265984e-05 -0.00040752947 0.0013515062 0.00040073294 9.583991e-05 -0.000463151 0.0015770609 0.001354561 -0.0016341448 -0.0009211323 0.0008711014 -0.0005912775 0.00080965157 -0.0015279605 -0.0009263805 0.0011391119 -0.0011273661 0.00021137708 0.0011515211 0.00085099833 -0.0006092613 0.0004216259 -0.0016283809 0.0010149388 -0.00012463747 0.0003340971 0.0007903386 0.0003389325 0.00055091263 -0.0012960746 -0.0004019564 0.00063347945 -1.3086504e-06 0.00053982035 -0.00086622196 -0.0014891853 -0.00022293837 0.00080699904 -8.466809e-05 -0.00054154126 -0.0002252185 0.0010652591 0.0009944912 0.00048456833 0.001565901 0.0016019111 0.0003120286 -0.0010133995 -0.0007504276 4.0217765e-05 -0.0005724303 0.0009781613 -0.00049713376 -0.00097644323 0.00014416609 -0.0006526736 -0.0015980004 -0.00068761775 -0.0015838357 4.9195256e-05 -0.0005708578 -0.0011258656 -0.00074278784 -0.0008867449 -0.00089701987 0.0010201741 1.2062923e-05 -0.00033235145 -0.0013704156 0.00042271445 -0.00094805745 0.0013292731 -0.0015571828 -1.109876e-05 0.0013328907 -0.0002619651 -0.00029369752 -0.00034861502 -0.000218056 -0.001218056 0.0014208152 -0.0006784601 0.0014433789 0.0016408483 -0.0015475444 0.0014339123 -0.0015796839 -0.00027390712 -0.00045702152 -0.0006024815 -4.8631362e-05 -0.0012981896 -0.0009945433 -0.0014808081 -0.001100308 0.0014077699 0.0014678674 0.0007033831 0.00010939622 -0.0004276688 0.0015233718 -0.00015351365 -0.0011363461 0.0016304366 -0.00071558804 -0.0012586806 0.0014419963 -0.0006063959 9.849691e-05 -6.744064e-05 -0.0015498596 0.0005026025 -0.0015840972 0.0016300129 -0.00021753758 -0.0007054359 0.0008927087 -0.00022986066 0.00085264875 -0.00095388497 0.00081803545 -6.7080604e-05 0.0012684604 0.0003611827 0.00084236905 0.0013846847 0.00048481906 -0.00032782773 0.00035356692 -0.0012325686 0.00060343085 -0.00074825855 0.0013533692 -0.00048441452 0.00026009517 0.0015128555 -0.00075916183 0.0015092082 -0.0014181961 0.00013195642 -0.00055573013 -0.0012415324 -0.0014085219 0.0011656653 0.00074829906 -0.0011404303 -0.0002865849 0.001457337 -0.00078731304 -0.00050058105 0.0008751229 0.00032071595 -0.00094580615 -0.0014599058 0.00107775 -0.0013570973 -0.0012263107 -0.000897255 -0.0015591092 -0.00010838421 -0.0014439694 -0.00020881687 -0.0016269579 0.001368575 -0.001434122 0.0005408238 0.00014044355 0.0008705742 0.00026927033 -0.0010196744 0.0015614757 -0.00020566804 -0.0008356502 -0.00035151184 0.001651802 -0.00025431818 0.00018490045 -0.0013431945 0.0014393877 9.827225e-05 0.00041461093 0.00022565844 -0.0002418846 0.0011884996 0.00013760704 0.0014761218 0.00080482796 0.00037347578 0.0009740405 0.0009392467 0.000597815 0.00051072054 -0.0015203848 0.0013673084 0.0009726929 0.0015697139 -0.0010215732 -0.001052151 -0.0005418925 0.0012586194 -9.0834146e-05 -0.001354937
the -0.0003462111 0.0005211522 0.00050354924 4.3521377e-05 -2.7410568e-05 -0.0012202318 0.0009413612 0.001262913 0.0013234465 0.0004924583 -0.0015296374 -8.305201e-05 -0.00011536674 -0.00030337242 -0.0008398435 -0.00078934967 0.00083493174 -0.0007205691 0.001140556 0.0010891962 0.00075922726 -0.0011789385 -0.0015067561 -8.623949e-05 -0.001298601 -0.0010419795 -0.000412417 -0.0006013936 0.0012878524 0.00014720461 -0.00058767496 -0.000101823185 -0.0005610581 -0.00022323045 0.00043064117 0.0006727741 -0.00084222946 -0.0014552613 -0.0014825445 -0.0005318682 -0.0016098775 0.00031560453 -0.0007855786 3.8151706e-05 -0.0010005624 -0.00017393794 9.151816e-05 -0.0006662956 0.0011163888 0.000750025 0.0011937105 -0.00051863276 0.0012491606 0.0009981809 -0.0011171087 0.00021611963 -0.0009829667 -0.00012366574 -0.0008317942 8.0034566e-05 -0.0012016082 0.0001627862 0.0011477448 -0.0012450044 0.00068941066 -0.0007603776 -0.0011787696 -0.0011435606 0.0008690867 0.00067878916 0.0003964007 0.0014920552 -0.00010657919 0.00018625039 -0.0011529012 -0.0006498767 0.00043953632 0.0004924283 -0.0011575493 0.0014317851 -0.00023888549 0.0003090276 0.0013251783 0.001037316 0.0003739113 -0.0004536229 0.00043739643 3.23239e-05 -0.00075985986 0.000730327 -0.0011408094 -0.0011989246 0.00021704908 0.0010269976 0.0010758464 0.0015541113 -0.0010459895 -0.0005184481 0.0008879641 0.001162036 0.0016465044 -0.0006443078 0.000998945 0.0013100337 0.0012870142 -0.0011553247 0.00085503916 0.0009779821 -0.0013177167 0.00014500305 -0.0010317428 0.0006939172 0.0012156565 0.00023900409 -0.00073008874 5.901318e-05 -0.0009282691 0.0008941897 0.0010005413 -0.0016221751 -0.0004948315 0.00085181475 -0.00068965345 -0.00092064345 -1.839655e-05 -0.00047094616 0.00039683242 -0.0012188826 -3.0098558e-05 0.001377424 -0.00013431837 0.0014925634 -0.00082467636 -0.0006823213 0.0013710947 0.0015613359 -0.0014187837 -0.0007715969 -0.0008358376 -0.0004583616 0.0015956953 0.0011032277 0.000758778 -0.00093867624 0.001276327 -0.0006217853 0.00092230644 0.0014111769 -0.0005394474 -0.0006023312 8.950972e-05 0.0006745895 -0.00022819813 -0.0013017759 -0.0006966696 -5.235139e-05 0.001616351 0.00070263183 0.0005417038 0.0007800817 0.0015033986 -0.000489736 0.00040904564 -0.00016249431 0.0007677341 0.001212455 0.0015732665 -0.001605865 0.00095278694 -0.00051489734 0.00040373954 -0.0002362886 0.0012900404 0.00050169317 -0.001516477 -8.219014e-05 -0.00090593763 0.0002296605 0.001521297 -0.0014446183 0.0001470747 0.00041965215 -0.0004035683 0.0003629277 0.0013208424 0.0005718473 -0.0014002807 0.0013382758 0.0010401979 3.7976144e-05 0.001399644 0.0013395246 0.00040922375 -5.8530175e-05 0.0014205762 -0.0003925508 -0.0002504833 0.0015050124 0.0012246792 0.00076295505 -0.0006879845 0.00071858 0.00047569533 -0.0015189765 0.0008423615 -0.00072347693 0.00029004284 0.0014691831 -0.00022631563 0.0014586068 -0.0013600058 -0.000689826 -0.00079878245 -0.00024997664 0.0014445646 0.00073818595 -4.3252687e-05 1.6373662e-05 -0.0005848169 0.00040067834 0.0002491964 -0.00043100727 0.0003605099 -7.5494725e-05 -0.0012005199 -0.0015234976 0.0015816336 -0.001538483 0.001238467 -0.00085578545 0.0014850976 0.001216797 8.046138e-06 -0.0010478409 -0.0004244801 -0.001649495 9.532002e-05 0.00031601667 0.0010456262 0.00095632824 0.001482421 0.00035453355 0.00137099 -0.00078718 0.00034004866 -0.0011086687 -0.0016079624 0.0014058214 0.0012758883 -6.796696e-05 0.00022628455 0.001427867 -0.0007618647 0.00072836224 6.1828546e-06 -0.0013396118 -0.00055472436 -0.0013944234 -0.0011320325 -0.0011925698 0.00048276957 0.00034934655 -0.0006908903 -0.00010223106 0.00021437928 -3.4669054e-05 0.0013540705 -0.0011108525 -0.0015488731 -0.00013650906 0.00043719183 -4.9037804e-05 -0.0014551105 0.00044874518 0.0014637525 0.0013459919 -0.00090576947 0.0011621566 -0.0013281144 -0.00079829775 0.0015761777 0.0009803222 0.001368325 0.0004170377 0.0013794312 0.001201117 0.0015515027 -0.00075234316 -0.001162494 -0.00015692665 0.00048675123 -0.00019344856 0.00076186284 0.0012989314 -0.0010104736 0.0006763893 -0.0010162467 0.0007804503 -0.0007322009 -8.157739e-05
of 0.00037540987 0.0010212163 -0.0013217329 -0.00066245784 0.0015342849 -0.001126768 -0.0015384092 -0.001519276 -0.0010301741 0.0013935146 0.00076294213 -0.00025872805 -0.00073331327 0.0009770148 -0.00023862069 0.001057234 0.0012691783 1.0103504e-05 0.001075388 -0.00040799825 -0.0011613116 0.0013355314 -0.0005663416 -0.00016418472 0.001096356 -0.00047463895 0.00018796849 -0.001135529 0.0008418127 0.0013533608 0.0012508467 0.0010847833 0.0011377019 -0.0010306392 0.0009057356 0.00117089 -0.0008269656 0.001426967 0.0011277614 0.00027421955 -0.0003044295 -7.791387e-05 -0.000190539 -0.0012613735 -0.0014013763 0.0012505476 -0.001113843 -0.00080226624 -0.0016306778 -0.0014022666 0.0005962056 -0.0009723822 -0.001511815 -0.000568791 -0.00042369112 0.00144138 -0.0012132736 -0.0009616786 -0.0011453271 -0.00022812477 3.1843963e-05 -0.00064216624 -0.00035755622 0.00036468206 0.0014166036 -0.0008165245 7.753224e-05 0.00045087442 -0.0006539804 -0.00029595193 -0.001286016 -0.0013243495 0.0007232527 -0.0013586226 0.0003318258 0.0007494914 2.5241594e-05 -0.0010395702 -0.0013430385 0.0006906961 6.299747e-05 0.000760449 0.0010874568 0.0016464405 0.00041496896 -0.0010185083 -0.00043458905 -1.8215016e-05 0.0011247061 0.0016288462 0.00033948367 -0.0011443346 -0.0010069731 0.0016432941 -0.0013998353 0.0016065458 0.0013944203 -0.0014860446 7.109049e-05 0.00037150306 0.0010450355 -0.00045920265 0.00121406 -0.0007956734 -0.0007203848 -0.00045969724 -0.00024245572 -0.00041463878 -0.0013390622 0.00039409223 0.00053467357 0.0013850648 7.193694e-05 -0.0005570044 -0.0013677622 -0.0004239878 0.00027815753 0.00056158396 0.0016523503 -0.00079289125 0.00081944565 -0.0006726459 -0.00068815856 -0.00019349651 -0.0016624061 0.0007483132 -0.0014032875 0.0005489453 -0.00052416907 0.0014753334 0.0013518422 -0.0012887922 -0.0007320548 -0.0002489692 0.0010716765 -0.000103583996 -0.0005424333 -0.0007084842 0.0005601344 0.0013939367 -0.001110179 0.0007821565 0.001005424 -0.0010657777 -0.0011565966 -0.001457062 0.0003377345 -0.001128274 -7.0237955e-05 0.0014258786 -0.0006865219 0.00017474817 0.0007193711 0.0013065537 -0.000616554 0.0010471903 0.00041177648 0.0016562094 0.00073989824 0.0011790041 0.001404085 -0.0016141214 -8.0907936e-05 -0.0015072993 -0.0004775187 -0.0014120076 -9.728406e-05 -0.000640378 0.0003903689 -0.00067674636 -0.0012860465 0.00017943406 -0.0003841512 0.0014450147 9.710176e-05 0.00124176 -0.00010023039 -0.0014544317 0.00060569093 -0.00031622127 -0.0014733544 -0.0006964563 -0.000407304 -0.0010894061 0.00035714975 -0.00010870209 -0.00053656945 -0.0011861403 8.659671e-05 -0.0016432973 -0.0009375052 -0.0011318092 0.001079953 0.00038746945 0.0014482611 9.167252e-05 -0.00019577847 0.00045519014 0.0011287653 0.00029178814 0.00072264404 0.00023499536 -0.0004985025 0.00023275624 -0.00055832084 0.0013211796 0.0010727659 -0.00043471588 0.0011235146 0.0015007571 -0.00014169693 0.0009935444 0.00061213423 -0.00015296797 -0.00055042404 -0.0011358936 -0.00074758485 -5.309308e-06 -0.0009512162 -0.00012800262 0.0011869996 0.00051726337 0.0009796057 -0.0015535357 0.00079671334 -0.0006124166 -0.0013007405 -0.00030859455 -0.0010100288 0.00017168699 0.00031769992 -0.0005528152 0.0015902533 0.0012533257 0.0012659498 0.0015180089 0.00054075755 -0.0005757115 -0.0015844358 -0.00015965603 -0.0014516261 -6.840516e-05 -0.0008703937 -0.0007833121 0.001608416 0.0012138889 -0.0007908952 -0.0014948532 -0.00134384 0.00050790625 -0.0014915521 -0.0015807156 0.0012145839 0.00067723036 -0.0010667859 0.00084306695 -0.000508559 -0.00036138343 0.0013133012 0.001624095 0.00051530264 -0.0014316818 -0.00013848089 0.0010001189 0.0016111458 -0.0011699396 -0.00061084604 0.00062462204 0.0007520954 0.0011179484 -0.0013426675 -0.0010225355 -0.0013959458 -0.00051011535 -0.00032010968 0.00022996339 1.7352479e-06 0.0012425868 -0.0011432578 -0.001313248 -4.606031e-05 -0.0003538121 -0.001210945 0.00071474974 0.0013008945 0.0015054424 0.0011025087 0.0005498741 -0.0010521879 -0.0006151626 -0.00078600267 0.00057996414 0.0012450971 0.0015990916 0.001258321 -0.0014181712 -0.00021623529 -0.00044814253 0.0012778144 -0.0016666369
type -0.00040239783 -0.0008398079 -0.0005469403 0.0005274723 0.0009831442 0.0009873664 -0.0012482933 0.0009089909 -0.00018672703 -0.0007953963 -0.0013671243 -0.0007601613 0.0004120403 -0.0014631783 0.00072487723 0.0008837513 0.000782846 -0.000110132394 -0.00032439467 -0.0011285115 0.0008094025 -0.0010136844 -0.0009923502 0.0008634895 -1.9228439e-05 0.0016290586 -0.0010287504 0.0011114934 0.0011902966 0.0009470243 0.001370164 -0.0012039361 0.0011948947 -0.00042922018 -0.00082347164 -0.0009992184 -0.0010996733 -0.00022350598 -0.0010823671 -0.0016444909 -0.0007328447 -0.0014956016 -0.0012006764 -0.000394016 0.0015717855 0.0015049815 0.0015976871 -0.001355192 -9.503157e-06 -0.00022907263 -0.000504404 -0.00040642326 8.296877e-05 0.0011444554 0.00063559867 -0.0016287629 -0.0013088586 0.0016170443 0.00047917772 0.00017152444 7.808563e-05 0.00065666164 0.00058934966 0.0006947391 0.0012026121 0.0005891092 0.0010798193 0.00072575326 -0.0016653705 0.0009954508 -0.0008404045 0.00079420325 -0.0006689574 0.0016664068 -0.0006581802 -1.0577812e-05 -0.0002529973 -0.0011007058 -0.0015685818 -0.0004197467 -0.00062506535 0.0006740831 -0.0006534818 -0.0011655655 0.0005695347 0.00061755197 0.00026821875 0.001416842 0.0011510068 -0.00064396876 -0.0006281515 -0.0004360507 -0.000120199526 -0.00072822074 0.0008984497 0.0012808372 0.0015328933 -0.0011706887 -0.00040763005 -0.00035869467 0.0002770639 -4.832097e-05 -0.00091750384 -4.4218745e-05 -0.0012648414 -0.0003653399 0.00097331527 -0.0009861633 0.00013141904 0.00077717484 0.0014138573 0.00034708853 -0.0011131027 6.365322e-05 -0.00046314922 -0.0015128363 0.0011791331 0.00031547685 -0.000667549 0.0012043583 7.276475e-05 0.00014962362 0.0011625156 -0.0010794821 -0.00094066135 0.0006452347 -0.0005894087 -0.00017215496 -0.00072301045 0.00093220285 -0.00088602223 -0.00043765418 -0.0010872416 0.0015234081 -0.0014683023 0.0007454812 0.0015249248 0.0013084203 0.0005851387 0.0013728827 -0.0010386561 0.00021590713 -0.0014065019 0.00070235285 -0.0010373286 -0.0012340874 0.0006140834 -0.00051145017 -0.00036640276 -0.0014850781 0.0003919745 0.001587255 -0.0010186423 -0.0014251382 0.001028627 -0.0011493963 -0.0008605356 -0.00081147056 8.4392224e-05 0.001133484 0.0013025308 -0.0003774987 -0.0012155996 -0.0015904033 -0.0004572702 0.00069597684 -0.0015306833 -0.00067976327 -0.00079917157 -0.00090303615 -0.00033852996 -0.00038646633 -0.0007907958 -0.001361051 0.0010890315 -9.1239584e-05 -0.0014782039 -5.826276e-06 -0.0012771928 0.00097381684 0.0007939478 0.0013103457 0.0007227496 -0.0012691385 0.00039727605 0.0008789344 -0.0012338276 0.0009286285 0.0015403281 -0.0013565302 0.0006165473 0.0005095182 0.0012218918 -0.0015287152 0.0005918782 -0.0007761004 -0.00011557912 0.00095866673 0.00026122003 -0.001462111 -0.00080386427 -0.0015099755 4.76552e-05 0.0007342924 -0.00048078128 0.0014490924 0.0013363239 0.00023027149 0.0014012444 -0.0009034169 0.00045136968 -0.0012312307 -0.00089241634 -0.0010389198 0.0014640443 -0.000160847 0.00087278156 -0.0012261632 -0.0016068313 -0.00029093237 -0.0009793608 -0.0007441615 -0.000551037 3.4924557e-05 -0.0016445707 2.628718e-05 7.493346e-06 0.000227717 0.0011211637 0.0015402938 7.248167e-05 0.00060454995 -0.0011842118 0.0007816672 0.00010039435 -0.0003965647 -0.0010749439 -0.0013787796 -0.0013341131 -0.00038337987 0.0011209011 -0.00059968285 0.00033922584 -0.0011905001 -0.00019757726 -0.0016428935 -0.0014683905 0.0013813201 -0.0013314112 -0.0013837117 -0.0004932671 -0.00072489504 -0.0015829644 0.0004178466 -0.00023257351 0.00029434168 0.0015250046 0.0014843653 3.4334324e-05 0.00097333477 -0.00042449235 0.0012157689 0.0012081991 -0.00039021694 -0.0016095993 -0.0014196946 -0.00011551871 0.00123612 -0.000387249 8.126924e-05 -0.00072887394 0.00014639873 0.0008397402 0.0007360087 0.0012165356 0.0010123997 0.00072726834 0.0015288864 0.00045565452 -0.0002833394 0.0004087291 0.0011113656 0.0014008083 0.0007543831 0.0016344679 -0.0012086141 -0.0003035383 -0.0005072921 0.0010953958 -0.0010148081 -0.00065257493 -0.0014620973 0.0012622342 0.00097395596 0.00052491063 0.00016499843 -0.001382773 -0.00054653495 0.00029721664 0.00022801307
data -0.00045697726 -0.00065516686 -0.00013981278 0.0010550232 0.001140387 0.0007374505 0.00012693946 0.00093497086 0.00144467 0.0010694052 0.0002839746 0.00042000704 0.0007091266 0.0014485808 0.0015824903 0.0012923724 -0.0013165906 0.0010229152 -0.0009116412 0.00035127235 -0.0004145525 -5.980611e-05 0.00020537752 0.00030035723 0.00016453165 0.00085193565 0.0015491243 -0.00084387057 0.0012633011 -0.00023261266 -0.00065150496 -0.0011492771 -0.0012817901 -0.0006285583 0.0014601718 0.00040273514 5.1376992e-05 0.0009749143 0.0004386507 -0.0012284016 0.001384726 -0.0010609091 -0.00081322284 -0.0007157858 -0.0014811091 -0.0009107202 -0.0014358266 -0.00025562677 -0.0014851744 0.0011807194 -0.00056013797 -0.001178336 -0.0008050076 -0.0007362047 -0.00037927117 -0.0008729378 -0.00040825896 0.0009358117 0.0012539689 -0.0010810157 0.00069346034 -0.00022920856 -0.0007355933 0.0012826576 -0.0014017638 0.0008803307 -0.0013354672 0.00023980813 0.00045375983 0.0005482776 0.0008385766 -0.00079899526 0.0005633857 0.0013600112 0.0010647696 0.00082125346 -0.0016446898 -0.001463812 0.0013441675 -0.0014671463 -0.0009299441 -0.00047828714 -0.0004486279 -0.0006505954 -0.001124987 -0.00044432448 0.0012570063 0.00035704803 0.0016641456 -0.0004892331 -0.00033595125 0.0009704222 -0.0005908965 0.00023498238 0.0014719901 0.001191008 -2.4695724e-05 -0.00043465698 -0.0015582112 -0.00022505317 -0.0008441928 -0.00032049956 0.0011720603 -0.0013709811 0.0009358614 0.0010053226 9.717093e-06 0.00044559664 0.0011927594 0.0015523894 0.0006965942 0.0010285792 0.0007343428 -0.001225799 0.00092232454 0.0009886718 -0.00021293444 0.0005804881 0.0009299859 0.0009655498 0.00089762063 -0.0005370952 0.0005236175 -0.0016068309 -0.0013506854 -6.8176654e-05 -0.0014627413 0.0006469941 -0.0011906204 -0.00061407575 -0.0012703021 -0.00075232756 0.0007674508 0.0011103046 0.0006162104 0.0011055729 -0.0009551253 0.0011510558 0.0012639271 0.00091284356 -0.00069154653 0.0014146373 -0.00072907074 0.0015773134 0.0013039383 0.0008316935 0.00018605088 0.0015458872 0.0008257581 0.0007495218 -0.000115855844 -0.0011587658 0.0012761048 -0.00070581667 0.0010711142 0.0009867467 -0.00019945596 0.001353797 0.00041556335 -0.00092356966 -0.00044255366 8.3882485e-05 0.0006298195 8.112084e-05 -0.00022040594 0.00034426292 -0.001472342 0.00040567399 -0.00083571835 -0.0012437567 -0.0006242748 0.0011586479 -0.0015103478 0.0012080374 0.001065553 0.0013861533 -0.00034776013 8.472015e-05 0.00038479004 -0.00030113515 0.0002667393 -0.0016256169 0.00012924685 0.0015239404 -0.0014540369 -0.001426875 -0.00014531771 0.0008509246 -0.0011312898 0.0011269414 -0.0008257318 0.0013794927 -0.00085858227 -0.0009922256 0.00034314377 0.000899448 0.000957713 -0.00148444 -0.00091398135 -0.0010045992 0.0015185765 0.0012246886 0.0011093314 -0.0014964086 0.0007389303 -0.0015541537 0.0013458228 -0.0013013517 -0.0011483732 -0.00051600597 0.00096446177 -0.00025877927 0.0014310301 -0.0016394196 0.00039734336 0.0016062981 0.0016061537 0.0014581796 -0.0007970845 -0.0015488795 -0.001415995 -0.00020197112 -0.00071136345 0.0008700447 0.00085472607 -0.001485131 -0.0003168559 0.0011995787 -0.0015877711 -0.00065126596 -6.056655e-05 6.35213e-05 -0.0007273606 0.00053489493 -0.001655947 -0.0014035729 -0.0005335447 -0.0005758246 -0.00092880504 -0.0016386978 0.0011173845 -0.0006425046 -0.0015168191 0.0009991894 0.0005243072 0.001592723 -0.0015163891 -0.0015550413 0.001433941 -0.001068069 -0.00040532992 -0.00036638766 0.00019600264 0.0007434266 -2.212205e-05 0.00057941314 -0.00043569985 -0.0012819945 0.0007970183 0.0014486574 0.00085270964 -0.00017030718 -0.0006796375 -0.0015023452 -0.0010982933 -0.0012664652 -0.00037052564 -0.0010072952 -0.0015346108 0.00071076065 -0.001591622 -0.001041751 -0.0011715754 -0.0002268719 -0.0001708825 -0.0015028826 -0.0006069726 0.00015439362 -0.0011618058 0.0013693791 0.0012744478 -0.0009601613 0.00018730473 -0.0007865644 0.00043892185 -0.0016371668 0.0011210574 -0.001006998 8.2800325e-05 -0.0009922183 0.00048626232 0.00073542626 -0.00084203423 0.0012744244 2.2108346e-05 0.00082207413 0.0013632394 0.00035164488 -0.0015288525 -2.3496865e-05
and 0.0005377159 0.0010945298 -0.0015811226 0.001236042 -4.6355424e-05 -0.0011295184 -0.0014685648 0.0012240597 0.00043379574 -0.0010749251 0.00049271196 0.00075773714 0.00021003472 0.00069644686 -0.00025632465 -0.0015639741 -0.00073097064 0.0007401602 2.1680078e-05 -0.0009874001 -0.0009008863 -0.0011803434 -0.0006450852 0.0014063433 1.746392e-05 0.00089365593 -0.001119466 0.0005377014 0.00033623725 0.0006716398 -0.0012401936 0.0012758725 -0.00144898 0.0013048493 0.00089146115 -0.0011450095 0.000777302 -0.0015249468 -0.00015484606 -0.0012919664 0.0003880654 -0.0003296211 -0.001314476 0.00070935313 -0.00083334 0.00027855195 0.0002851274 0.00083206553 0.00014697292 0.0013557515 -0.0003129732 -0.00026423807 0.000117761934 0.00084402255 -0.0006000218 -0.0007170359 -0.00020607188 -0.0012206191 0.0005606994 -0.0010020701 -0.0016188655 -0.0013968599 -4.2808555e-05 0.00013872028 -0.001553335 -0.00043361934 0.00046970026 -0.001235518 0.00014430984 0.0011876085 -0.0012962668 -0.0016254061 0.00140765 0.0015729254 0.00027776783 0.00070919946 0.0013110769 0.0003720915 -1.796192e-05 -0.0016190369 -0.0008915664 -0.0013344897 0.0010736894 -0.0014783614 1.8189896e-05 0.0016339283 -0.0001466008 -0.0007823323 -0.0009980506 0.00019457599 0.001503387 0.0008341843 7.481208e-05 6.78559e-05 -0.0014210029 -0.0011435767 0.00018500247 -0.0010452565 -0.0008664764 0.0015999116 -0.00035528064 0.00017128223 0.00015398308 0.0016484127 -0.0015867309 -0.001000887 0.00096388836 -2.4642584e-05 0.00045266259 0.000116231626 0.0011471348 0.00033213556 -0.0011748517 -0.0011900206 -0.00090102793 0.00031789966 0.00095836195 0.0003703541 0.0011627945 0.0010297307 0.0016526483 -0.00091261574 -0.0005921213 0.00079211325 -0.0002634438 0.0007177782 0.0011922651 0.0010798769 -0.00087519793 -0.0008947432 -0.000279677 -0.0013113407 9.583556e-06 0.0005960775 4.970474e-05 0.00034411586 0.0014918995 -1.7555669e-05 -0.00023201788 0.00032233508 0.001439044 0.0008867033 -0.0012797593 0.0015202085 -0.0011354961 0.0013694137 -0.00042766644 -6.472425e-05 0.0015612158 -0.0011703518 6.6670436e-05 0.0014110574 0.00071988907 -0.00076313416 0.00019508414 0.0012592574 -0.001528059 -0.0005220187 0.0003557217 -0.0003328098 0.0015041438 5.088809e-05 -4.3431795e-05 0.0010025856 -0.0015043578 0.001481995 -0.0010645053 -9.4053736e-05 0.0016150526 -0.00069898105 0.0012090994 -0.00019063595 -0.00038341555 -0.00095831364 -0.0010283001 -0.00023923382 0.00031448458 -0.0005346116 0.0011104285 0.0014175501 -0.0005196715 -0.0016615039 0.00017694522 -0.0014576302 0.0005562685 0.00086461817 -0.00074069365 -0.0012914635 0.00060731644 -0.0011073655 -0.0011767112 -0.0012059839 0.0011282878 0.0014256685 -0.000570865 0.00094441714 4.5136054e-05 0.001517727 -0.0013500025 4.852092e-05 0.00018524262 0.0006769943 -0.00042446575 0.0016073511 0.0004245918 0.0013827246 0.00046992407 0.00083859323 0.0003724002 -0.0011949078 0.00020605072 0.0007849669 0.0002595067 -0.0011125731 0.00057031366 0.0008242496 0.00036787504 0.0013000494 -0.0010724941 0.00062578113 -3.8669932e-05 -0.0014329982 -0.00086287287 -0.00064455415 0.0012147522 -0.00033825057 0.0016584555 0.00041068823 0.0011133146 0.0016063467 -0.0011688905 -0.0011982487 -0.0011643952 -0.0001350233 0.00023164379 -0.0014981532 -0.00027183586 -0.0012462535 -0.0007936558 -0.0008160978 -0.0010218489 -0.00142157 -0.0010635373 0.00087396405 -0.0012348939 -9.325755e-05 -0.0008110917 -0.00093324 -1.2433964e-05 -0.00085566804 8.589128e-05 0.0007883112 -0.001286724 0.00015840426 -0.0016409989 -0.00012213492 -0.00068875693 0.00076010317 -0.0010033532 0.00064614095 -0.00062758295 0.001432976 0.00015179683 -0.0011483673 0.0006211455 -0.00079152646 -0.00096395146 -0.0012742198 0.00027448393 -0.00032949116 0.0013075516 -6.434672e-05 2.3066143e-05 0.0011405378 -0.00088399486 0.0014831957 -0.0013366387 7.8251775e-05 -8.438998e-05 -0.001552055 -0.0011112212 -0.00073950604 0.00077748793 0.0013875973 9.398678e-06 -0.0011550667 0.0013454588 -0.00018429727 -0.0013482533 -0.0003887519 0.00086812285 0.0011584255 -0.00074854866 -0.00078223814 -0.00074254675 -0.00078393 -0.0015983949 -0.0006794677 -2.2365577e-05 6.414356e-05
to -0.00019070467 -0.00018666983 -0.0016070219 0.00085494673 0.0010887074 -0.0013046851 -0.0016526661 0.0009390846 0.0016483904 0.0012685909 -2.2567083e-05 -0.0003569635 0.0005223523 0.0015999094 -0.00033843174 -0.0003601414 -0.0010552928 0.000110629124 0.001453309 -0.0010061298 -0.0016648336 -0.0001938521 -0.0009154333 -0.0015953678 -0.0006043655 -0.00019686812 -0.0012345258 -0.0013964452 0.0015552139 0.0011138145 -0.0011566004 0.0008947761 -0.0003985983 0.0015735927 0.0008622327 0.00021638628 -0.0004520109 0.00037562716 0.0007947456 -0.00036576434 -0.0009894567 0.001247203 0.0011126106 -0.0008989229 0.00070269796 -0.0015560893 -0.0007792094 0.00056695694 0.0009709308 -0.00074605015 -0.0011271286 -0.00022200287 5.0812472e-05 -0.00023767358 9.061149e-05 8.241766e-05 0.0013474243 0.0011565064 0.00092259987 -0.00055113644 0.0010884112 0.0005820507 0.00045119264 0.0010390736 0.0013919007 -0.00080018933 -0.0015740129 0.0015301078 0.0012742887 0.0010932 0.0012981235 0.00051983236 -0.0010550106 0.00013793889 0.00022540477 -0.001581906 0.00091362826 -0.0011473469 0.00019952405 0.00083620026 0.00024591116 -0.0010558101 1.4711551e-05 0.0010732827 0.0011123355 -0.00096559536 -0.0015535665 0.0005151849 -0.0003244191 0.00032165772 0.00043088518 -3.301489e-07 0.0014790625 -0.00051235035 0.00051823136 -0.00022742088 -0.00038832542 0.00018065695 0.0014491121 -0.0003812548 0.0016300757 -0.00065945036 -0.00138011 0.0007667544 -0.0008854681 -0.0004510195 -0.00024049928 -0.0007104607 0.0003902922 0.00046898614 0.0006528238 -0.0009323221 -0.00022908632 -0.0012074129 -0.0011825666 0.0005873963 0.0009704049 0.00094003 -0.0010914659 -0.0016440336 0.0005222753 -0.0008590477 0.001551324 6.19695e-05 0.0015085796 -0.00060149963 0.00017402146 0.00041078078 -0.00035911845 -0.0014974958 -0.00049202767 0.0012172132 -0.00089454005 -0.0010395296 -0.00018008811 -0.0010241006 0.0012961226 0.001328482 -0.0013935473 1.6024582e-05 -6.359476e-05 -5.918048e-05 -0.00067902467 -0.00038686907 -0.00014381236 0.0010730751 0.00056488474 3.1444935e-05 0.0012324504 -0.00044977383 0.0016003007 0.001044042 0.0003336556 0.0015949558 -0.0001542993 -0.00068019074 -0.0002643524 -0.0012712012 0.0008513415 -4.228947e-05 0.0001580315 -0.00080626796 0.0013644436 0.00022269445 0.0007797302 -0.0010973607 0.0016611514 -0.0003351025 0.00048825744 0.0010958897 -0.00030150553 -0.00063766114 3.6631473e-06 -0.00039671297 -0.0005912584 0.0010207637 0.0011717274 -0.00086450065 -0.00053658546 0.0012408044 0.0005548667 -0.0003328704 0.00050198927 0.0004140513 -0.0014420628 -0.0013176004 -0.0006734725 -0.00017677553 -0.00061345834 -0.0013314649 -0.0013488991 -0.00028495587 -0.0004769745 -0.0008299497 0.0008105172 0.00057581207 -0.00078746956 -0.00076340674 0.0015924049 -0.0016419414 0.0014198082 4.8319063e-05 0.0010462987 -0.0007629332 0.0006451093 -0.0006541029 -0.00041830022 -0.0010189468 0.00031149227 -0.0009692604 -0.0010191203 3.780576e-05 -0.00042379866 0.0004475166 0.0008871116 0.0013776016 0.0008950565 -0.0016199857 0.0012288645 -0.0011221581 -0.0014009705 0.00056341145 1.3084984e-05 -0.00022395908 -0.0011606017 -6.3632484e-05 0.0014121459 6.6890774e-05 0.001017287 0.0013906081 0.00028172368 -0.0008629692 0.0004888515 0.0014915563 0.0015838025 -0.001066295 -0.0010711532 0.000120176795 -0.0011500594 0.0011017554 0.0016286517 0.0011575937 -0.0015860985 -0.0012374755 0.0009934396 -7.7442564e-05 0.0015022022 0.00087056664 -5.399231e-05 0.00040426373 -0.0011807939 0.00039002096 0.0009646293 -0.00023676644 -0.0003250489 -0.00019979096 0.000942072 -0.0010366181 0.001019509 -0.0014674948 0.0016184284 0.00024235861 0.0015604484 0.0015307429 0.00044304278 0.0004947479 0.0016564477 -0.00076901994 0.001309379 -0.001641282 -0.0011630756 0.000107771186 0.0012219852 0.00040066332 -0.0014544771 -0.0011419802 0.00058654323 -0.0009458784 0.0008542999 8.152273e-05 -0.0015788003 -0.0013797714 0.00030369053 0.0005330249 -0.001345279 0.0013583484 0.0011244236 -0.0012462647 0.00096511294 -0.0007631201 -0.00010980454 -0.0009371756 0.0016615826 -0.0005172574 0.0003992944 0.00023922665 -0.0003204075 0.0010170947 0.00055400375 0.0015637163
in -0.0014073225 2.2872606e-05 -0.00111161 0.00088771014 -0.0012970009 -8.9874666e-05 -0.00086007226 0.0013473305 -0.0001254223 0.0014221072 0.0010643654 -0.00083746784 -0.0005372955 0.0006031684 -0.0010541413 0.00036047617 -1.5833548e-05 -0.000383667 0.0012836973 -0.0013812239 0.0013716833 0.0009781234 0.0005776342 -0.0007406018 -0.0016162184 -0.0005017983 0.0014944582 5.4181037e-05 -0.00079755613 0.0009521665 -0.00041457592 -0.00021723215 -0.00075489597 -0.000344083 -0.0012899778 -0.0013335078 0.00034397483 0.0005157136 -0.00083024224 -0.0010016811 -0.0012156845 -0.001278332 -0.0005454629 0.00043543035 -0.0013801492 0.00074571755 -0.0012211645 0.001137048 7.7598306e-05 -8.839706e-05 -0.0014752259 0.000973114 -0.00061220344 0.00017821157 0.0016572407 -0.00080059184 -0.0014488441 0.0011428932 0.0009832076 -0.000835096 0.00085316575 0.001015186 -0.0010287622 0.0012755443 0.0015517796 -0.00051054364 0.00042243878 0.0014713132 -0.00012357418 9.571485e-05 0.0014601301 0.00029322293 0.0012069837 -9.082681e-05 -0.0010405123 0.00095400127 0.0011280164 0.0011669592 0.0006807373 -0.0006356888 -0.0009685259 -0.0008252131 -0.0011971474 0.000803806 0.0014868958 0.0007618637 -0.00038648763 0.0012604409 0.00088367116 -0.0014561784 0.0007131675 -0.00021865498 -0.0016466704 0.0010801761 0.00036437745 0.00054919015 -0.000468402 -9.238576e-05 -0.0010320385 1.7555263e-05 0.00074856734 -0.00017958503 -0.0006367012 0.0015102609 0.00048560192 -0.0005598309 -0.00044454506 3.3922424e-06 0.0014643508 0.00097255374 0.00061961694 -0.0008858446 0.0010225379 -0.0012825114 0.00062186166 -0.00015949826 -0.0002715585 -0.001151569 0.00016515529 0.0015805576 0.0013805229 0.0011490553 -0.00034359845 0.00088398455 -0.00086215086 0.00068203034 -0.0013218699 -0.0005061906 0.0013040185 0.0011056967 1.9350748e-05 -0.0005288556 -0.0009932851 0.0013908438 -0.001017096 0.0012929745 -0.0006780703 -0.0006423531 0.001080463 -0.00038590992 -0.00045641052 -0.00035962302 0.0011933884 0.0016484249 -0.0011142492 -0.0010267443 0.0013970858 0.001374236 0.00096518756 0.0014629186 -0.0010920217 0.0010199697 -0.0014914842 0.0007651927 0.0011680524 -0.000619288 -0.0013194194 -0.00031126273 0.0009931583 0.001118 -0.0012940202 0.00014815784 -0.0005747896 -0.0006013354 -0.0001555287 -0.0011766726 -0.0011644596 -0.0006517521 0.0004442165 -0.0014041105 0.00032706623 -0.00080736144 -0.00035628656 -0.0012238313 0.00014550783 0.0011826147 -0.0012161502 -0.00025111384 0.0011866644 -0.000991461 -0.00026662956 0.0012244142 -0.00061644707 0.00022548369 -0.001592457 0.0010564368 -0.0012048337 0.0005830045 0.0009934505 -0.0007019612 9.989145e-05 -0.0013106659 0.0012854995 0.00034212513 -0.0013891015 0.0008750137 0.00023752879 -0.0013020479 -0.00038877656 -0.0003249552 0.00049229275 0.0004991989 0.00023278827 -0.0009899209 0.001475121 -0.0013154927 0.0015969898 0.0011123216 0.0014161636 0.00017758689 -0.0015060604 0.0008038739 -0.00085580995 -0.0015612346 -0.00084242364 -0.0003195957 -0.00079931796 -0.00081647636 0.000900389 0.0012741521 0.0013120968 -0.00075382553 -0.00049567653 -0.0006931963 -0.00044512295 -0.0012508059 -0.00060382654 -0.001245032 -0.0016248594 -0.0003648718 -0.00061051693 0.0014421055 -0.00093678816 -0.00041471096 -0.0016330528 0.00093981595 -0.00049861206 -0.0010163044 -0.00046600404 -0.00024372923 -0.0006316799 -0.0006524321 0.00075254857 -0.00010572947 -0.0013817094 0.0005977794 0.00070732716 -2.4958617e-05 -0.0007776482 -0.00011556377 -0.0015412241 0.0012998378 0.0015953205 -0.00080175855 0.00046182313 0.00026985153 -0.001483988 -0.00050440436 0.00086291606 -0.0015403754 -0.0014781668 0.0015539584 -0.0014139204 -0.0016175131 -0.00017279398 0.0006575121 0.00090509653 -0.00059151615 -0.0012420684 6.404624e-05 -0.0016627585 -0.0006335701 0.0015434904 -0.0004781496 0.0010699714 0.00092725613 -0.0005310897 0.00070279517 -0.0009301433 0.00067380146 -0.00082847005 0.0012056764 -0.0011097733 0.0016315378 -0.00044746257 -0.0016062417 0.001218212 0.00065593945 -0.000954959 0.0004261358 0.00065641716 -0.0013479552 0.00010301228 0.00015585349 -0.0014955018 -0.0005343878 0.0012968768 -0.00016165228 0.00096014724 0.0014367497
types 0.0011797982 -0.0012713263 0.00017564135 0.0011432812 -0.00053671846 -0.00032216441 -0.0005042845 0.0014956229 -0.0005676783 -0.00045437628 -0.00031076436 -0.0001192069 -0.00137766 0.00020662515 0.0013669305 0.0010290593 0.0015071146 -0.0004056245 0.0009915633 -0.0010687385 0.0009026726 -0.0007939488 0.00025714518 -0.0004317561 6.8103727e-06 -3.245347e-05 -7.979978e-05 0.0009173269 0.0007108901 -7.538362e-06 -8.441087e-05 0.0011265368 -0.0015495162 0.0005009963 -9.017861e-05 -2.712711e-05 0.00044218317 -0.0010097929 0.0011500324 -0.0015922807 -0.0005229704 0.0012188144 -0.0012357942 -0.0009410235 -0.00036149597 0.0001864193 -0.0010464137 0.00094303687 -3.926232e-05 0.0011088571 0.00037775072 -0.00031153366 0.0007768453 -0.0010664422 -0.0014595825 0.0011916494 -0.00014851122 -0.0011169442 0.001325159 0.0011559441 -0.00014608083 0.0005934769 -0.00011685146 0.0011269266 -0.00013261143 0.0014873757 0.00044825076 0.0009978092 0.00036564656 0.00022545311 0.00014575446 0.0013668154 0.0012917122 0.00082117895 -0.0002765102 -0.0008881393 -0.00037089983 4.432583e-05 0.00022929514 0.0014717674 -0.00078293384 0.0010680109 -0.0004791426 0.00019422233 0.000631393 -0.0016547291 0.00090604526 7.308986e-06 0.00055824564 0.00011903664 0.0008235173 0.0007834894 -0.0004494526 0.0015431254 -0.00065808895 0.0015438988 0.0001372889 0.00027298095 0.00037716818 0.0006374885 0.0010130337 0.00020218467 0.00079353055 0.0012838397 0.00044367125 -0.0008536588 3.2697375e-05 0.00039927845 -0.0011138667 -0.00085992296 -0.00037379467 -0.0009659876 0.0016491368 -0.0014871999 0.0007591386 7.679833e-05 -8.034619e-05 0.0006062015 0.001404097 0.0004570784 -6.864732e-05 0.0004997319 -0.0010898418 -0.001470886 -0.00074903533 -0.0015443948 0.0010413242 0.0003848644 0.0016295853 0.00040387127 0.00033236516 0.0009011945 -5.6162316e-05 -0.0013045598 0.0012832858 -0.00066486024 -0.0013783941 -0.0005117317 0.001256497 0.0010039419 -0.0009819879 -0.00030336253 0.0010888902 0.0013156196 0.0008341179 -0.00011524237 -0.00039588535 0.0005250259 0.0004343745 -0.0012580974 0.0012941465 -0.0012182072 -0.0013474658 0.00042503563 0.0008924522 -0.0013913274 -0.001596711 0.0010831254 0.0014531019 0.0004663786 -6.529163e-05 -7.3180294e-05 0.00057800586 0.0015505248 -0.000513224 -0.0013159708 -0.001335279 -0.0010257368 -0.0013713408 -0.0006535573 0.00033259517 -0.0015966247 -1.2308436e-05 -0.00010711491 0.000231663 0.0008772947 -0.0011079377 0.00017249266 -0.0014289004 -0.0006395313 0.00012957834 -0.0005258664 8.483978e-05 -0.00059703324 -0.00013367282 -0.000946913 -0.00046681066 0.00082500814 -0.0009610628 0.0011466212 6.163517e-05 -0.000707202 -0.0004748311 -0.0014229955 -0.000546196 -0.0010577558 0.00031705407 -0.0011400142 0.0005128054 0.00023198921 -0.0003685171 0.0011651326 -0.0008817353 -0.0013247692 0.0010595422 -0.0013138999 -0.0012838126 -0.0012283258 -0.00073018786 0.00041339375 0.00034065268 -0.0015271978 0.0001774136 0.00094227056 0.0016376793 -0.0010339663 -0.00056037307 0.00027438666 0.0009798771 -0.0013544622 0.0007481217 -0.0015270404 0.00030259733 -0.0015078736 -0.00093380915 0.0013633904 0.0005787247 0.00035750566 0.0012348732 -0.00025209377 0.00034575883 -0.0013073354 -0.001136526 -0.00095031044 0.0011959197 -0.0015508028 0.0011602303 0.0012477591 -0.0007393431 0.0016014881 0.0012606086 0.00047123464 0.0012589652 0.00096268306 0.0015389788 0.0008744053 -0.00054530374 0.001403474 0.0014691248 0.001305828 -0.00023269343 -0.0006388694 -0.00055406656 -0.0010833803 0.00138171 -0.0013691873 0.0014134053 -8.609352e-05 0.000551365 -0.0010581065 -0.0013153845 -0.0014859136 -0.0014224616 0.00041834475 0.000372038 0.00077455566 -0.00013328576 -0.00052033324 -0.0009901939 -0.00073209626 -0.0014378575 -0.00015655704 4.5055516e-05 -0.00041350132 -0.0015877745 -0.0013012235 -0.00068446004 -0.00050428667 -0.0010808776 0.0011047202 0.001589369 0.00076013926 -0.0012892437 0.0007456885 -0.00079663785 0.0011261246 -0.0004959028 0.00033552328 -0.00074432895 0.0006677651 -0.00034087742 0.0006062942 0.0009566384 -0.0015724679 -0.001234983 -0.00033191752 0.0011598391 -0.000473987 -0.0014514141 -0.0016459338
as 0.0014934546 -0.0011269818 0.0003006391 0.00065974554 0.0005332815 -0.00124634 -0.00049775053 -0.00038698968 -0.0005081057 0.0012724821 -0.0012907113 -0.0002588813 -0.0013968155 -2.4235966e-05 -0.0011994435 0.0011913313 0.0007681605 0.0014894633 -0.0011547065 0.0010195369 0.00029478496 0.000107368105 0.0013400746 0.0009291058 0.0010974586 0.00023267741 -0.00040533365 -0.0005454948 0.0015326686 0.00011918012 0.0010298735 -0.0012937363 0.0012770495 0.00045502622 0.0013784444 0.0014313259 0.0009994431 -0.0015289715 -0.0015725355 -0.0009474434 0.0006878436 -0.0012379441 -0.0007083927 -0.0014877947 0.0014017917 -0.0005281415 -0.0011758027 0.0002702796 -0.0014714195 0.0002653999 0.0004814689 0.0016036623 0.00036395012 0.0008480408 -0.0006388737 -0.0011526298 -0.0010719539 0.0015914724 -0.0014087078 -0.0015778398 -0.00091507833 0.000738346 -0.0008872134 0.0016089759 0.0010648732 0.00067578355 -0.00010833644 0.00027973967 0.00044721845 -0.001293817 -0.0008306204 0.0015950203 0.0013942543 -0.0013170139 0.001372698 -0.000859474 -0.0004424037 -4.1876603e-05 0.000604454 -0.0012075197 0.00089987286 -0.00035305 0.0016204529 0.001323235 -0.00047565487 -0.0008614653 0.00080722605 -0.0014487043 0.0013836648 -0.0012856313 0.00014633936 -0.00039379843 -0.00045259087 -0.00096437475 -0.0015001404 0.0004821056 -0.00024543356 -0.00083292037 0.0015161971 -0.0011726933 0.00062742346 0.0014429226 -0.0013239295 0.0009088657 -9.980603e-05 -0.00091197324 0.00032888944 -0.0013037642 0.00025184403 0.0004474966 -0.000552879 2.512369e-05 -0.0008537767 0.0007666902 -0.0006909062 0.00065022183 0.0012444867 0.0005793528 0.0006474999 0.0014236501 0.0010285318 0.0016357647 0.0004919226 1.4755889e-06 0.00054991647 0.0006039079 -9.062497e-05 -0.0014660356 0.00039907632 0.0007503411 0.0009481018 0.0010049042 0.001448007 5.5776993e-05 -0.00014638297 0.0011256199 -0.00075096305 0.00089242944 0.00013827106 -0.00015524606 -6.712057e-05 0.00080764625 0.0010456507 -0.00045495492 -0.0011528989 -0.0002554368 0.0015506247 -0.00033412685 -0.00073422247 -0.00019926263 -0.00026594 -0.0013530377 -6.5569734e-06 0.00012809629 -0.0006057299 0.00044077306 -0.00025444102 0.00065317575 0.00020949056 0.0006839096 0.0011961327 -0.00047765693 0.001629341 0.00011618023 -0.0014914767 -0.001552248 0.0012114152 -2.9245597e-05 -0.001290471 -0.0007272316 0.00023684512 0.0014502049 -0.0016306057 0.0016239517 0.0005080131 -0.00032661346 0.00076809933 -0.00087765127 -0.00069131376 0.0012947285 -0.00047196803 -0.0015590142 -0.0006926676 -0.0012024868 0.00024041192 0.00028331965 -0.0009412061 0.00085660385 0.00039209833 0.00029280692 -0.0012672651 8.616119e-05 -0.0012954831 0.0013485033 0.0014522687 -0.0013295624 -0.00035786664 0.0005128331 -0.0009214831 0.0014952362 0.0010679842 0.0015352251 -0.00064762443 -0.0008126398 0.0010513874 -0.0004488982 -0.0015724306 -0.0011874854 0.0014716423 0.0009819698 -0.00055999187 0.0016444152 0.0005096296 -0.001125661 0.00073504634 -0.001563104 0.00045891854 -0.0013380445 0.0009040339 0.0002269556 0.0011535177 0.00073080143 -0.000268744 0.0015055774 0.0015075724 -0.0015775177 0.00070902734 -0.00013949399 0.0008196615 -0.00040417223 3.3171644e-05 0.0016448216 0.0014483419 0.000781641 -0.0013246805 -0.0012322403 0.0012952925 -0.0011986478 -0.0015564981 0.0009412763 0.00038885543 -0.0013614595 -0.00081683154 -0.0007997678 -0.000631729 -0.0012153845 -0.000531959 0.0016647753 0.0002936039 -5.3123033e-05 0.0009686232 0.00019001422 0.0008632199 -0.0009823131 -0.0008709605 -0.0012479463 -0.00037776201 0.0015847486 0.0009987074 -0.00026755148 0.0016475735 0.00020374307 0.00055484346 -0.00066464965 0.0010709171 -2.6978054e-05 -0.00087298796 0.0010884631 0.00052414765 0.0015050076 5.029734e-05 0.0014086947 0.0015397108 0.0009000471 -0.0013958071 0.00010433739 -0.0006166822 -0.00032204296 -0.0010309349 0.00034151122 -0.0014445293 -0.0007861763 -1.931711e-05 0.00033671487 -0.00040435302 -0.000373261 0.00088811724 -0.00033613932 0.0013759023 -0.0008088016 -0.00042631925 -0.0015974608 -0.0005733186 2.0920357e-05 0.0016146437 -0.0007138387 0.0008952602 -0.00057628273 7.651558e-05 0.0009050726
be -0.0016373306 -0.00077654666 0.0009269915 0.00037834572 -0.0008540663 -1.68263e-05 -0.00029962815 0.0011149164 -0.0016008177 0.0014733557 -0.0016037197 -0.0001276347 0.000563722 -0.0005679545 -0.001176526 0.000989308 -0.0012186391 0.0005787992 0.0005063379 0.0013405329 -0.0007197778 0.0007988242 0.000504213 -0.0010861969 -0.00018660967 -0.0007076355 0.0006027459 0.00015625777 -7.384351e-05 0.00096600247 -0.00080318324 -6.224143e-05 0.0004587224 -0.0009027635 0.0015314935 0.0016127768 0.0010010474 0.0008103374 -0.00082473026 0.0014591537 -0.0010003224 0.0009911853 -0.0005119018 -0.0012953494 0.0015375235 -0.001361632 0.00052566215 0.00041861203 -0.00056320836 0.0014057838 -0.00088327273 0.0005327003 0.00054875825 -0.00042286032 0.0003138297 -0.0007933998 -0.00018176122 -0.0007173593 0.0014034479 0.0002442455 -7.234647e-06 8.290893e-06 0.0016165746 -0.0009422001 -0.00058703526 -0.00040674122 -0.0013446236 0.000700502 -0.0012558181 -0.00020388096 0.0006518265 -0.0013749688 -0.00030171254 -0.0008179409 0.0010636887 -0.0009843262 -0.0014385359 0.0010710205 -0.0013570546 0.0010453017 -0.0008053803 -0.00060657336 -7.9039935e-05 -0.00011799088 -0.00034089683 0.0008932903 0.00035376553 -0.0006325369 -0.00050453213 0.0010727324 0.0001567845 0.0014544725 -0.0015467519 -0.00015446832 0.0011065349 0.0005570413 -0.0011552182 -0.0007668399 -0.00070167804 0.00020420123 0.0009766876 -2.1019196e-05 -0.0013548352 0.0011562179 0.00041505025 -0.00072395505 -0.00028561577 0.0015893586 0.0016135391 -8.4231586e-05 0.0007975631 0.0012907531 -0.0006774148 0.0011514425 0.0011923712 -0.0006171693 -4.1420433e-05 0.000764768 -6.353299e-05 0.0011416947 0.0013046406 -0.0008203302 0.0007993344 0.0004909924 -0.0009361372 -0.001186068 0.00013741862 0.0010013412 0.0007157698 0.0005524075 -0.00028993067 0.00030591953 -0.0013719208 -0.00026321667 -0.000153913 0.0013841093 0.0006871714 0.0010897407 -0.0003711285 0.0016538416 -0.0010329155 -0.0013203495 -0.0008718047 0.0015297442 -0.0012864477 -0.0002789656 2.8671551e-05 0.00078340416 0.0013940292 -0.0008747704 0.0005696548 -0.00017186553 -0.0007067507 -0.0005124997 -0.00037784 -0.00015568356 0.0014014908 0.0012172079 -0.00044418 0.001588277 0.001320395 -0.0003434343 0.0006321037 0.00012683176 0.0012613151 -0.0014566446 -0.0008677095 0.0009190156 0.00019312526 -0.0009659215 -0.00070247013 -0.0007587345 0.0011236309 0.00015328596 -0.0009682215 0.00010989744 6.432364e-05 -0.001541622 0.00037370142 0.0004309035 -0.0007707844 -0.0012773398 -0.0005457727 -0.00030035488 -0.0014185578 0.00022619095 -0.00019572988 0.00014493929 -0.0009984273 -9.12859e-05 -0.00092144555 0.00085024745 -0.0015497743 -0.00094135175 -0.00067827664 -0.001627853 0.0010361724 0.0005676958 0.00068928226 0.0012532361 -0.0011330002 -0.00010592836 -0.000909887 -0.000109083405 3.34407e-05 -0.0009264282 0.00040404283 0.0014071389 -0.00021931255 0.00027037345 0.00019651564 0.0009610082 -0.0012949534 0.001460603 0.0013144385 -0.000757135 -0.0003194147 0.0005474717 -2.3099743e-05 -0.0007967089 -0.0011153661 -0.00063290156 0.00053376035 -0.00092836627 0.00089747674 -0.0016539 0.0012738105 0.0004677611 1.6159868e-06 -0.00093854946 -0.0007345944 -0.00076328125 0.00010433311 8.476888e-06 -0.00083260617 0.0012013415 -0.0012730648 0.0014734309 0.0004395206 0.00038783113 0.0010725311 -0.0007769577 -0.0004898969 0.00059464003 -0.00050833035 0.00059244724 0.0008144447 0.0013368994 -0.00050066866 0.0013310789 0.00065349386 0.0010933444 0.00038820112 -0.0013827458 0.0011018506 0.0006641116 -0.0014831871 0.0013818986 -0.0013792762 -0.0006725138 -0.0012242919 2.3442337e-05 0.00083880883 8.241577e-05 -0.00092913286 -0.0003249401 -0.0013265 -0.0014658531 0.00017798296 0.00094120944 7.521721e-05 0.0011064966 -0.0006812005 -0.0004230748 0.0016145381 -0.0007361986 0.0011985282 -0.0014703489 0.0012597645 0.00040817334 0.00016510846 -0.0016582208 0.00040581 0.00059833576 -0.0007261298 0.0010410248 0.0012867671 0.00024435855 -0.0016628611 -0.00044039116 0.0015517263 -0.00027613572 0.00038739116 -0.0015155833 0.0011897639 -0.0010092215 -0.00070208573 -0.00012825962 0.0009892369 0.0010596724
is -0.00033091253 -0.0014929363 0.0012043072 -0.0008407053 -0.0010812926 -0.00062352314 -9.574958e-05 0.0009338461 0.00082072144 3.3227418e-06 -0.00034876884 -0.00073920295 0.0013635992 -0.00038918573 0.00096655666 -3.0271833e-05 -0.0008697383 -0.00086044753 -0.0013281775 -0.00096585625 0.00014711716 0.0015623501 -0.00045322464 0.0011641104 -0.0003698226 -0.0012905998 -0.0012392581 0.00073821243 0.0004581546 0.0010724117 -0.0015198863 0.0011301107 -0.00058807357 -0.0013675487 0.0011275827 -0.001325561 -0.00090440817 -0.0010137009 -0.001635024 0.00085111137 -0.00026792142 0.00017318959 -0.000874912 0.0015130733 9.736701e-06 -0.0013116425 0.00029304353 0.0014065576 0.0012648482 -0.0016224044 -0.00037849537 -0.0013863284 -4.240192e-05 -0.0016590023 3.119755e-05 -0.0011778439 -0.001253243 0.0016392182 0.00080088095 0.0015189829 -0.00019855038 0.0009913384 0.00092134636 0.0011792433 -0.0012470863 -0.000792412 0.0014503056 0.00026500208 0.00016421858 -0.00091687805 2.753095e-05 -0.0014220423 -0.00056843273 -0.0015513698 -0.00021899794 0.001171399 -0.0005722839 -0.0011193071 -0.0016015253 -0.00033462854 -0.00039671926 -0.00039564053 0.00014310019 0.00024171184 -0.00089885644 0.0014058055 -0.0016595615 -0.00028896745 0.0013566739 0.0008349016 0.00080381625 -0.0006393022 -7.895786e-05 -0.0015999795 0.00026454206 0.0014282571 -0.00054283027 0.00018503433 -3.8795137e-05 0.0013691187 -0.0012285274 -0.0012125237 -0.0008752269 0.00041913625 0.0013839909 -0.0010727419 -0.000643046 0.0010894624 0.0011992179 0.0007414617 -0.0003734469 -0.0015494453 0.0012350543 -0.0016307349 0.0007756543 -0.00011082199 -0.00038219537 -0.00040447226 -0.000520556 0.0010141949 0.000827521 -0.0007131927 0.0014359724 -0.0016158719 -0.0016288831 0.0001964022 -0.0011709136 -0.00017652777 0.0012734028 -0.0012281102 -0.0006501072 -0.0010773711 -0.0011760769 -0.0007852445 -0.001612485 0.0011523891 -0.00031764692 -0.00069811713 0.00083347835 0.00054813176 -0.00044544018 -0.0007327027 0.0004523063 -0.00013905279 -0.0006065941 -0.0011725298 -0.000116363466 -0.00065716647 0.00039673763 0.0009710534 -0.0015762222 0.00034396653 0.0011287325 0.0002639578 0.0015558918 -0.00030934846 -0.0010263298 0.0013444338 -0.00023139974 0.0006938289 -0.0014121084 0.00085021445 -0.0010860144 -0.0015792609 -0.00055891165 -0.00074749836 -0.00038938128 -0.000118425065 -0.0007387577 0.0004425089 0.0007116771 -0.00034381187 -0.0016561308 0.0015973154 0.00080008135 4.2534907e-06 0.0012907755 -0.0003340616 -0.00073123944 0.0014257428 0.0010321008 -7.386177e-05 0.001645613 0.0008730494 -0.00014613057 -0.0009294785 0.00015037536 -0.00039783775 -0.0010784632 0.0003578038 0.00051119376 -0.00048469743 0.0015654678 0.0007378618 -0.0011120249 0.0008412393 -0.00017998934 -0.00071991165 -0.0005660367 -0.00033469207 0.0016499244 -0.0007691281 -0.0016137084 0.0010894269 -0.0010896076 0.001599288 0.00039107163 -0.00016422382 0.0011062782 0.00030755132 -0.0014056579 0.0005176459 -0.0014412216 -0.0012469318 -9.1832706e-05 0.0010398845 -0.0010669385 -0.0014732545 -0.0012724946 0.00073134934 -0.0010539135 -0.0003884778 -0.0008406921 -0.00045502261 -0.0012278232 0.001096452 -0.0005464319 0.0015135114 0.0015088407 -0.00039207397 -0.0009348083 -0.0012139113 -1.2531971e-06 0.0009946364 0.0004534292 0.00014842466 0.0008614089 -4.9421113e-05 -0.0016493265 -0.0002802792 -0.0006761444 -0.001284359 0.0010634303 -0.00031992476 -0.00017623234 -0.0007592696 0.0010805416 0.00023606564 -0.0015156886 0.0012669379 -0.001331599 -0.00065402396 -0.00020504893 -0.0013363264 0.00025775368 -0.0004310605 -0.0014069928 0.0016156763 -0.0014841283 0.0007125204 -0.0012972127 6.505059e-05 -3.58953e-05 -0.0006749224 -0.0010828259 0.00044649345 0.00025633967 0.0014928534 -0.0011502074 0.0014100134 0.0008755434 0.0001829566 -0.0013401572 0.001659026 -0.0013541459 0.00097354496 0.0010002234 0.00022486865 -0.0009210125 0.000602785 0.00063326187 -0.0006582952 0.001311831 0.0008105479 -0.0013424294 -0.00091230747 -0.0009875013 0.0016526099 0.00018244026 -0.0005345281 0.00015738423 -0.00028498957 -0.00020973137 -0.0005553789 -0.00012569794 0.000972116 0.00065759185 -0.00053883577 0.001552996 0.0005635886
or -0.0011814093 -0.0012587248 0.00016845626 -0.00015058796 0.0012107136 0.000643811 0.0009577063 -0.0006877553 0.00062535465 0.0007752826 -0.0015836745 0.00059605914 0.0002050907 -0.0006660668 -0.0003465419 0.0013741369 -0.0006073265 -0.0013919562 -0.0005674918 -0.0013536225 0.00060844794 -4.206934e-05 0.0002544215 -0.0008266095 0.0009969851 5.1074614e-05 -0.0010248247 -0.0016111546 -0.0015074748 0.0011070359 -0.0014213497 0.0012002796 -0.00013934748 -0.0016078438 0.00018125321 0.00039839238 0.0013793973 -0.00026435227 0.0014254035 -0.00022719598 0.00055941776 -0.0010919687 0.0015257844 0.00065910874 -0.00012655862 -0.0013679395 -7.0033806e-05 0.0006995145 -0.0013514061 0.0010575926 -0.0015157637 0.00091609417 0.0010370484 0.0013871038 0.0014103915 -0.00073665695 0.0014506201 0.00028796363 -0.0007864355 0.0014508534 0.001502237 0.00066075736 0.0011976568 0.0011103794 0.00051930494 -0.00088234415 -0.00077705964 0.0004544868 -0.00109159 0.0011373744 0.00017872718 0.0005268431 5.485764e-05 -0.0007893824 0.00042654332 0.001015162 0.00032592512 0.0014824498 0.0009245272 0.0007748559 -0.0016638984 0.00039893942 -0.0010272255 -0.0015577953 -0.00035863803 0.0010442096 0.0010068968 0.00025268973 -0.0003151212 -0.00073026965 0.0015265066 -0.0015951917 0.0001378801 0.0003831376 -0.0014019957 0.00029445824 -0.0007915225 -0.0007967474 0.00071063504 0.0008292645 0.0010351047 0.0009713717 -0.00052231376 0.0011444809 0.0012753666 0.0004527254 0.00097271224 0.0007584111 -0.00063291553 -0.00067863864 0.001126797 -0.00094487006 -0.0015939162 0.0013028858 -0.0011317125 -0.000571012 -0.0013286342 -0.0004189418 0.0011845668 0.0007044282 0.0011678834 -0.0015464532 0.0008192656 -0.00069111877 0.0008580125 0.0007888926 -0.0014535446 0.0012824459 -0.00091900275 -0.0009910219 -0.00029503385 -0.0014389936 0.0007577765 -0.0007254693 0.0003763269 -0.00051773316 -5.0863902e-05 -0.0013578648 -0.00012993884 -0.0012017995 -0.0014408855 -0.00083716353 -0.0013958311 -0.00026599545 -0.0004393071 0.0012522674 -1.6549486e-05 -0.0014362645 0.00062557595 0.0009293896 -0.0007556576 0.0011840331 0.00011654947 -0.0009818112 -0.001666166 0.0016081799 0.0011767898 -0.0009817802 0.00011152451 0.00036103482 -0.0011335504 0.0011204171 -0.0012293103 0.00023401428 -0.0011498788 0.0011317175 -0.00067086914 0.00022413247 0.0011984373 -0.0008335554 0.0013911879 0.00027216945 -0.0011455489 -0.000110096895 0.001387583 0.00014367026 -0.00037844406 -0.0004399353 0.0008333829 0.000748016 -0.0006828763 -0.0006456135 -0.0016144663 0.00021767881 -0.0010953648 -0.0003526722 -0.0015315613 0.0004124041 -0.0011506651 5.4686385e-05 -0.00058984896 -0.0015091088 -0.0014200213 0.0010152304 -0.000105007486 -0.0011118469 0.0005416045 -0.0003846343 0.0014865688 0.00156675 0.00031247013 0.0013985303 0.0006440714 -0.0013084757 0.001572895 0.00078929996 -0.0010581037 -0.00082199386 -0.0008961704 -0.0016327853 0.0013472968 -0.0014541316 -0.00091360486 -0.00060317223 0.0008127139 -0.0009163283 0.00066213676 -0.00066297234 0.0006695289 0.0009811758 -0.0015537048 0.0014109096 0.0012447269 0.0012932732 5.7968246e-05 -0.0009180064 -0.0014497259 0.00020951116 -0.00149738 -0.0010900593 0.001273758 -0.0013723944 -5.8410307e-05 0.00039956297 0.0011165682 -0.00058335974 0.0011711435 0.000684627 0.0004496007 -0.0014155179 -0.00087954703 0.00017757762 -6.897653e-05 0.0007179066 0.00075638335 0.00014658736 0.0005880449 0.0008023671 0.00086918013 0.00019993009 0.00034564297 -0.0007876301 -3.1082566e-06 -0.00029153755 -0.0004657317 -0.00089801446 0.0009941893 0.0010638084 -0.0011633902 0.0011134474 0.0015654843 -0.00027029458 0.00026142417 0.0013188197 0.0008473 -0.00070010015 0.0011991782 0.00039558476 -7.308532e-05 -0.0012827269 -0.0005789977 -0.0005615842 0.0005808547 0.0015237342 0.0015360618 0.0007687654 -0.00097254646 -0.00010046729 -0.00073299074 -0.00043859563 0.0009168249 -0.00039120988 0.00061653735 0.00055386266 0.0011150792 -0.00021332844 0.0004367736 -0.0011880782 0.00051163265 0.0005319363 0.0011126181 -0.00013953826 -0.001333858 -0.0011362236 -0.00067734934 0.0015349906 -0.0012753245 -0.00093698816 0.0003760533 0.00017120596
values 0.0016073008 -0.0008272569 9.051492e-05 0.0002755781 -0.00016980259 0.00088224077 0.00024527108 -0.00022441847 -0.00047439773 0.0014619353 -0.0011463471 -0.00054267177 0.00024438454 0.0003913648 0.001138406 0.0012948539 0.00050047063 -0.0012166075 -0.0007942883 0.00075982895 0.001222073 -0.0011205319 0.0003837036 -0.0006521692 0.0016370096 -0.001569913 -2.2464084e-05 -0.00055233727 -0.00047148997 1.708594e-05 -0.00028747026 -0.0012460599 -0.00083217764 -0.0012534809 0.0015461028 -0.0013885342 0.0003262853 -0.0012017668 -0.0015077505 0.000630009 0.0012614218 -0.0008777433 0.001476542 -0.00013248075 0.00022711673 0.0014256309 -0.00038034117 0.0012909215 0.0015788934 0.00036393534 -0.00011579437 -0.0006151339 0.0015541846 -0.0002430727 0.001307616 0.0004571227 -0.0008571544 -0.0015882788 -0.0011463562 -0.0009047032 0.00016654228 0.0001205713 -0.0001758172 9.788626e-05 0.0010000356 0.0011484933 -0.0011610077 0.0011978494 -5.144686e-05 -8.800001e-05 -0.0011364662 0.00047916203 -0.00020238213 -0.0014768811 -0.0012613825 0.0010406399 -0.001504234 0.00026938578 -0.0009564947 -0.00082090276 0.00091678125 0.0006348677 -0.0008492706 0.0005661087 -0.00044060597 -0.001598552 -5.1949173e-05 0.00010296386 0.00027492116 -0.0012826724 -0.0009785873 0.0009025679 0.0012192467 -0.00021738518 -0.0009197301 -0.00037667344 0.00015028242 -0.00080223015 -0.0010107562 -0.00083156524 0.0016041916 0.00060118746 -0.00049907184 -5.3952233e-05 -0.00063389505 -0.00046973 0.0008661557 0.0005060937 -0.0011009742 4.1149848e-05 0.00065911905 0.00036834012 0.0012470075 4.26884e-05 -0.00037972865 -0.0007348363 0.0006627107 0.0011571544 -0.00019490739 -0.0008612653 -0.00019493392 0.001369107 1.6020982e-05 0.0010200251 -0.0012585177 -0.0007684204 -0.0015565308 0.00049120287 0.00049133075 -0.00032277266 0.000417723 -8.7587185e-05 -0.00051529566 0.00061254663 0.001015958 0.0010063451 -0.0010967115 -5.5687597e-05 -0.00039973692 0.00075597846 0.00023556384 0.00039907807 0.0011988101 -0.0010453733 -0.0003789991 -0.0008454172 0.00022875927 0.00017511752 0.0014025266 0.00013721916 0.00072661374 -0.0006612598 -0.00084221736 -0.0015085927 -0.000798565 -0.0003114237 0.00096114236 -0.001246383 0.0014613378 -0.0010103717 0.0016643037 0.00037522224 7.4925265e-05 -0.001005189 -0.0013514939 0.0010573346 0.00047715814 0.00067451556 0.00081319164 0.0008547822 0.0014469067 0.000305516 0.001403832 -0.0008671597 0.0003708937 0.0012132346 -0.0006978493 -0.00056616135 -0.00076667254 -0.0011557302 0.0009151528 -0.00080444344 0.001398239 -0.0014059648 -0.0015434837 0.0010864018 0.0005402483 -0.00084531156 -0.00060899154 -0.00013359319 -0.001454975 -0.0013242324 0.0003121467 -0.0012112978 -0.0015119383 -0.00011945344 0.0005545808 0.00038502162 -9.143032e-05 -0.00024417546 0.0014643958 -0.0007279209 0.0003602247 0.00078306295 0.00071107014 0.00089384656 0.0005274914 0.0015324795 0.0013992395 0.00014013053 -0.0012604538 -0.0015450774 -0.001302446 0.0007991732 -0.0009537468 -0.0012020457 0.00012017689 -0.0008947264 -0.0016132818 -7.824161e-05 -0.00092435256 0.00054913474 0.0007811126 -0.0007643478 -0.0013372713 0.0011545499 -0.0014111289 -0.0005404665 0.0013218563 0.00035871103 -7.360924e-05 -0.0011533352 -0.00093020994 -0.00039198485 0.00078731246 0.0010774109 -0.0015405945 -0.001247303 -0.0012104207 0.0013749094 -0.0013529647 -0.00094861514 0.00070189795 0.0012454342 -0.000954333 -0.0011845264 0.0011680108 0.0013319097 0.0015072038 -0.0014887669 -0.00032271002 -0.0002622771 -0.0010859189 0.0003610826 0.0016097118 0.00047053315 0.0005281203 -6.211234e-05 -0.001575921 -0.0009140083 -0.00016781168 -0.0007517634 -0.00019160514 0.0008800511 0.00034547906 0.00038295187 -0.0011905838 -0.0009967256 -0.0007463314 -0.0015986116 -0.00075624854 -0.000107575936 0.0007597314 -0.001225482 0.00020423958 0.0006402477 -0.0013057867 0.0007904455 -0.0007277337 -0.000925913 0.00015585171 0.0009600314 0.0012608989 -0.0016269564 0.001519559 -0.0013860576 -0.0015793873 -0.0015577461 -0.00037031155 -9.801757e-05 0.0010761985 -0.0015593175 0.0002113556 0.0010034726 -0.0009732365 -0.0013918374 0.0008493415 -0.00017901807 -0.0010274097 -0.0013599873
can -0.00055696955 0.00044583806 -0.00074809266 0.00011601437 0.00086023286 0.0012983166 -0.00076650415 -0.0008275878 -0.0016408977 0.00069297885 -0.0014193254 -0.0011245591 -0.0009484453 -0.0008497279 -0.0014420277 -0.0014912824 -0.0012331969 4.5918281e-07 0.0016371482 -0.00045827875 0.0010383102 0.00014378845 -0.0015871526 -0.00082853436 -6.2895204e-05 0.0008551637 0.0002460502 0.001127032 0.000589574 -0.0014386164 -2.2333292e-05 -0.000891545 0.0010253498 0.00037391655 0.0016048085 -0.00013724367 -0.0016104636 0.0013380427 0.0013183744 0.0006692256 -0.0012437219 -4.9593164e-05 0.0011390024 0.0008796828 -0.0014364057 -0.001197079 0.000501652 0.0012124716 0.0012862679 0.0015617921 0.0015138669 0.00043689896 -0.0014475154 -0.00012302643 -0.0006131115 0.0012489943 0.00092927687 0.001645856 0.00038832863 -0.0010090353 0.00039019174 -0.001452913 0.0016486316 0.0014137325 0.0011409726 0.0013184705 -0.00067165843 -0.0009801817 -0.0007778524 0.00044900252 -4.712289e-05 -0.0009879884 0.0008924796 -5.6847326e-05 0.0015819198 -3.4877725e-05 0.0010074871 0.0015849372 0.0012179393 -0.0002315141 -0.0012464938 0.0014856411 -0.0016369007 0.0009846841 -0.00055089465 0.00070937484 -0.00023511972 0.0009239321 -0.0016090688 -2.8234365e-06 -0.00050902506 0.0007657945 -0.0007260837 -0.00032927212 -0.0005520709 0.0004642148 -0.0007972798 0.0008194971 0.00034307968 0.0002819783 -0.0011245202 -0.00048842345 1.5389567e-05 0.0008331429 -0.0015078286 -0.001411779 0.00056203926 -0.0008630057 0.0009265026 0.0007171206 0.0007456967 -0.00033208376 0.00040404507 0.0010230447 0.0015749589 -0.00094117166 -0.00017722152 0.00078521826 0.0011060473 0.0011936863 -0.00028156603 0.0012879455 0.00015840153 0.0013412617 0.0005606608 0.00019370815 0.0010889407 0.0009992045 0.0010472374 0.0015003657 -0.00077250856 0.0014775693 0.0014277501 -0.00037827142 -0.0008615567 0.0016495372 -0.0015020388 -2.5669588e-05 0.0014145564 0.0012622466 6.872139e-06 -0.0014855406 -0.0014166691 -0.00011619711 0.0014561231 -0.0007145102 0.00034185406 0.0015020595 -0.00077873596 0.00082927174 0.0014518087 -0.00081906945 -0.0015793256 -0.0013884722 0.0011866062 0.00044950252 0.00059013034 -0.0014428282 -0.00034725532 -0.0007230883 0.00066654186 -0.001281492 0.00013549358 -0.0007471859 -0.00014388702 -0.00038770886 -0.00010950217 -0.00068044185 0.00012113817 0.00030567398 0.0004757338 0.00080054614 0.0010321722 -1.39892e-05 -0.0010694299 0.0009878699 -0.0009376566 0.0013578511 4.3487802e-05 0.00034358114 0.0010680815 -0.0003143269 -0.00080609607 0.00024030647 -0.001410406 -0.0015715979 -0.00086600904 -0.0010339725 -0.0010589616 0.0007207247 -0.00051339885 0.001606163 0.00037114267 0.0009861623 -0.00021230691 -0.00050207827 -0.0013082878 -0.00021236941 -0.001191424 0.00073742046 0.0011361716 -0.00048801268 0.0006697286 0.0011206368 0.00074987346 -0.00016013271 -0.00062968355 -0.0014253015 -0.00062357343 0.0016092533 -0.00034901075 0.0014011039 0.000720537 -0.0003136704 0.00077730906 0.00015758026 0.00015742052 0.0011806333 -0.0011530512 0.00012279369 0.0016288089 -0.0010322499 -0.00091978756 -0.0014231217 0.00029602522 0.00012077705 0.0009323572 -0.00014907173 0.0005404908 -0.00018894282 0.001225643 -0.000719498 -0.00014421693 0.00055026385 -0.00037953467 0.001437446 0.00075499376 0.0016449685 0.0011801441 -0.0014300265 -6.606491e-05 0.0011964592 0.001023438 0.0015853185 0.0005536654 0.00046872513 0.0003161457 -0.0016215208 5.775958e-06 -0.0016370127 0.0004707674 -0.0003732087 0.0006257269 0.0009999499 0.0010472593 0.0004644992 -0.0010536163 -0.0004765263 0.0014018278 -0.0015615808 0.0013108213 0.00077290885 -0.0015426289 -0.0015633384 -0.001661436 0.0016201399 0.0015982944 0.00060192874 -0.001036452 -0.0004925621 -0.0012275915 -0.0005701754 -0.0012434114 -0.0013626826 0.00063696044 -0.0004663432 -0.0005212835 2.1918564e-05 -0.0016022256 -0.000106477426 0.0011524409 0.0014517108 0.0016409558 0.0011701696 -4.6878573e-05 0.0011235684 0.00020109084 0.0012824121 0.0011592116 -0.0009374619 -8.9353e-05 0.0016657612 -0.00067209534 2.9391616e-05 -0.000264437 -0.00054851343 -0.0010859703 -0.0007343848 -0.0005118071 0.0005020655
are -0.0010298503 0.00017819193 -0.00079294 -0.0016409742 0.0015964431 -0.001285956 -0.0006784429 0.0012635823 -9.750718e-05 0.0007374422 0.001159989 0.00073407684 0.00036255165 -0.00065796566 0.00047629466 0.0008943008 0.0007999678 0.0009449664 0.0011210807 0.0010042263 -0.0008139176 -0.0011131893 -0.0001066597 -0.0011601784 0.000913004 0.00087765825 0.001587043 0.00079333066 0.00029121785 0.0015681753 0.00028953064 -0.0011462021 -0.00059143367 0.0016190291 0.0012891667 -0.00029398908 -0.0014581167 0.0013605008 -0.00043852083 -0.0016593457 -0.00034973572 0.0015878897 -0.0011187071 0.0014937675 -0.0014075232 -0.0011509148 0.00052309455 -0.00011788752 0.0002197605 0.00026714106 -0.000856071 -0.0015175823 0.0016177752 0.00083476765 -0.0009685484 0.00014668921 -0.0003860513 0.00066614297 0.0009196149 -0.0015560978 0.0011680229 -0.0009156245 -0.00020052906 0.0013052445 0.00020837628 -0.00085396843 0.00027685583 -0.0011381923 -6.659387e-05 -0.00030276005 0.0013415144 -0.000831058 0.00056575896 -0.0013489113 -0.0015896428 -0.0013163558 -0.0006501059 0.0009666918 -0.0013532143 -0.0013956561 0.0010238419 0.0009182869 -0.0012298988 -0.0011077892 0.0012445438 -0.00056586764 0.00070188456 0.00036570488 -0.0006112771 -0.001404508 -0.00043261287 0.0014904569 0.0005728294 -0.001282674 -0.000177085 -0.0016259166 -0.00036338685 0.0006597 -0.0010326914 0.0005241737 0.001477585 -0.0011039617 -0.0015496046 -0.00026758556 0.0015767361 0.0008666987 -0.0016202037 0.0014557131 0.0014499965 0.0009336291 0.0009741661 0.0005393847 -0.0008167363 0.000117320946 -0.00018161323 -0.0010278345 -0.0014671297 0.0004851842 -0.0013517925 -0.0008617673 0.00096607534 -0.000111620124 -0.0010422015 0.0009451221 0.00035734958 0.000641928 0.0001660879 -0.00118768 0.0004756089 0.0009629243 0.0009720824 -0.0016427962 -0.001442794 -0.0016664512 0.0015097369 0.0015589538 0.0008335205 -0.0014091268 -0.00053310534 -0.00061236444 -0.0016156614 -3.6296096e-05 0.0013763257 -0.001048507 0.0010052494 -0.0014848885 -0.0011662595 -0.0011087832 0.00083760684 0.00029236448 0.00027312612 -0.0007990385 -1.5003329e-05 -0.001059516 -0.0013657898 -0.0013036482 0.0016478121 -0.00090119656 0.0008416919 0.0010488925 0.0005345023 -0.0016638238 -0.0012009995 -9.296156e-05 -0.0014070563 -0.00074499747 0.0010336858 -0.0012501335 -0.0012893508 0.00019711562 -0.0013470534 0.0014334181 0.0009931532 0.00040730505 -0.0011022091 -0.00085167453 -4.776864e-06 0.0007257385 -0.0006125608 0.00078491523 -0.00026558802 -0.0008386285 -0.0010105425 0.0011657376 0.00084643916 0.0007425526 0.001321683 -0.0011363268 0.00036258015 0.001501079 0.00056012213 0.0013733588 -0.001041109 3.84228e-05 0.00029717764 -0.00082409364 -0.0015899108 0.0011493433 -0.0012782214 -0.0014236369 0.0003439273 0.0010561041 -0.0013648452 -0.00025110738 0.00020874037 -0.0011247385 -0.0014638101 0.0012619417 -0.0015165556 -0.0011300226 0.0006463851 0.0014606289 -0.0016345974 -3.5670804e-05 0.00085479714 0.0013189559 0.0015266616 -0.0010397737 0.00044075455 -0.000938531 -0.0012448423 0.0012502172 -0.00090815505 0.0013887667 0.0011638445 -0.0011192089 0.00049821235 0.00075787085 0.0013733656 -0.00090314355 -0.000611823 0.0011512425 -0.00041891512 -0.0015540988 0.001254434 -1.6502678e-05 0.001414587 0.00092725165 0.0007121956 -0.000562836 -0.0011556281 -9.420214e-05 0.0012031347 -0.00049611507 -0.0016153421 -0.00035993053 -0.00018229807 0.00024150692 -0.0012438088 0.0010250342 0.001039711 0.00046379978 -0.0016372703 0.0007294448 -0.001271794 -0.00061569805 -0.00085207925 0.0012583927 0.0010512966 0.00035705144 0.0010273294 0.0007593515 0.0009730931 0.0013191174 0.0006687511 0.0012882279 8.8801615e-05 -0.0010523052 0.00084436627 0.0007711849 0.001277704 2.0016656e-05 0.0013707926 -0.00029573732 -0.0005504405 0.0012609952 -6.805809e-05 0.0015118385 0.0007414236 -0.0014888834 0.0009763678 0.00018799564 -0.00047899716 -0.0012621655 -0.0001980982 -5.592867e-05 0.0006683316 0.00020317808 0.00039109186 0.0009806448 0.0013123209 -0.0001813504 0.0014342504 0.0007453924 0.0005613334 0.00079386675 -0.0013333021 0.0013248227 0.0009955408 0.00059317617
for 0.0008318159 5.454365e-05 -0.0011244357 -0.0008398467 0.0016578833 -0.0014055643 -0.0008294465 -0.00042769848 0.0015661685 0.0009564411 0.00011664023 0.000354564 -0.00062177307 -0.00041972587 0.00053501205 -0.0013028665 0.0009526612 -0.0015908359 0.0012497552 0.00022144237 0.00097292376 0.0015531752 -0.0010382372 0.00053605466 0.00025881 -0.0014253805 0.00097314484 0.0007304642 0.0014524902 0.00014806514 -0.00015519591 0.0005859139 0.0008702171 0.0014072723 0.00081164547 -0.00037957876 0.00055335916 0.00072970963 0.0010911379 0.00042477617 -0.0006050663 -0.00075656513 0.0007016417 0.0014703545 0.00059395237 0.00034863982 1.3657889e-05 -0.0011197993 0.001401496 0.0009808372 4.9681985e-05 -0.00020171626 -0.0004453504 0.0002341567 -0.0013566081 -0.0003364024 0.001028615 0.00035093204 -0.0007169071 0.0012429877 0.0012768924 0.0016643122 0.00027313695 -0.0010503988 0.0016304075 4.5937933e-05 2.330697e-06 -0.00015425381 -0.0003261036 0.001652225 -0.0013506153 -0.0005365855 0.0014777532 0.0009930517 -0.0007865233 -0.00034450903 -0.0012755065 -0.0016244858 -0.00080722733 -0.00083431497 -0.001478913 0.0001278927 -0.0008453384 -0.0005061708 -7.7505625e-05 0.0010406846 -9.44265e-06 0.0013491389 0.001230036 -0.0014298299 -0.00029073146 -0.0010134069 -0.0012753145 0.00143741 -0.0010393108 0.0013615371 0.00010068663 4.6270743e-05 -0.00038515267 0.0011158009 0.00095341995 0.00060382334 -0.0007349839 0.00089662767 -0.0011753663 1.937635e-05 0.0010498577 0.0013619757 6.2167426e-05 -0.00083421613 -0.001156581 -0.00035174348 -0.001135995 0.0012135865 0.00080441294 0.0004761179 0.0006054825 -0.0015373965 0.00087428075 6.167443e-05 0.00033994069 0.0012270405 -0.00025268216 3.9888844e-05 0.0013402138 -0.00039744753 -0.0016404251 -0.00061395986 -6.093871e-05 -0.0014349282 0.00069446606 0.00022378491 0.0015583765 0.00025291875 -0.001130357 -0.001105646 0.0016618484 -0.00093023793 -0.00015398594 -0.0008954543 0.0012220544 -0.001509384 -0.00016809357 0.0012786388 -0.0011487977 0.0009636124 -0.0008336108 0.0012836778 -0.0007818395 -0.0016408783 -0.0005460556 -0.0006728924 -0.0012248007 -0.0016539721 0.0015672157 -0.00044493715 -0.00024250752 0.0013529524 0.0013441262 -2.658678e-05 -0.0008295973 -0.0010539256 -0.0013036289 -0.00010464564 -0.0004823287 -0.0008882116 -0.001160599 0.0003114056 -0.00011929501 0.00027579375 -0.00078171515 -0.0012297721 0.0013245672 0.0011341168 -0.00039670643 -0.0015645903 0.0015412249 -0.00046574566 0.00091831654 -0.0013211934 -0.0008524468 0.00044975764 0.00021309285 0.0010252177 0.0014283323 0.0013582875 0.0011439379 -0.00014827683 0.0015771807 -0.00074090005 -0.0005917406 -0.0007986283 0.0011036141 0.001506378 -0.0014798155 -0.0008507087 -0.00031288204 0.0015186811 -0.0011958914 0.00092754146 -0.00079422933 -0.0011129243 0.0013321979 -0.0013695041 -0.00086551986 0.0010503938 -0.0010528554 -0.00033852554 0.0016080507 -0.00078332826 -0.00036723647 0.00019449368 0.0010469378 -2.5700172e-05 -0.00054067647 0.0004699258 -0.00051310856 0.00061152736 0.0013221953 0.0015989257 -0.0012492054 -0.0015905278 -0.0008810297 -0.0013812551 0.00068863994 0.00033435744 0.0014272346 0.0011198028 -0.00054428924 0.00096626516 0.0001646978 0.00011752863 -0.00051282585 0.00013538793 -0.00039737858 0.0005474924 -0.0003915712 -0.0007172341 0.0013471276 0.0004927071 -0.00011157641 0.00074065954 -0.0013457487 -2.585126e-06 0.00062053796 -0.0010903764 0.00063253805 -0.0013143669 0.00075076864 -0.0011696139 -4.6806428e-05 0.0016152485 -0.00032545417 -0.0013673543 0.0002885864 0.0009902366 5.625287e-05 0.0010796696 -0.00040669393 4.0252868e-05 -0.0015987464 0.0005869325 -0.0015924826 -0.0010574444 0.0016005172 0.0016348849 0.0003200001 -0.0006998715 0.0009781028 -0.0008881686 -0.00035193306 0.00023053409 0.00020678427 0.0009814077 0.0013072795 -0.0015007548 0.00035891516 -0.00054686965 -0.0008988473 -0.0014231662 0.0005171729 0.0008806334 -0.00049411465 0.00019884332 -0.0016078611 -0.0013060914 -0.0015883208 0.00042848985 0.0016342694 0.00084250176 0.0015695484 0.0015081419 0.0011363593 -0.0005910611 0.0003302211 -0.0010251058 -0.0012528088 0.0013216807 -0.00015213797 -0.00025047263
an -0.00043385135 0.0008839114 0.00031530997 -0.0015151779 -0.0015695889 0.00034216195 0.0002694393 -0.0012924763 0.0012411631 0.0014779753 0.0009844343 -0.0009553727 0.00022662769 -0.0008251289 -0.0006781206 -0.0006385651 0.0014160852 -0.00046290192 0.00137382 0.0010656208 0.00047880947 -0.0010779005 0.0009327541 0.0009983866 -0.0006228537 0.0010535803 0.0010890473 0.0011386824 0.0013562924 0.0015746456 0.001093394 0.0012823583 -0.000730592 -0.00094791787 0.0014893584 -0.0003779094 -0.00036532478 -0.0015486695 -0.000721403 -0.00079267315 -0.00046571932 0.0003647397 0.0011373705 -0.001437182 -0.0016638668 0.00034138988 -0.00040824417 0.0009007309 0.00030275458 -0.0015235506 0.0006822104 0.0011787051 0.0006020638 0.0011860315 0.00064046436 0.00055556605 -0.001269524 -0.0007798243 0.0012009826 0.00041304744 0.0013949611 0.00076020695 0.00019928516 -0.0003201437 0.000547124 0.0004453777 0.00055151526 -0.0015545777 -0.0013351782 -4.7856254e-05 0.0012616598 0.0013424185 -0.0006255618 0.0013956999 0.00045413015 -0.00016453862 0.00053433643 -0.00047973575 0.00095779466 0.0014832576 -0.00019887854 -0.00019605906 -0.00027825718 -0.00026326938 -0.00014324443 0.0013050657 -0.0015163415 0.00057152845 0.0012024639 0.0013324501 -0.00037024746 -0.001490575 -0.0012734054 -0.0008767117 -0.00024230599 0.0015071429 -0.0010037473 -0.0015142929 -0.00054480496 -0.00044861843 0.0012566838 -0.00016033351 -0.0009410367 0.0009886766 -0.00034295305 0.0007614459 0.0014915979 0.0012729019 0.0004004317 -0.0010558537 0.00035889618 -0.0012701327 -0.0011855194 -0.0004830741 0.00028505985 -9.697765e-05 -0.0014017605 0.00096837664 -0.00083490013 -0.00080484006 -0.0012186653 5.369357e-05 0.0008648766 -0.000303192 -0.0010907563 0.00035243842 -0.0013554071 0.00047471677 -0.0013429947 -0.0001601515 -0.00080330344 -0.0010721248 0.0016432871 -0.0001311871 -0.0011574238 0.0010103583 -0.00069815107 0.001346015 0.0015261954 0.0011453077 -0.0015312316 0.0004306252 -0.00090788555 -0.0014249734 -0.00093625544 -0.0008200016 -0.0006488594 -0.00032656203 9.488483e-05 -0.0012682327 -0.00042306053 -0.00015017414 0.0012529241 -0.0004423779 -0.0013365104 -0.0016544333 0.00081821723 -0.0011940559 0.00070364977 0.0016476166 0.0015695516 0.00033213108 -0.0011993581 0.00030923277 -0.00059865235 0.000614732 0.00023140482 0.0007403401 0.0006363694 0.0014494676 -0.0012211722 0.0009774576 0.001648266 0.0005151423 -0.0003107549 -0.00087411265 -0.0007533112 -0.00044748085 0.0012538901 0.0008101398 -0.0015079072 -0.00035151778 -0.0012572448 -0.00069919054 -0.0007924589 -0.0010518627 -0.00060307607 -0.0011070105 -0.0012484179 -0.0015214779 0.00037173895 -8.869646e-06 0.0005550673 -0.0016312983 -0.00096289604 -0.0016230032 0.0008953217 -0.0013976032 -0.00032613555 -0.00019657033 -0.001273659 0.0011420868 -0.0011720728 0.00019335526 -0.0014220122 0.0016078367 -0.001238486 -0.0005330468 0.0012066568 0.00019710399 0.00067332864 0.0012782426 0.00019782242 0.00050447596 0.0013316928 -0.00076620374 0.001561653 -0.0009525646 -0.0011923981 -0.0013749745 -0.0009791878 -0.00088398374 -0.0011364794 -0.0010426645 4.9124374e-06 0.00035030817 -0.0010916666 -0.0010850633 0.00072238746 -0.001410902 0.00063220074 -0.00018853896 0.0007227818 -0.001190994 -0.000993846 0.0010257002 0.0011768484 0.0010172366 -0.000901266 -0.00065662875 0.0010780289 -0.0008502439 0.00047328038 -0.0012004343 -0.00035290627 -0.0014918038 -0.0010410657 0.0009214067 -0.001186192 0.001281986 -0.000119622375 -0.0005577546 -0.0012644532 -0.0013224722 -0.0014182754 0.00012181027 -0.000820097 0.0012007602 -0.0014507582 -0.0014419768 -0.0016520725 0.0015561521 0.0009878394 0.00077972806 -0.00040293904 -0.001181933 -8.1833066e-05 0.00026432567 0.0010955888 0.0011989982 -0.000883376 -0.0011709302 -0.0009810382 -3.669606e-05 0.0012806818 -0.0005160152 0.0011722356 -0.00052904885 -0.0016285984 -0.0013474006 0.0012272932 0.00039387235 0.0009180977 -0.0014885361 0.0015341275 0.00063468475 -0.0013614194 -0.00080185337 0.0011422362 0.0006511835 0.0011606838 0.0009981972 0.0014653667 0.001657578 -0.0015830434 -0.00079932273 -0.001022178 -0.001574084 0.00048063943 -0.001203242
that -0.0007042569 0.00031465766 0.00113288 0.00083236 -0.0014774816 -0.00024638162 0.0013317924 -8.3885316e-05 0.00014572978 -0.0014319514 0.0012483814 -0.00028274037 -0.00047540446 0.0004076909 0.00044115612 -0.00083581754 -0.0008554998 -0.0006499787 -0.001300798 -0.0005234669 -0.0008912896 -0.00016091345 0.0011020392 0.0014099082 0.00023580804 0.0003425216 0.00046350036 -0.0015012856 0.00033003232 -0.000789088 0.0015755227 0.0006035345 0.00021029018 0.00024207086 -0.000111004 0.0009489971 -0.00040235615 0.0011676609 -0.000905528 0.00023801056 -0.00039513386 0.00025542942 6.2382016e-05 0.0012546229 -0.0015811584 -0.0015664346 -0.0014045184 -4.994944e-05 -0.000679038 -0.00041022364 -0.00082442816 -0.00042993051 -0.00053360057 0.0005383196 0.0006831062 0.00059079943 -0.00077480543 -0.000901069 -0.0008289586 -0.0014863431 0.0015443212 -0.0007090303 0.0005025281 -0.0013346048 -0.0013934922 0.0009654862 -0.0010597572 -0.0009407463 0.0002956787 0.0002984079 0.0003787341 0.0014338376 0.0013594092 0.00028902202 -0.0011594116 0.00056203164 -0.0008236377 0.00016380484 -0.000589431 0.0008098114 0.0005846646 0.0011428418 0.0015385099 -0.0008961995 -9.724546e-05 0.0007639957 0.0006966543 0.0004369475 -5.4685835e-05 0.0001829179 0.00092200836 -0.0014573699 -0.0008021605 -0.0011388976 -0.0013525633 0.00021231356 -0.00066246296 -0.0010214524 -0.0011273609 -0.0013574712 0.0004639705 -0.001448095 -0.00027630955 -0.0005468493 0.0007641458 0.00026404936 -0.00058903336 0.000284243 -0.00063605857 0.0007827531 8.96285e-06 -0.0011071038 -0.00059345376 1.1160977e-05 -0.00032010642 -0.0008535598 -0.00042316713 0.00028166096 0.0014521147 0.00086426915 -0.00021292274 0.0006482133 -0.0012420871 -0.0006844997 0.0012111709 0.0011652607 -0.0006001821 0.00092336594 -3.3219196e-05 -0.00050082355 -0.00038340606 0.0014929397 -0.00095996365 0.0004668383 -0.0010909595 0.00058382394 0.0016290819 0.0016564372 -0.0005501297 0.0011078164 0.0014342985 -0.00077280705 0.00030274963 -5.8453228e-05 -0.0015678125 -0.000536195 -0.0007118548 0.0016044762 -0.001331258 0.00084864564 -0.00021169297 -0.0006243723 0.00088915305 0.00076575635 0.0006970835 -2.7687067e-05 0.0013890538 0.0016044229 -0.0011073928 0.0002363167 0.0010268794 0.0011721186 0.0013043467 -0.00044487306 -0.0015018189 -0.00039568247 0.0015651495 -3.071965e-05 -0.0010584419 -0.0014313954 0.00071619684 -0.0015890036 -0.0013718242 -0.0013057957 -0.0008854437 -0.00092260056 0.0014430707 0.00073271524 0.00059319724 -0.0009235766 -0.00054613844 -0.0013709266 -0.00055234187 0.0012564297 -0.0015614041 0.0004956637 -0.001456167 -0.0015065115 0.0009942225 -0.00033452632 -0.0010600665 0.0011615672 0.0010022252 -0.000825114 -0.0013820515 -0.0013908618 -8.3100196e-05 -0.00022155212 -0.0006620101 0.0008605963 0.0003112344 -0.0005776489 -0.0003200419 -0.00015734424 5.892039e-06 -0.0012908013 -0.0015566021 -0.0015160996 0.0012072519 0.0012290681 -0.00027652137 0.0012829319 0.0007876367 -0.0015720902 3.1972515e-05 0.0007373192 -0.00034595322 -0.00015316339 -0.0012304281 -0.0016544851 0.0012124992 0.0009098826 -0.0015064122 -0.00013451763 0.0011300461 0.000833993 9.0386304e-05 -0.0007825878 0.0006090412 -0.0014641687 0.00090673345 0.0007943774 -0.0013713205 -0.0008657336 0.00019691906 0.0012240403 -0.00046047135 0.00071055285 -0.0013960426 0.00086710736 -0.00029065085 0.0009969296 0.0004650086 0.0012605567 0.0014185114 0.0011464116 -0.0012555312 5.9342947e-05 0.0014363922 -0.00095121376 0.00131209 0.0006494698 -0.0008849077 0.00021216863 -0.0013830359 -0.00061929313 0.0004044651 -0.0016045354 -1.6473103e-05 -0.0008154502 -0.00023753363 0.00037765098 0.00051475107 0.0007648817 0.00052365486 0.0010703779 -0.0015478132 0.00026729662 -0.001510687 0.0012880784 0.0003042026 0.0010329657 0.0012049758 0.0010717356 -0.00076059304 -0.0010051801 7.851751e-05 -3.4412642e-06 0.0012519828 -0.0011236635 -0.00071995426 0.0009091452 -0.0009987889 0.00096244004 0.0013170368 -0.0002242708 0.0014997534 -0.00014892148 -0.00084184716 0.0013272925 -0.00043685254 -0.001637276 -9.6096526e-05 -0.00027897136 -0.00022649078 -0.00048924977 -0.00029822715 0.00047667284 0.0006110279 -0.0016272538
programming -0.000678265 0.0011216919 0.0007953405 0.0014639058 -0.001280978 2.5025436e-05 0.0011872893 -0.0012466544 0.0007738322 0.00057166576 -0.0012842997 -9.324478e-05 -0.0016479105 -0.00057131023 0.0011059439 0.00032931136 0.00048669358 -0.0011560473 -0.0010769761 -0.0015361104 0.0013979952 0.00019551002 -0.00039229984 0.0016620369 0.0013310531 0.0010935676 -0.00036917167 0.0015287508 -0.0011124675 0.0009846005 -0.0011319096 0.0004182444 0.0002307985 -0.00020197427 0.00054166943 0.001368249 0.0006293221 -0.00019504101 -0.0013470338 0.00029446575 0.00028991743 -0.0005260634 0.0016009933 0.0014455133 -0.0010912563 0.00017668943 0.00036748877 0.0005096317 0.001466351 -0.0010789171 0.0013633275 0.0015213687 -0.0004994085 0.0015905553 0.0011204903 -0.0001309703 -0.0006772855 0.000726353 -9.075084e-05 0.000117518946 -0.00017074459 -0.001457408 -0.00016185899 -0.0011456055 -0.0012881105 0.00023193941 0.00057746726 0.001547817 0.0015284597 0.00051883934 0.0015002468 1.6019829e-05 0.00031123767 -0.0010994268 0.00047488193 0.0007022484 -0.0013297768 -0.0005136142 -0.001228591 0.0005380837 -0.0013269203 -0.00037432153 -0.0013042613 0.00042339478 -9.881319e-05 -0.0006587428 -0.0011033551 -0.0015042645 0.00012127313 -0.00071472256 -0.00011931581 -0.001517815 0.0012803628 4.959272e-05 0.0010076871 -0.0014496399 0.00012567839 0.00084295264 -0.0013847484 -1.3199627e-05 -0.0013850074 5.4426877e-05 -0.000821054 -0.00049120415 -0.0012280188 -0.0014810117 0.0016204682 -0.001647834 -0.0010681186 0.0011690434 0.00082154723 -0.0011761935 -0.0011216874 -0.0003273037 -0.0008578982 0.0014807498 0.0014726336 -0.001508612 -0.00010440404 0.0002583373 0.0006090502 -0.0010762952 0.00089267676 0.0012104784 -0.0012688504 0.0016414913 0.0010782396 -0.00059040874 0.00013615728 0.00023849621 0.00021166587 -5.997852e-05 -0.0012998431 -0.0005870581 -0.0012545814 -0.00045015875 0.00010258757 0.0009939689 5.4383312e-05 0.0014438215 0.00071713515 -0.00041332268 3.6572183e-05 0.0005119559 0.0013017689 -0.0014316612 0.0014336433 0.0014440507 0.00052301283 0.000504632 -0.00010190528 0.0009017224 -0.0008082742 0.00027005837 0.00093738333 -0.00050217484 -0.0008496419 -0.0014557397 -0.0015111932 0.0014343649 -0.0002761927 0.0007130241 0.000892175 -0.00036228678 -0.0011581114 -0.00046993422 -0.00091331865 -0.0014563535 -0.0005956504 -0.00087114156 0.0005594684 -0.0006628633 -0.00042548825 0.00024288846 0.0010957419 -0.0016384408 0.0014576595 0.0007247851 0.0015165858 -0.0016578429 0.0013205515 -0.0014687188 -0.0014472245 -0.0011982392 2.7860977e-05 -0.00078921986 -0.000105624626 -0.001494918 -0.0013587048 -0.0008619735 0.00091182836 -0.0002910022 0.0015296959 -0.00032421906 0.0015681871 0.00088394876 -0.0011614476 -8.8644796e-05 0.0007032872 -0.0002924701 3.4957426e-05 -0.0016603473 0.0014428715 0.0002899302 -0.0014647169 -0.00042542382 -0.00039008612 -0.00022956126 -0.0014062568 0.00025347082 -0.00044964848 -0.0014479465 2.3929495e-06 0.00091635325 -0.0013839022 -0.0014842972 0.0011150282 -0.0007219602 -0.0013859036 0.0012708489 0.0003211173 -0.00076525926 -0.0009506758 0.0004556786 1.0332242e-05 0.0013604888 0.0005081301 4.353108e-05 -0.0015904576 0.0013453093 0.00057847245 0.00044126026 0.0003153032 0.0014665584 -0.0003658703 -0.0010071449 -0.0006987749 0.0009966409 -0.00090326444 -0.0009876847 -0.0013134086 -0.00024527687 0.0014167601 0.001066436 -0.0012840107 -0.0011486599 0.0003507945 -0.00021312319 0.00076062704 0.0015967975 0.0010992168 -0.0005596517 0.00092203636 -0.00033982235 0.00025233536 0.00086235313 -0.0012913619 -0.00014619027 -6.83363e-05 5.069133e-05 0.001644189 -0.00021245133 0.0011831109 -0.00036717902 -0.00067408814 -0.00055252184 0.00020486666 0.00075274985 0.0004758182 -0.00051204656 -1.8533217e-05 -0.0015560364 -0.00027098865 0.0016026339 -0.0015291541 -0.0010398198 -0.00019480186 0.00014264372 -0.0003984555 0.0012563518 -0.0009919967 -7.690248e-05 -0.0014538971 0.00092229195 0.00017801294 -0.001272642 -0.0004935789 -0.0011422709 0.0011020182 0.0008580767 -0.0014126597 0.0009218677 -0.0005619878 0.0015910073 0.00030021867 -0.00017283206 -9.263141e-05 0.000604208 0.0015561025 0.00056301826
on -0.0005483521 -0.0012844228 -0.0011639639 0.00010838458 0.00097537495 0.0015299658 -0.00026703873 -0.0007256055 -0.00024233953 -0.00095075654 0.00091741706 -0.0011735273 0.0013973997 0.00071715616 0.0006765924 -5.159514e-07 -0.000834587 -0.00047610904 0.00028305574 -0.0007925997 0.0011863038 0.00065424514 -0.0014905623 0.0015054308 -1.3450352e-05 0.00021422878 0.00060408405 1.0676447e-05 0.0010426447 -0.0014283394 0.0013253017 -0.00010421784 -0.00041743458 0.00019997262 0.00155094 -0.00126243 0.0007674242 0.0003498375 0.00015311198 0.001037558 0.0014742758 0.0013822428 -0.0005351484 -0.00031230683 -0.00048567078 -0.0012353129 -0.00097512314 0.00056730007 -0.0011776477 -0.001262549 -0.0015189 0.0012741528 -0.0015213366 0.00079048134 0.001209381 -0.00022882521 0.00058720284 -0.0015330729 1.7528499e-05 -0.0015930324 -0.000759278 0.0014882374 -0.0016406615 -0.0008499702 -5.1890936e-05 -0.0016111572 -0.0014486699 0.0007723012 0.0008535944 -0.0006889641 0.0012338115 -0.00077282323 0.0006479063 0.0016561153 0.0014843817 0.00080130575 0.0006547363 -0.001313156 -0.0006951742 0.0011664609 -0.001258883 -0.00125994 -0.00086926593 -0.0016466052 -0.0012248643 -9.2679664e-05 -0.00021924886 -0.0003753492 0.0014169422 0.00036827812 0.0013695487 -0.0010455971 -0.0014477228 -0.0012434972 0.00030705173 0.00034802014 0.000107742744 0.00111155 0.00057743053 -0.0011066555 0.0015930665 -0.00087824964 0.0014344228 0.00093717204 -0.0011704047 -0.0009840095 -0.0015747212 -0.0015690796 0.00017042729 -0.0015741546 -0.0008623634 -4.4198172e-05 0.0007141435 0.0002664661 0.0007930289 -0.0004957144 0.0007130292 0.001358833 -0.00019133142 -0.0010699907 0.00063217146 -6.247278e-05 -0.00080613216 -0.0010581105 -0.00016711839 0.001502795 0.0011892709 -0.00023454796 0.001481681 -4.652968e-05 0.0003315161 0.00035669396 0.00157656 0.0012215095 0.0014127069 0.0015234532 -0.0007957055 0.00047342185 -0.00017959668 0.0010309343 0.0006361375 -0.0014465958 0.0002709046 -7.928464e-05 -0.0013342131 0.0014988378 0.00076071545 -0.0013080057 -0.0006204117 0.0012958357 -0.000714034 0.00088864256 0.0013388341 -0.0011008901 8.848405e-05 0.0005319054 0.0013747674 -0.00041718074 0.0015446703 0.0005081625 -7.563415e-05 0.00074742874 -0.00020972911 -0.0015934648 -0.00083331583 -0.0011483443 0.0014392408 -2.1351841e-05 0.0006334411 -0.0005755043 0.00059273705 -0.00012777293 -0.0011154258 -0.0013473775 -0.0002180844 0.00013185195 -0.0016348496 0.00036475481 -0.0008427812 -0.00020532326 -0.00043118425 0.0013739241 0.000338766 0.00064072036 0.0004018516 0.0010227755 -0.0013664493 0.00035270062 7.192679e-05 -0.0015582177 0.0013201259 0.0009817901 0.00090953545 -0.0014018613 -0.00098432 -0.0001941059 0.0014044198 -0.00039312636 0.0014247656 0.0010175395 -0.0016122964 0.0002273611 0.0010522662 -0.001382648 -0.0008851309 -0.00073057093 0.0009901321 -0.0003212369 0.00017515702 -0.00067032763 0.0006270783 0.0005887574 -0.000638224 0.0005468961 -0.0012174749 -0.00035145262 -0.0011363871 -0.00014102166 -0.00042909567 0.00030933612 -0.0011505195 0.00033188806 0.0003383743 0.00090629485 0.00095959695 -2.0278329e-05 7.490795e-05 0.00016178419 -0.0008753942 -0.001559969 0.0013241183 -0.0007994896 0.0016184486 0.00013602708 -0.0015130481 0.00094946567 -0.0009597838 0.0008265765 0.0011866963 -0.00034775794 -0.0005541759 0.00084188045 1.6249553e-05 -0.0011018682 -0.0009289279 -0.0012393593 -0.0011334388 0.00058043294 0.00022338904 0.0009680814 -0.0013059679 0.00049897283 -0.00035961997 -0.00014111171 0.0014382546 8.586998e-05 0.0009970851 -0.0003597009 -0.0015364331 -0.000258611 -0.00013666396 -0.0012105544 0.00115834 -0.0014381991 0.0009374459 0.0011340932 0.0013218521 -0.00046854475 0.0012825028 0.0008072708 -0.0010168517 0.0013363184 -0.0013205899 -7.826836e-05 5.5159388e-05 -0.00055860495 -0.0013369313 -0.0015496764 0.0015784118 -0.0016592483 -0.0005734942 0.0002641814 0.0009871867 -0.00061210257 -0.00017670328 0.0012212254 -0.0006126443 -0.00052002823 0.0008952203 -0.001266079 -0.0011987418 0.00055245234 -0.0013871898 0.0014418823 -0.00030768788 -0.00045951357 -0.0009198272 0.0007186051 0.000323247 -0.001383233
which 0.000102909886 -0.0014797732 0.0010082186 -0.0010673805 -0.0008765028 -0.00034074913 0.00064930774 0.0009974707 -0.0015149696 -0.0011209548 0.0012681726 -0.00014825289 0.0006730476 0.0009969525 -2.9516883e-05 0.0011343551 0.00033803907 -0.00071526226 0.0014727807 0.00091596897 0.0011844864 0.0013177848 -0.001319593 -0.00068719476 -0.0010732891 -0.0016529715 0.0015468211 -0.0003233477 0.00067392585 0.0015067143 -0.00056690024 0.00039349377 0.00039876485 -0.0013340288 0.0012033496 -0.00045801234 0.00027023457 0.0003222827 0.0011205452 -0.0010952965 0.0012102772 0.00062020385 -0.0008708965 -0.0008732709 0.0012091917 0.0009485161 0.00015253428 -0.00023891497 -0.0016037215 0.00084726495 -0.0002738089 -0.001395404 -0.00075222214 0.0016027493 -3.5456735e-05 -0.0013366195 -0.0004376766 0.0015882954 -0.0015748374 -0.00010077603 -0.00041237482 0.0009105299 0.0014691645 0.00023691963 0.00032042363 0.0015882397 -0.000672633 0.0014425382 -0.0009521557 0.0010461872 0.0014250557 0.0012260135 -4.1129486e-05 0.0015498615 0.00030296273 -0.0008137538 -0.0016346795 -0.00019342503 0.0004451159 0.0013681898 0.0004873791 0.00017377325 0.0011150141 0.00084649934 -0.0012335804 0.0003033176 -0.0011583372 -0.0012025356 0.0011672947 -0.0006831955 -7.612637e-05 -0.0011103341 -0.0012332639 0.00010185945 0.0015141092 0.00024730558 -3.4478413e-05 -0.0013967262 0.0016655864 -0.00037566703 -0.0009420684 0.0009397139 0.0006199444 -0.0011477035 -0.00031154358 -0.00041906643 0.000593952 -9.403463e-05 0.0008340268 8.182115e-05 -0.00086370786 0.00026105664 0.00034379863 -0.0013224431 0.0015135756 -0.0012435068 0.00066278846 0.0002651243 0.0016475521 0.0014537405 0.0006617831 -0.0012739971 -0.0011564986 0.0012162473 0.00012736312 -0.0014164133 0.0006854679 -0.0003996042 0.0012904452 -0.0012575474 0.00037854764 0.00019627243 0.001180638 0.0009671095 0.0010912417 -0.00018534737 -0.0014431269 0.00041459623 -0.0008556971 -7.414258e-05 0.0015318423 -0.0007012799 0.0013435993 0.0010389779 0.00050204206 -0.0016094601 0.0012222368 0.0006279959 0.0011946885 0.000112919864 0.0011870364 -0.00018640708 -0.0007572704 -0.0006002465 -0.0011163456 4.2169926e-05 -0.00015537438 -0.0010901713 0.0010313818 0.0001191016 -0.00016727769 9.5138195e-05 0.00034809246 0.00012793149 0.00011091737 -0.0005772688 -0.0011451449 0.0005287144 -0.0015384011 -0.001564329 -0.0009578616 -0.0011136105 0.00012349527 0.0012099172 -0.00018176601 0.0015725028 -0.0003232375 -0.00048634087 -0.0005003395 -0.00033231446 0.001604157 -0.00041803895 -0.0013000502 0.00094185193 0.00084929896 8.334188e-05 0.0013510484 -0.0013206512 -0.0011636232 0.0013477879 -0.001029021 -0.0013751487 0.00055924826 -0.0006013472 -2.1314505e-05 -0.001263027 0.0006208037 -0.00026272968 -0.000972748 -0.0014876158 0.00067827007 0.0013321472 0.00046424687 0.0012224511 -0.0005638393 0.00072494865 -0.0013009927 -0.0010491846 0.0009057313 -0.0015275272 0.0013736788 -0.00011515658 0.0013722515 0.00058462354 0.0006368242 -0.0016009604 0.0013549419 0.0009930413 0.0010853173 0.0010700178 -0.00025777027 0.0003668046 0.0006051866 -0.00079080515 0.0015063253 -0.00029569247 0.00072658836 -0.0007480897 -0.0008345981 -2.780626e-05 -0.00079935906 -0.00034105548 -0.0011474871 0.00019353058 -0.00018309666 -0.0014616932 -0.0012759411 0.00079775363 -0.0014833866 0.00043860235 -0.00034105923 0.0015474549 -0.0005887013 -0.00094099087 0.00010004955 0.001228513 -0.0007510749 0.0009090538 0.0012323116 -0.000117420735 0.00018750256 0.00020393322 -0.00083336665 0.00076791097 0.00048215227 0.0011531478 -0.000406999 0.0010444106 -0.00016191027 -4.9028975e-05 -6.6615554e-05 0.0009348383 -0.0014462906 -0.00048606464 -0.0007678717 -0.0002960444 -0.000626381 0.00026741024 -0.00063792104 -0.0012134439 0.0001558864 0.0014327575 0.0013211906 0.0011444864 0.00036698364 0.00052278687 0.0007993817 0.0004338523 -0.0007049121 0.00019663257 -0.0011033972 -0.0016493629 -0.0016037175 -0.0015939568 0.00010328585 -0.00062259694 0.0007513015 0.00016063263 0.001580638 0.0005969949 0.0012027923 0.0011656524 0.00038133454 0.0010424427 0.0007920055 -0.0014335392 -0.0009568671 -0.00036175718 -0.00043273912 -0.00076075684
not -0.0013287684 0.0008771821 -0.00014706033 -0.0009067168 -0.0003309967 0.0016633972 0.00029881558 0.0015248634 -0.0012015231 0.00092079345 0.0013803957 0.0013188671 -0.0012907395 -0.001648061 -0.0010424037 -0.0016241249 -0.00013273477 -0.00022968471 -0.0008262809 0.0008409271 0.0015354746 0.0013283021 -0.0008657286 0.00019644047 0.0015243696 -0.0012744133 -0.00080667256 0.001659996 0.0005716857 0.0016563336 -0.0006613119 -0.0011180124 0.0016153675 0.001373902 -0.0008116065 -0.0004352003 -0.0009767449 0.0013480961 -0.001366772 -0.000118803735 -0.0014950697 -0.0008710932 0.0007559379 -0.0012250812 -0.0013766723 -0.0006077234 0.0012453421 0.00027756035 0.0012273417 0.0012815929 0.0016572761 0.0010436148 -0.00068499363 0.00010686249 -0.0003422357 -0.0011846959 0.0008138597 0.0016521991 -0.00031913107 -0.0008884245 0.00012766903 -0.0001952924 -0.0013595814 -0.00044084692 -0.001242158 -0.0008542937 0.0010837687 -0.00038518364 -0.0015523547 -0.00018714079 0.00052412815 -0.00058235007 0.00018902509 0.00059426826 0.00018745066 0.0013228505 -3.532031e-05 0.00033663772 0.00033620276 -0.00016213991 0.00080029643 -0.0009916638 0.00066009443 0.0011921148 -0.00013693089 -0.0008550909 -0.0015741909 -8.421322e-05 -0.00040836332 -0.0010860389 0.0011060516 -1.7944569e-05 0.0014390528 0.0013985039 -0.0013887313 -4.745949e-05 1.9205621e-05 0.00025234136 -0.0007564088 0.0005231655 -0.0009706995 0.00047530205 0.0007231257 0.0015381153 0.00018942945 0.00058778166 0.00045515774 0.0006546529 0.0013868014 0.0016583106 -0.00028246472 -0.0013512607 -0.0003907224 0.0014906346 -0.001568387 0.0015808371 -0.00022153415 0.000456049 -0.0012286387 0.00033972051 -0.0014849558 -0.0012428857 0.00056430354 -0.0010019692 0.00081379 0.00045127785 0.00031689086 -0.0011918381 -0.001103706 0.0014921351 0.00076914195 0.00070854824 -0.00010755782 0.00016012599 0.0013247565 -0.00085801457 -0.0015087759 0.0011507922 0.0016215199 -0.00034802276 0.0009866989 5.1426574e-05 -0.0004255201 0.0012369019 -0.0011183585 0.0010886727 -0.0005318965 0.0015842962 -0.00032070614 0.000952445 0.00050826813 0.0014060447 0.0010345713 0.0012107545 -0.0015283577 0.0014732056 0.0015551958 0.001014161 -0.0013903056 -9.704239e-05 0.0015437908 0.0008290204 -0.0007503844 -0.0012058034 0.0012965329 0.00077798206 0.0012525424 0.0016546333 0.0010226486 -0.0010419029 0.001500547 6.191548e-05 0.00017050901 -0.0007955823 -0.001628285 -0.0012352644 -0.0012623013 -0.0011180624 3.801439e-05 5.1302894e-05 0.0010116976 -0.0015382444 0.0015780265 0.00012386298 0.0006244677 0.0006154441 0.001318042 -0.0013504991 0.00028344657 -0.0006456698 0.0010168763 -0.00056128256 9.7083124e-05 0.00088740466 -0.0003691131 0.00023749248 0.0008833312 -0.00046711264 -0.000934171 0.00029194666 0.0004956185 -0.0010277791 0.00061358465 0.0004806428 -0.0004608828 0.00077568286 -0.000513745 -0.0013824954 -0.0007443842 -0.0005841882 -3.170851e-05 -0.000180598 0.00038585576 0.00087244576 -0.00032848868 0.0015795593 0.00038622355 0.0003319841 0.0005027968 0.0015008256 0.0008955062 -0.0009372643 -7.39697e-05 0.0012985865 -0.0012499321 -0.00028583562 0.00046608853 0.0007312493 -0.0014581248 -8.29884e-05 0.0006651774 0.0006900081 0.00023314287 0.0011903376 -0.00033170005 -0.00097242766 -0.0010658691 -0.001057419 -0.00031041895 -0.0009586943 0.0014392037 -0.00020785243 -0.00015214527 -0.0016222337 -0.00078503403 0.0004241894 0.0015623189 -0.0012030889 -0.0007698874 -0.0016247007 -0.001085004 -0.001525771 0.0015068692 3.2535318e-05 0.0009033832 0.0013184632 -0.0012726538 -0.0014085221 -0.00067652145 -0.0008681092 -0.00069087633 -0.00026846427 0.001120789 0.00090046605 -0.00045985775 0.0007138899 -0.00067857414 0.0014557207 -0.0014195285 0.0006091628 -0.0013755191 4.7761034e-05 -6.6913424e-05 7.3977804e-05 0.0015879556 -0.00034837614 -0.0012133004 -0.000109673434 0.001395969 0.0016367997 0.0009963932 -0.0011020578 0.001259386 0.0011911081 0.0006290558 0.00019508241 -0.0011947495 -0.0009299305 -0.0010087457 -0.0009535516 0.00062697084 -0.0009792992 -0.0012398041 -0.0015460962 -0.00092323014 0.0011671053 -0.00016330388 -0.00059160724 -0.0009756067 -0.00031812335
languages 0.0011527776 0.0014750607 -0.00097131997 -0.0003380649 0.0015865478 -0.000991764 0.00038366232 -0.0010024981 1.9936313e-05 -0.00095841754 0.0011718351 -0.001608117 0.0006770973 -0.0012613586 -0.0015381408 -0.0011778995 0.0014600409 0.000586685 0.0015402157 0.0008125941 0.00028618937 0.0007117376 -0.0014320003 -0.0009304605 -0.001663483 0.0004173004 0.00087927567 0.00049877516 -0.0015766969 0.0015974698 -0.001272058 -0.0012802795 0.001538545 0.00020592779 0.0008157794 0.001224371 0.00084579736 -0.0005663397 -0.00044763077 -0.0004139174 0.0006243821 -0.00035035113 0.00027725048 0.0009861946 0.0013542563 -0.0011068775 -0.0011445847 0.0009547664 0.0005728252 0.0011452606 4.1060375e-06 0.0016139144 0.0016261727 -6.2636864e-05 -0.0014233631 0.0011283479 -0.00033217022 0.001204201 0.0013013209 0.0013570626 0.0014910711 -0.0005371732 -0.0012860812 -5.3678374e-05 0.0015410667 -0.0005030807 0.0012849001 -0.0002112547 0.00040399248 -0.0013035487 0.0004819292 0.0010047215 0.0009592097 0.0005962472 -0.00020489466 0.00086255244 -0.0007087072 -0.0014822382 0.00040395762 0.0005964341 0.00027243167 -0.00065790524 0.0005325306 0.00062123593 -0.0006037866 0.00014939625 -0.0008359989 -0.0012445273 0.0015248673 -0.00063824834 0.0012589983 -0.0006980653 0.0011557055 0.0006755776 0.00020778294 0.0014358144 -0.000691978 -0.0015914281 0.0014937106 -2.9486253e-05 -0.0007397788 0.0005631965 -0.00014379372 0.0011897746 -5.73708e-05 -0.0012445108 -0.001352466 0.0010889895 0.0012226282 -0.00065848185 0.001052527 0.001056405 -0.0015269398 0.00067526643 -0.0014092381 -0.0013307153 3.7124675e-05 -0.0005930794 0.0014195036 0.0011316238 0.0014174465 -0.0013595942 -0.0014119691 0.0002497262 -0.00066068186 -0.001154539 -0.0007989092 -0.0012913891 -0.00028868613 0.0005902823 -0.0011286701 -0.0013488734 -0.0010923634 -0.0011683233 0.0012063938 2.1325716e-06 0.0009769837 -2.479094e-05 -0.0013178829 -0.0011825607 -0.0013337152 0.0012022337 0.00047854937 -6.9582515e-05 0.0015647791 -0.0008580519 0.00067126687 -0.0010167707 3.763685e-05 0.001626796 -0.00027265068 0.00026877786 0.00041546382 0.0015419546 -0.00043689643 -0.00026874384 -0.000143909 0.00020972255 0.0013953089 0.0014146459 -0.00039869535 0.0007099355 -0.0008741323 -0.0011181654 -0.00036095083 -0.00013320037 0.0010777073 -0.0016424359 0.0002756912 -0.0012253105 0.00092708674 0.0005981338 -2.6310521e-05 -0.0005564539 0.0014244177 -0.00058735866 -0.000785885 -0.0015115561 -0.00040619247 -0.00083630695 -0.00082775526 0.00079987355 0.0008396058 -0.000154173 0.00077232474 0.0014180482 0.0012656905 0.0005418669 0.0012699468 0.00064665923 -0.0005162515 -0.00011314551 -0.0011748452 0.0012237777 -0.0008393322 0.0014869797 0.0010629611 -0.0002672985 5.4927536e-05 0.0010323992 -0.00096291397 -0.0012519413 -0.0013053009 -0.0009119834 0.0014962982 -0.0011320781 0.00011331622 -0.0009531955 -0.0015823395 0.0005354143 -0.0016123094 0.0010761624 -0.0015251327 -0.0011827891 0.00064423826 -0.00068530755 0.00098811 0.00041943998 0.0015409585 0.0011759663 -8.626247e-05 -0.0005802449 -0.00077300455 0.0005481515 0.0015517188 0.0009971017 -0.00015875527 0.0012033537 0.00029638543 0.0012735274 -0.0007476238 0.001008067 -0.00033769716 0.0007644661 0.000731953 -0.0007373266 -0.001130036 -0.00017612409 -0.00013172309 -0.00097477366 -0.00082727213 -0.00095979986 0.00054200616 -0.0014917857 2.5524554e-05 -0.00077866315 0.0007182718 -0.0005259368 0.0009272395 -0.0005780727 0.0013214404 0.0007667065 -0.00057715236 0.0006205429 -0.000592344 6.140918e-05 0.00077177206 0.00041119804 -0.00038421017 -0.0007378612 0.0012154571 -0.001239634 0.0014392865 -0.0011529448 0.00048848434 0.0009708115 0.0015180424 -0.00086198666 0.0010241324 0.00020060856 0.0016519582 0.00031098767 0.00035010467 -0.0010758769 -0.00039193212 0.001628839 -0.0010528263 -0.00077906135 0.0002486921 -0.00016471118 -0.001135002 0.0006082332 0.00066137646 -0.0006463909 0.00029307912 -0.00065439724 0.00024526883 0.00066689734 -0.0007537807 0.0015966793 -0.0015019261 -0.0010747116 0.001382112 0.0012157528 5.176338e-05 -0.0009580492 -0.00055049534 -8.601624e-05 0.0014154279 -0.0015695611
