988 300
the -0.0003462111 0.0005211522 0.00050354924 4.3521377e-05 -2.7410568e-05 -0.0012202318 0.0009413612 0.001262913 0.0013234465 0.0004924583 -0.0015296374 -8.305201e-05 -0.00011536674 -0.00030337242 -0.0008398435 -0.00078934967 0.00083493174 -0.0007205691 0.001140556 0.0010891962 0.00075922726 -0.0011789385 -0.0015067561 -8.623949e-05 -0.001298601 -0.0010419795 -0.000412417 -0.0006013936 0.0012878524 0.00014720461 -0.00058767496 -0.000101823185 -0.0005610581 -0.00022323045 0.00043064117 0.0006727741 -0.00084222946 -0.0014552613 -0.0014825445 -0.0005318682 -0.0016098775 0.00031560453 -0.0007855786 3.8151706e-05 -0.0010005624 -0.00017393794 9.151816e-05 -0.0006662956 0.0011163888 0.000750025 0.0011937105 -0.00051863276 0.0012491606 0.0009981809 -0.0011171087 0.00021611963 -0.0009829667 -0.00012366574 -0.0008317942 8.0034566e-05 -0.0012016082 0.0001627862 0.0011477448 -0.0012450044 0.00068941066 -0.0007603776 -0.0011787696 -0.0011435606 0.0008690867 0.00067878916 0.0003964007 0.0014920552 -0.00010657919 0.00018625039 -0.0011529012 -0.0006498767 0.00043953632 0.0004924283 -0.0011575493 0.0014317851 -0.00023888549 0.0003090276 0.0013251783 0.001037316 0.0003739113 -0.0004536229 0.00043739643 3.23239e-05 -0.00075985986 0.000730327 -0.0011408094 -0.0011989246 0.00021704908 0.0010269976 0.0010758464 0.0015541113 -0.0010459895 -0.0005184481 0.0008879641 0.001162036 0.0016465044 -0.0006443078 0.000998945 0.0013100337 0.0012870142 -0.0011553247 0.00085503916 0.0009779821 -0.0013177167 0.00014500305 -0.0010317428 0.0006939172 0.0012156565 0.00023900409 -0.00073008874 5.901318e-05 -0.0009282691 0.0008941897 0.0010005413 -0.0016221751 -0.0004948315 0.00085181475 -0.00068965345 -0.00092064345 -1.839655e-05 -0.00047094616 0.00039683242 -0.0012188826 -3.0098558e-05 0.001377424 -0.00013431837 0.0014925634 -0.00082467636 -0.0006823213 0.0013710947 0.0015613359 -0.0014187837 -0.0007715969 -0.0008358376 -0.0004583616 0.0015956953 0.0011032277 0.000758778 -0.00093867624 0.001276327 -0.0006217853 0.00092230644 0.0014111769 -0.0005394474 -0.0006023312 8.950972e-05 0.0006745895 -0.00022819813 -0.0013017759 -0.0006966696 -5.235139e-05 0.001616351 0.00070263183 0.0005417038 0.0007800817 0.0015033986 -0.000489736 0.00040904564 -0.00016249431 0.0007677341 0.001212455 0.0015732665 -0.001605865 0.00095278694 -0.00051489734 0.00040373954 -0.0002362886 0.0012900404 0.00050169317 -0.001516477 -8.219014e-05 -0.00090593763 0.0002296605 0.001521297 -0.0014446183 0.0001470747 0.00041965215 -0.0004035683 0.0003629277 0.0013208424 0.0005718473 -0.0014002807 0.0013382758 0.0010401979 3.7976144e-05 0.001399644 0.0013395246 0.00040922375 -5.8530175e-05 0.0014205762 -0.0003925508 -0.0002504833 0.0015050124 0.0012246792 0.00076295505 -0.0006879845 0.00071858 0.00047569533 -0.0015189765 0.0008423615 -0.00072347693 0.00029004284 0.0014691831 -0.00022631563 0.0014586068 -0.0013600058 -0.000689826 -0.00079878245 -0.00024997664 0.0014445646 0.00073818595 -4.3252687e-05 1.6373662e-05 -0.0005848169 0.00040067834 0.0002491964 -0.00043100727 0.0003605099 -7.5494725e-05 -0.0012005199 -0.0015234976 0.0015816336 -0.001538483 0.001238467 -0.00085578545 0.0014850976 0.001216797 8.046138e-06 -0.0010478409 -0.0004244801 -0.001649495 9.532002e-05 0.00031601667 0.0010456262 0.00095632824 0.001482421 0.00035453355 0.00137099 -0.00078718 0.00034004866 -0.0011086687 -0.0016079624 0.0014058214 0.0012758883 -6.796696e-05 0.00022628455 0.001427867 -0.0007618647 0.00072836224 6.1828546e-06 -0.0013396118 -0.00055472436 -0.0013944234 -0.0011320325 -0.0011925698 0.00048276957 0.00034934655 -0.0006908903 -0.00010223106 0.00021437928 -3.4669054e-05 0.0013540705 -0.0011108525 -0.0015488731 -0.00013650906 0.00043719183 -4.9037804e-05 -0.0014551105 0.00044874518 0.0014637525 0.0013459919 -0.00090576947 0.0011621566 -0.0013281144 -0.00079829775 0.0015761777 0.0009803222 0.001368325 0.0004170377 0.0013794312 0.001201117 0.0015515027 -0.00075234316 -0.001162494 -0.00015692665 0.00048675123 -0.00019344856 0.00076186284 0.0012989314 -0.0010104736 0.0006763893 -0.0010162467 0.0007804503 -0.0007322009 -8.157739e-05
and 0.0005377159 0.0010945298 -0.0015811226 0.001236042 -4.6355424e-05 -0.0011295184 -0.0014685648 0.0012240597 0.00043379574 -0.0010749251 0.00049271196 0.00075773714 0.00021003472 0.00069644686 -0.00025632465 -0.0015639741 -0.00073097064 0.0007401602 2.1680078e-05 -0.0009874001 -0.0009008863 -0.0011803434 -0.0006450852 0.0014063433 1.746392e-05 0.00089365593 -0.001119466 0.0005377014 0.00033623725 0.0006716398 -0.0012401936 0.0012758725 -0.00144898 0.0013048493 0.00089146115 -0.0011450095 0.000777302 -0.0015249468 -0.00015484606 -0.0012919664 0.0003880654 -0.0003296211 -0.001314476 0.00070935313 -0.00083334 0.00027855195 0.0002851274 0.00083206553 0.00014697292 0.0013557515 -0.0003129732 -0.00026423807 0.000117761934 0.00084402255 -0.0006000218 -0.0007170359 -0.00020607188 -0.0012206191 0.0005606994 -0.0010020701 -0.0016188655 -0.0013968599 -4.2808555e-05 0.00013872028 -0.001553335 -0.00043361934 0.00046970026 -0.001235518 0.00014430984 0.0011876085 -0.0012962668 -0.0016254061 0.00140765 0.0015729254 0.00027776783 0.00070919946 0.0013110769 0.0003720915 -1.796192e-05 -0.0016190369 -0.0008915664 -0.0013344897 0.0010736894 -0.0014783614 1.8189896e-05 0.0016339283 -0.0001466008 -0.0007823323 -0.0009980506 0.00019457599 0.001503387 0.0008341843 7.481208e-05 6.78559e-05 -0.0014210029 -0.0011435767 0.00018500247 -0.0010452565 -0.0008664764 0.0015999116 -0.00035528064 0.00017128223 0.00015398308 0.0016484127 -0.0015867309 -0.001000887 0.00096388836 -2.4642584e-05 0.00045266259 0.000116231626 0.0011471348 0.00033213556 -0.0011748517 -0.0011900206 -0.00090102793 0.00031789966 0.00095836195 0.0003703541 0.0011627945 0.0010297307 0.0016526483 -0.00091261574 -0.0005921213 0.00079211325 -0.0002634438 0.0007177782 0.0011922651 0.0010798769 -0.00087519793 -0.0008947432 -0.000279677 -0.0013113407 9.583556e-06 0.0005960775 4.970474e-05 0.00034411586 0.0014918995 -1.7555669e-05 -0.00023201788 0.00032233508 0.001439044 0.0008867033 -0.0012797593 0.0015202085 -0.0011354961 0.0013694137 -0.00042766644 -6.472425e-05 0.0015612158 -0.0011703518 6.6670436e-05 0.0014110574 0.00071988907 -0.00076313416 0.00019508414 0.0012592574 -0.001528059 -0.0005220187 0.0003557217 -0.0003328098 0.0015041438 5.088809e-05 -4.3431795e-05 0.0010025856 -0.0015043578 0.001481995 -0.0010645053 -9.4053736e-05 0.0016150526 -0.00069898105 0.0012090994 -0.00019063595 -0.00038341555 -0.00095831364 -0.0010283001 -0.00023923382 0.00031448458 -0.0005346116 0.0011104285 0.0014175501 -0.0005196715 -0.0016615039 0.00017694522 -0.0014576302 0.0005562685 0.00086461817 -0.00074069365 -0.0012914635 0.00060731644 -0.0011073655 -0.0011767112 -0.0012059839 0.0011282878 0.0014256685 -0.000570865 0.00094441714 4.5136054e-05 0.001517727 -0.0013500025 4.852092e-05 0.00018524262 0.0006769943 -0.00042446575 0.0016073511 0.0004245918 0.0013827246 0.00046992407 0.00083859323 0.0003724002 -0.0011949078 0.00020605072 0.0007849669 0.0002595067 -0.0011125731 0.00057031366 0.0008242496 0.00036787504 0.0013000494 -0.0010724941 0.00062578113 -3.8669932e-05 -0.0014329982 -0.00086287287 -0.00064455415 0.0012147522 -0.00033825057 0.0016584555 0.00041068823 0.0011133146 0.0016063467 -0.0011688905 -0.0011982487 -0.0011643952 -0.0001350233 0.00023164379 -0.0014981532 -0.00027183586 -0.0012462535 -0.0007936558 -0.0008160978 -0.0010218489 -0.00142157 -0.0010635373 0.00087396405 -0.0012348939 -9.325755e-05 -0.0008110917 -0.00093324 -1.2433964e-05 -0.00085566804 8.589128e-05 0.0007883112 -0.001286724 0.00015840426 -0.0016409989 -0.00012213492 -0.00068875693 0.00076010317 -0.0010033532 0.00064614095 -0.00062758295 0.001432976 0.00015179683 -0.0011483673 0.0006211455 -0.00079152646 -0.00096395146 -0.0012742198 0.00027448393 -0.00032949116 0.0013075516 -6.434672e-05 2.3066143e-05 0.0011405378 -0.00088399486 0.0014831957 -0.0013366387 7.8251775e-05 -8.438998e-05 -0.001552055 -0.0011112212 -0.00073950604 0.00077748793 0.0013875973 9.398678e-06 -0.0011550667 0.0013454588 -0.00018429727 -0.0013482533 -0.0003887519 0.00086812285 0.0011584255 -0.00074854866 -0.00078223814 -0.00074254675 -0.00078393 -0.0015983949 -0.0006794677 -2.2365577e-05 6.414356e-05
in -0.0014073225 2.2872606e-05 -0.00111161 0.00088771014 -0.0012970009 -8.9874666e-05 -0.00086007226 0.0013473305 -0.0001254223 0.0014221072 0.0010643654 -0.00083746784 -0.0005372955 0.0006031684 -0.0010541413 0.00036047617 -1.5833548e-05 -0.000383667 0.0012836973 -0.0013812239 0.0013716833 0.0009781234 0.0005776342 -0.0007406018 -0.0016162184 -0.0005017983 0.0014944582 5.4181037e-05 -0.00079755613 0.0009521665 -0.00041457592 -0.00021723215 -0.00075489597 -0.000344083 -0.0012899778 -0.0013335078 0.00034397483 0.0005157136 -0.00083024224 -0.0010016811 -0.0012156845 -0.001278332 -0.0005454629 0.00043543035 -0.0013801492 0.00074571755 -0.0012211645 0.001137048 7.7598306e-05 -8.839706e-05 -0.0014752259 0.000973114 -0.00061220344 0.00017821157 0.0016572407 -0.00080059184 -0.0014488441 0.0011428932 0.0009832076 -0.000835096 0.00085316575 0.001015186 -0.0010287622 0.0012755443 0.0015517796 -0.00051054364 0.00042243878 0.0014713132 -0.00012357418 9.571485e-05 0.0014601301 0.00029322293 0.0012069837 -9.082681e-05 -0.0010405123 0.00095400127 0.0011280164 0.0011669592 0.0006807373 -0.0006356888 -0.0009685259 -0.0008252131 -0.0011971474 0.000803806 0.0014868958 0.0007618637 -0.00038648763 0.0012604409 0.00088367116 -0.0014561784 0.0007131675 -0.00021865498 -0.0016466704 0.0010801761 0.00036437745 0.00054919015 -0.000468402 -9.238576e-05 -0.0010320385 1.7555263e-05 0.00074856734 -0.00017958503 -0.0006367012 0.0015102609 0.00048560192 -0.0005598309 -0.00044454506 3.3922424e-06 0.0014643508 0.00097255374 0.00061961694 -0.0008858446 0.0010225379 -0.0012825114 0.00062186166 -0.00015949826 -0.0002715585 -0.001151569 0.00016515529 0.0015805576 0.0013805229 0.0011490553 -0.00034359845 0.00088398455 -0.00086215086 0.00068203034 -0.0013218699 -0.0005061906 0.0013040185 0.0011056967 1.9350748e-05 -0.0005288556 -0.0009932851 0.0013908438 -0.001017096 0.0012929745 -0.0006780703 -0.0006423531 0.001080463 -0.00038590992 -0.00045641052 -0.00035962302 0.0011933884 0.0016484249 -0.0011142492 -0.0010267443 0.0013970858 0.001374236 0.00096518756 0.0014629186 -0.0010920217 0.0010199697 -0.0014914842 0.0007651927 0.0011680524 -0.000619288 -0.0013194194 -0.00031126273 0.0009931583 0.001118 -0.0012940202 0.00014815784 -0.0005747896 -0.0006013354 -0.0001555287 -0.0011766726 -0.0011644596 -0.0006517521 0.0004442165 -0.0014041105 0.00032706623 -0.00080736144 -0.00035628656 -0.0012238313 0.00014550783 0.0011826147 -0.0012161502 -0.00025111384 0.0011866644 -0.000991461 -0.00026662956 0.0012244142 -0.00061644707 0.00022548369 -0.001592457 0.0010564368 -0.0012048337 0.0005830045 0.0009934505 -0.0007019612 9.989145e-05 -0.0013106659 0.0012854995 0.00034212513 -0.0013891015 0.0008750137 0.00023752879 -0.0013020479 -0.00038877656 -0.0003249552 0.00049229275 0.0004991989 0.00023278827 -0.0009899209 0.001475121 -0.0013154927 0.0015969898 0.0011123216 0.0014161636 0.00017758689 -0.0015060604 0.0008038739 -0.00085580995 -0.0015612346 -0.00084242364 -0.0003195957 -0.00079931796 -0.00081647636 0.000900389 0.0012741521 0.0013120968 -0.00075382553 -0.00049567653 -0.0006931963 -0.00044512295 -0.0012508059 -0.00060382654 -0.001245032 -0.0016248594 -0.0003648718 -0.00061051693 0.0014421055 -0.00093678816 -0.00041471096 -0.0016330528 0.00093981595 -0.00049861206 -0.0010163044 -0.00046600404 -0.00024372923 -0.0006316799 -0.0006524321 0.00075254857 -0.00010572947 -0.0013817094 0.0005977794 0.00070732716 -2.4958617e-05 -0.0007776482 -0.00011556377 -0.0015412241 0.0012998378 0.0015953205 -0.00080175855 0.00046182313 0.00026985153 -0.001483988 -0.00050440436 0.00086291606 -0.0015403754 -0.0014781668 0.0015539584 -0.0014139204 -0.0016175131 -0.00017279398 0.0006575121 0.00090509653 -0.00059151615 -0.0012420684 6.404624e-05 -0.0016627585 -0.0006335701 0.0015434904 -0.0004781496 0.0010699714 0.00092725613 -0.0005310897 0.00070279517 -0.0009301433 0.00067380146 -0.00082847005 0.0012056764 -0.0011097733 0.0016315378 -0.00044746257 -0.0016062417 0.001218212 0.00065593945 -0.000954959 0.0004261358 0.00065641716 -0.0013479552 0.00010301228 0.00015585349 -0.0014955018 -0.0005343878 0.0012968768 -0.00016165228 0.00096014724 0.0014367497
of 0.00037540987 0.0010212163 -0.0013217329 -0.00066245784 0.0015342849 -0.001126768 -0.0015384092 -0.001519276 -0.0010301741 0.0013935146 0.00076294213 -0.00025872805 -0.00073331327 0.0009770148 -0.00023862069 0.001057234 0.0012691783 1.0103504e-05 0.001075388 -0.00040799825 -0.0011613116 0.0013355314 -0.0005663416 -0.00016418472 0.001096356 -0.00047463895 0.00018796849 -0.001135529 0.0008418127 0.0013533608 0.0012508467 0.0010847833 0.0011377019 -0.0010306392 0.0009057356 0.00117089 -0.0008269656 0.001426967 0.0011277614 0.00027421955 -0.0003044295 -7.791387e-05 -0.000190539 -0.0012613735 -0.0014013763 0.0012505476 -0.001113843 -0.00080226624 -0.0016306778 -0.0014022666 0.0005962056 -0.0009723822 -0.001511815 -0.000568791 -0.00042369112 0.00144138 -0.0012132736 -0.0009616786 -0.0011453271 -0.00022812477 3.1843963e-05 -0.00064216624 -0.00035755622 0.00036468206 0.0014166036 -0.0008165245 7.753224e-05 0.00045087442 -0.0006539804 -0.00029595193 -0.001286016 -0.0013243495 0.0007232527 -0.0013586226 0.0003318258 0.0007494914 2.5241594e-05 -0.0010395702 -0.0013430385 0.0006906961 6.299747e-05 0.000760449 0.0010874568 0.0016464405 0.00041496896 -0.0010185083 -0.00043458905 -1.8215016e-05 0.0011247061 0.0016288462 0.00033948367 -0.0011443346 -0.0010069731 0.0016432941 -0.0013998353 0.0016065458 0.0013944203 -0.0014860446 7.109049e-05 0.00037150306 0.0010450355 -0.00045920265 0.00121406 -0.0007956734 -0.0007203848 -0.00045969724 -0.00024245572 -0.00041463878 -0.0013390622 0.00039409223 0.00053467357 0.0013850648 7.193694e-05 -0.0005570044 -0.0013677622 -0.0004239878 0.00027815753 0.00056158396 0.0016523503 -0.00079289125 0.00081944565 -0.0006726459 -0.00068815856 -0.00019349651 -0.0016624061 0.0007483132 -0.0014032875 0.0005489453 -0.00052416907 0.0014753334 0.0013518422 -0.0012887922 -0.0007320548 -0.0002489692 0.0010716765 -0.000103583996 -0.0005424333 -0.0007084842 0.0005601344 0.0013939367 -0.001110179 0.0007821565 0.001005424 -0.0010657777 -0.0011565966 -0.001457062 0.0003377345 -0.001128274 -7.0237955e-05 0.0014258786 -0.0006865219 0.00017474817 0.0007193711 0.0013065537 -0.000616554 0.0010471903 0.00041177648 0.0016562094 0.00073989824 0.0011790041 0.001404085 -0.0016141214 -8.0907936e-05 -0.0015072993 -0.0004775187 -0.0014120076 -9.728406e-05 -0.000640378 0.0003903689 -0.00067674636 -0.0012860465 0.00017943406 -0.0003841512 0.0014450147 9.710176e-05 0.00124176 -0.00010023039 -0.0014544317 0.00060569093 -0.00031622127 -0.0014733544 -0.0006964563 -0.000407304 -0.0010894061 0.00035714975 -0.00010870209 -0.00053656945 -0.0011861403 8.659671e-05 -0.0016432973 -0.0009375052 -0.0011318092 0.001079953 0.00038746945 0.0014482611 9.167252e-05 -0.00019577847 0.00045519014 0.0011287653 0.00029178814 0.00072264404 0.00023499536 -0.0004985025 0.00023275624 -0.00055832084 0.0013211796 0.0010727659 -0.00043471588 0.0011235146 0.0015007571 -0.00014169693 0.0009935444 0.00061213423 -0.00015296797 -0.00055042404 -0.0011358936 -0.00074758485 -5.309308e-06 -0.0009512162 -0.00012800262 0.0011869996 0.00051726337 0.0009796057 -0.0015535357 0.00079671334 -0.0006124166 -0.0013007405 -0.00030859455 -0.0010100288 0.00017168699 0.00031769992 -0.0005528152 0.0015902533 0.0012533257 0.0012659498 0.0015180089 0.00054075755 -0.0005757115 -0.0015844358 -0.00015965603 -0.0014516261 -6.840516e-05 -0.0008703937 -0.0007833121 0.001608416 0.0012138889 -0.0007908952 -0.0014948532 -0.00134384 0.00050790625 -0.0014915521 -0.0015807156 0.0012145839 0.00067723036 -0.0010667859 0.00084306695 -0.000508559 -0.00036138343 0.0013133012 0.001624095 0.00051530264 -0.0014316818 -0.00013848089 0.0010001189 0.0016111458 -0.0011699396 -0.00061084604 0.00062462204 0.0007520954 0.0011179484 -0.0013426675 -0.0010225355 -0.0013959458 -0.00051011535 -0.00032010968 0.00022996339 1.7352479e-06 0.0012425868 -0.0011432578 -0.001313248 -4.606031e-05 -0.0003538121 -0.001210945 0.00071474974 0.0013008945 0.0015054424 0.0011025087 0.0005498741 -0.0010521879 -0.0006151626 -0.00078600267 0.00057996414 0.0012450971 0.0015990916 0.001258321 -0.0014181712 -0.00021623529 -0.00044814253 0.0012778144 -0.0016666369
is -0.00033091253 -0.0014929363 0.0012043072 -0.0008407053 -0.0010812926 -0.00062352314 -9.574958e-05 0.0009338461 0.00082072144 3.3227418e-06 -0.00034876884 -0.00073920295 0.0013635992 -0.00038918573 0.00096655666 -3.0271833e-05 -0.0008697383 -0.00086044753 -0.0013281775 -0.00096585625 0.00014711716 0.0015623501 -0.00045322464 0.0011641104 -0.0003698226 -0.0012905998 -0.0012392581 0.00073821243 0.0004581546 0.0010724117 -0.0015198863 0.0011301107 -0.00058807357 -0.0013675487 0.0011275827 -0.001325561 -0.00090440817 -0.0010137009 -0.001635024 0.00085111137 -0.00026792142 0.00017318959 -0.000874912 0.0015130733 9.736701e-06 -0.0013116425 0.00029304353 0.0014065576 0.0012648482 -0.0016224044 -0.00037849537 -0.0013863284 -4.240192e-05 -0.0016590023 3.119755e-05 -0.0011778439 -0.001253243 0.0016392182 0.00080088095 0.0015189829 -0.00019855038 0.0009913384 0.00092134636 0.0011792433 -0.0012470863 -0.000792412 0.0014503056 0.00026500208 0.00016421858 -0.00091687805 2.753095e-05 -0.0014220423 -0.00056843273 -0.0015513698 -0.00021899794 0.001171399 -0.0005722839 -0.0011193071 -0.0016015253 -0.00033462854 -0.00039671926 -0.00039564053 0.00014310019 0.00024171184 -0.00089885644 0.0014058055 -0.0016595615 -0.00028896745 0.0013566739 0.0008349016 0.00080381625 -0.0006393022 -7.895786e-05 -0.0015999795 0.00026454206 0.0014282571 -0.00054283027 0.00018503433 -3.8795137e-05 0.0013691187 -0.0012285274 -0.0012125237 -0.0008752269 0.00041913625 0.0013839909 -0.0010727419 -0.000643046 0.0010894624 0.0011992179 0.0007414617 -0.0003734469 -0.0015494453 0.0012350543 -0.0016307349 0.0007756543 -0.00011082199 -0.00038219537 -0.00040447226 -0.000520556 0.0010141949 0.000827521 -0.0007131927 0.0014359724 -0.0016158719 -0.0016288831 0.0001964022 -0.0011709136 -0.00017652777 0.0012734028 -0.0012281102 -0.0006501072 -0.0010773711 -0.0011760769 -0.0007852445 -0.001612485 0.0011523891 -0.00031764692 -0.00069811713 0.00083347835 0.00054813176 -0.00044544018 -0.0007327027 0.0004523063 -0.00013905279 -0.0006065941 -0.0011725298 -0.000116363466 -0.00065716647 0.00039673763 0.0009710534 -0.0015762222 0.00034396653 0.0011287325 0.0002639578 0.0015558918 -0.00030934846 -0.0010263298 0.0013444338 -0.00023139974 0.0006938289 -0.0014121084 0.00085021445 -0.0010860144 -0.0015792609 -0.00055891165 -0.00074749836 -0.00038938128 -0.000118425065 -0.0007387577 0.0004425089 0.0007116771 -0.00034381187 -0.0016561308 0.0015973154 0.00080008135 4.2534907e-06 0.0012907755 -0.0003340616 -0.00073123944 0.0014257428 0.0010321008 -7.386177e-05 0.001645613 0.0008730494 -0.00014613057 -0.0009294785 0.00015037536 -0.00039783775 -0.0010784632 0.0003578038 0.00051119376 -0.00048469743 0.0015654678 0.0007378618 -0.0011120249 0.0008412393 -0.00017998934 -0.00071991165 -0.0005660367 -0.00033469207 0.0016499244 -0.0007691281 -0.0016137084 0.0010894269 -0.0010896076 0.001599288 0.00039107163 -0.00016422382 0.0011062782 0.00030755132 -0.0014056579 0.0005176459 -0.0014412216 -0.0012469318 -9.1832706e-05 0.0010398845 -0.0010669385 -0.0014732545 -0.0012724946 0.00073134934 -0.0010539135 -0.0003884778 -0.0008406921 -0.00045502261 -0.0012278232 0.001096452 -0.0005464319 0.0015135114 0.0015088407 -0.00039207397 -0.0009348083 -0.0012139113 -1.2531971e-06 0.0009946364 0.0004534292 0.00014842466 0.0008614089 -4.9421113e-05 -0.0016493265 -0.0002802792 -0.0006761444 -0.001284359 0.0010634303 -0.00031992476 -0.00017623234 -0.0007592696 0.0010805416 0.00023606564 -0.0015156886 0.0012669379 -0.001331599 -0.00065402396 -0.00020504893 -0.0013363264 0.00025775368 -0.0004310605 -0.0014069928 0.0016156763 -0.0014841283 0.0007125204 -0.0012972127 6.505059e-05 -3.58953e-05 -0.0006749224 -0.0010828259 0.00044649345 0.00025633967 0.0014928534 -0.0011502074 0.0014100134 0.0008755434 0.0001829566 -0.0013401572 0.001659026 -0.0013541459 0.00097354496 0.0010002234 0.00022486865 -0.0009210125 0.000602785 0.00063326187 -0.0006582952 0.001311831 0.0008105479 -0.0013424294 -0.00091230747 -0.0009875013 0.0016526099 0.00018244026 -0.0005345281 0.00015738423 -0.00028498957 -0.00020973137 -0.0005553789 -0.00012569794 0.000972116 0.00065759185 -0.00053883577 0.001552996 0.0005635886
a -0.0015949643 -0.00013766692 0.0013898994 0.0002828274 0.0010080459 6.851971e-05 -0.0012919147 0.001513723 0.0012093221 0.00074157247 -0.00032560772 -0.0015956303 -0.000950413 0.0009846197 -0.0004920699 -0.000754828 -0.0016070927 -0.0005199862 -0.0012256312 -0.0015731378 -0.0013895814 0.00036598498 -0.0004529208 -0.00036903145 0.00095968693 0.0011572854 4.1518368e-05 -0.0015881705 0.00049696845 0.0003749714 0.0010808686 -0.00067374494 -0.00044057055 0.0006974953 0.00082988065 -0.0015974275 -0.00023720546 -0.00021840516 -0.00014537145 -0.0009215573 0.00015977724 -0.00034260968 0.0016357162 -0.001369171 0.0005605246 -3.3793247e-05 -0.0011004432 -0.0015653564 1.01257665e-05 -0.0011549116 -5.75852e-05 -0.00068814587 -0.0009980068 -0.0005211996 -0.0014204142 0.0012341163 0.0007274438 0.0006830142 -0.0016221316 0.0005963217 -0.00037237027 -0.0014560417 -0.0014573119 -0.0005569517 0.000116030395 0.00035911944 0.0012229995 0.00047518674 0.0016298306 0.00031796945 -0.0013738942 0.0014440059 0.001074908 0.0005227492 0.0010573553 -0.00022237205 7.207461e-06 -0.0008623041 0.00073943025 0.0003305683 0.0013139416 -0.001364237 -0.00013216928 -0.0015765945 -0.00025357198 0.0012933853 9.958132e-05 -0.0007414343 -0.0011645864 0.0014161754 -0.001261757 0.00036119323 -0.00014879153 -0.0013312525 -0.00015926539 -0.0015245255 0.00047717485 0.00023159411 5.265984e-05 -0.00040752947 0.0013515062 0.00040073294 9.583991e-05 -0.000463151 0.0015770609 0.001354561 -0.0016341448 -0.0009211323 0.0008711014 -0.0005912775 0.00080965157 -0.0015279605 -0.0009263805 0.0011391119 -0.0011273661 0.00021137708 0.0011515211 0.00085099833 -0.0006092613 0.0004216259 -0.0016283809 0.0010149388 -0.00012463747 0.0003340971 0.0007903386 0.0003389325 0.00055091263 -0.0012960746 -0.0004019564 0.00063347945 -1.3086504e-06 0.00053982035 -0.00086622196 -0.0014891853 -0.00022293837 0.00080699904 -8.466809e-05 -0.00054154126 -0.0002252185 0.0010652591 0.0009944912 0.00048456833 0.001565901 0.0016019111 0.0003120286 -0.0010133995 -0.0007504276 4.0217765e-05 -0.0005724303 0.0009781613 -0.00049713376 -0.00097644323 0.00014416609 -0.0006526736 -0.0015980004 -0.00068761775 -0.0015838357 4.9195256e-05 -0.0005708578 -0.0011258656 -0.00074278784 -0.0008867449 -0.00089701987 0.0010201741 1.2062923e-05 -0.00033235145 -0.0013704156 0.00042271445 -0.00094805745 0.0013292731 -0.0015571828 -1.109876e-05 0.0013328907 -0.0002619651 -0.00029369752 -0.00034861502 -0.000218056 -0.001218056 0.0014208152 -0.0006784601 0.0014433789 0.0016408483 -0.0015475444 0.0014339123 -0.0015796839 -0.00027390712 -0.00045702152 -0.0006024815 -4.8631362e-05 -0.0012981896 -0.0009945433 -0.0014808081 -0.001100308 0.0014077699 0.0014678674 0.0007033831 0.00010939622 -0.0004276688 0.0015233718 -0.00015351365 -0.0011363461 0.0016304366 -0.00071558804 -0.0012586806 0.0014419963 -0.0006063959 9.849691e-05 -6.744064e-05 -0.0015498596 0.0005026025 -0.0015840972 0.0016300129 -0.00021753758 -0.0007054359 0.0008927087 -0.00022986066 0.00085264875 -0.00095388497 0.00081803545 -6.7080604e-05 0.0012684604 0.0003611827 0.00084236905 0.0013846847 0.00048481906 -0.00032782773 0.00035356692 -0.0012325686 0.00060343085 -0.00074825855 0.0013533692 -0.00048441452 0.00026009517 0.0015128555 -0.00075916183 0.0015092082 -0.0014181961 0.00013195642 -0.00055573013 -0.0012415324 -0.0014085219 0.0011656653 0.00074829906 -0.0011404303 -0.0002865849 0.001457337 -0.00078731304 -0.00050058105 0.0008751229 0.00032071595 -0.00094580615 -0.0014599058 0.00107775 -0.0013570973 -0.0012263107 -0.000897255 -0.0015591092 -0.00010838421 -0.0014439694 -0.00020881687 -0.0016269579 0.001368575 -0.001434122 0.0005408238 0.00014044355 0.0008705742 0.00026927033 -0.0010196744 0.0015614757 -0.00020566804 -0.0008356502 -0.00035151184 0.001651802 -0.00025431818 0.00018490045 -0.0013431945 0.0014393877 9.827225e-05 0.00041461093 0.00022565844 -0.0002418846 0.0011884996 0.00013760704 0.0014761218 0.00080482796 0.00037347578 0.0009740405 0.0009392467 0.000597815 0.00051072054 -0.0015203848 0.0013673084 0.0009726929 0.0015697139 -0.0010215732 -0.001052151 -0.0005418925 0.0012586194 -9.0834146e-05 -0.001354937
to -0.00019070467 -0.00018666983 -0.0016070219 0.00085494673 0.0010887074 -0.0013046851 -0.0016526661 0.0009390846 0.0016483904 0.0012685909 -2.2567083e-05 -0.0003569635 0.0005223523 0.0015999094 -0.00033843174 -0.0003601414 -0.0010552928 0.000110629124 0.001453309 -0.0010061298 -0.0016648336 -0.0001938521 -0.0009154333 -0.0015953678 -0.0006043655 -0.00019686812 -0.0012345258 -0.0013964452 0.0015552139 0.0011138145 -0.0011566004 0.0008947761 -0.0003985983 0.0015735927 0.0008622327 0.00021638628 -0.0004520109 0.00037562716 0.0007947456 -0.00036576434 -0.0009894567 0.001247203 0.0011126106 -0.0008989229 0.00070269796 -0.0015560893 -0.0007792094 0.00056695694 0.0009709308 -0.00074605015 -0.0011271286 -0.00022200287 5.0812472e-05 -0.00023767358 9.061149e-05 8.241766e-05 0.0013474243 0.0011565064 0.00092259987 -0.00055113644 0.0010884112 0.0005820507 0.00045119264 0.0010390736 0.0013919007 -0.00080018933 -0.0015740129 0.0015301078 0.0012742887 0.0010932 0.0012981235 0.00051983236 -0.0010550106 0.00013793889 0.00022540477 -0.001581906 0.00091362826 -0.0011473469 0.00019952405 0.00083620026 0.00024591116 -0.0010558101 1.4711551e-05 0.0010732827 0.0011123355 -0.00096559536 -0.0015535665 0.0005151849 -0.0003244191 0.00032165772 0.00043088518 -3.301489e-07 0.0014790625 -0.00051235035 0.00051823136 -0.00022742088 -0.00038832542 0.00018065695 0.0014491121 -0.0003812548 0.0016300757 -0.00065945036 -0.00138011 0.0007667544 -0.0008854681 -0.0004510195 -0.00024049928 -0.0007104607 0.0003902922 0.00046898614 0.0006528238 -0.0009323221 -0.00022908632 -0.0012074129 -0.0011825666 0.0005873963 0.0009704049 0.00094003 -0.0010914659 -0.0016440336 0.0005222753 -0.0008590477 0.001551324 6.19695e-05 0.0015085796 -0.00060149963 0.00017402146 0.00041078078 -0.00035911845 -0.0014974958 -0.00049202767 0.0012172132 -0.00089454005 -0.0010395296 -0.00018008811 -0.0010241006 0.0012961226 0.001328482 -0.0013935473 1.6024582e-05 -6.359476e-05 -5.918048e-05 -0.00067902467 -0.00038686907 -0.00014381236 0.0010730751 0.00056488474 3.1444935e-05 0.0012324504 -0.00044977383 0.0016003007 0.001044042 0.0003336556 0.0015949558 -0.0001542993 -0.00068019074 -0.0002643524 -0.0012712012 0.0008513415 -4.228947e-05 0.0001580315 -0.00080626796 0.0013644436 0.00022269445 0.0007797302 -0.0010973607 0.0016611514 -0.0003351025 0.00048825744 0.0010958897 -0.00030150553 -0.00063766114 3.6631473e-06 -0.00039671297 -0.0005912584 0.0010207637 0.0011717274 -0.00086450065 -0.00053658546 0.0012408044 0.0005548667 -0.0003328704 0.00050198927 0.0004140513 -0.0014420628 -0.0013176004 -0.0006734725 -0.00017677553 -0.00061345834 -0.0013314649 -0.0013488991 -0.00028495587 -0.0004769745 -0.0008299497 0.0008105172 0.00057581207 -0.00078746956 -0.00076340674 0.0015924049 -0.0016419414 0.0014198082 4.8319063e-05 0.0010462987 -0.0007629332 0.0006451093 -0.0006541029 -0.00041830022 -0.0010189468 0.00031149227 -0.0009692604 -0.0010191203 3.780576e-05 -0.00042379866 0.0004475166 0.0008871116 0.0013776016 0.0008950565 -0.0016199857 0.0012288645 -0.0011221581 -0.0014009705 0.00056341145 1.3084984e-05 -0.00022395908 -0.0011606017 -6.3632484e-05 0.0014121459 6.6890774e-05 0.001017287 0.0013906081 0.00028172368 -0.0008629692 0.0004888515 0.0014915563 0.0015838025 -0.001066295 -0.0010711532 0.000120176795 -0.0011500594 0.0011017554 0.0016286517 0.0011575937 -0.0015860985 -0.0012374755 0.0009934396 -7.7442564e-05 0.0015022022 0.00087056664 -5.399231e-05 0.00040426373 -0.0011807939 0.00039002096 0.0009646293 -0.00023676644 -0.0003250489 -0.00019979096 0.000942072 -0.0010366181 0.001019509 -0.0014674948 0.0016184284 0.00024235861 0.0015604484 0.0015307429 0.00044304278 0.0004947479 0.0016564477 -0.00076901994 0.001309379 -0.001641282 -0.0011630756 0.000107771186 0.0012219852 0.00040066332 -0.0014544771 -0.0011419802 0.00058654323 -0.0009458784 0.0008542999 8.152273e-05 -0.0015788003 -0.0013797714 0.00030369053 0.0005330249 -0.001345279 0.0013583484 0.0011244236 -0.0012462647 0.00096511294 -0.0007631201 -0.00010980454 -0.0009371756 0.0016615826 -0.0005172574 0.0003992944 0.00023922665 -0.0003204075 0.0010170947 0.00055400375 0.0015637163
with 0.00092755473 0.0013026032 0.0012969548 0.0013345903 -0.00026514128 -0.001179459 -0.000434189 -0.0007172718 -8.372535e-06 -0.0012268247 0.0012290387 -0.00034913316 0.0016122514 0.0014956748 -0.00091329246 -0.0006451316 0.0015529427 0.0009269184 -0.00016767053 0.0012633676 -0.0007118242 -0.0009966796 0.00024215794 0.0013985296 0.00027700936 0.001652534 0.0015304585 0.00022095766 0.0010484523 -0.0007250757 -0.0012151038 -0.00014313358 -0.00123838 0.00021059596 0.0005403806 0.00079071074 -0.001362403 0.00038380682 0.0015316773 0.00015153072 -0.0013056124 -0.00025461952 0.0014486937 -0.0013311877 0.00036649677 -0.001188809 -0.0012534746 0.00025677256 0.0009669416 0.0016620206 -0.0014652854 -0.0013348468 -0.0015662477 0.00041938617 -0.0015286094 -0.0001808381 -0.00012614953 -7.842994e-05 8.44773e-05 0.00032304836 -0.00037590208 0.0012770189 0.0013627912 -0.0014816613 0.00063231663 -0.0011080108 0.00045870172 0.00040207323 0.0007780906 0.0015588084 0.00038800726 0.0011270083 -0.0003972958 0.00030363712 -0.00056247273 -0.0013523889 0.0012571798 0.0011489787 -0.00032993566 0.0016338326 0.0013852493 -0.00031313617 -0.0004791734 -0.0013350191 -0.0013911 -0.001058657 0.00045518688 -0.0013427939 -0.00092460104 -0.0007661307 -0.0011921936 0.0012873389 -0.0015034613 -0.0016502978 -0.00050320075 0.0013938011 0.0014064279 0.00042630828 0.00089426065 -0.00031726723 0.0011846176 -0.0012051204 0.0012932041 0.0012150591 -9.055246e-06 0.0014865671 -0.00067443465 0.0012572852 -0.0012507382 -0.0008458587 -0.0016141598 -0.00010518689 -0.001449125 -0.00041407128 0.0015396909 -0.0009919212 -0.0014796491 0.0007129978 -0.0008689971 6.196671e-05 0.0010901724 -0.0006577962 -0.00072554854 0.0003394267 0.0016584217 0.00015369515 -0.0015847697 0.00015482298 0.00044683763 0.0009868665 0.001353244 6.7854e-05 -0.00046076952 -0.00024136496 -0.0010361135 0.0008336128 0.0004782137 -0.0007286823 -0.0016365439 -0.0012228544 -0.0010449205 -0.00012359768 -0.00077830296 0.0009481784 -0.0007816789 -0.0005934536 0.0006255566 7.0401074e-05 -7.533425e-05 -0.00046229325 -0.00089523284 -0.001009002 0.0016136857 0.0008617747 0.0005944227 -0.001609692 -0.0006180356 -0.0012608976 0.0007452645 -0.0006726215 -0.00025450732 -0.0009000714 -0.00091761927 0.00036016005 0.0014674766 0.0012587826 0.00042225895 0.0006810953 -0.0015508493 -0.00081652054 3.9278468e-05 -0.0013744956 -0.0016624444 0.00071396737 -0.00039238427 0.001652985 0.0016092936 -0.0010154815 0.00044491744 -0.0015075648 0.0011707897 0.0009743607 -0.0012603491 0.0013261108 0.0007559824 0.0010402439 -0.00088244927 -0.0014965677 0.00047526907 0.00010544561 0.00036523867 -0.0007788199 -0.0010209406 -0.0015291928 -0.0015283432 0.0011310718 0.0008407982 -0.00081808364 -0.00021730062 0.0004284988 0.0006033704 -0.00069289777 0.0006256719 0.0008314203 -8.089629e-05 -0.0008806641 0.0004189431 0.0015634453 -0.00035491463 0.0002727309 -0.0012678137 0.0012461491 0.0007102591 -0.0002725439 0.0006693038 0.0010449643 0.0010099274 -0.0006732931 -0.0013393967 -0.0005603173 0.00034505615 0.0016502361 0.00018110542 -0.00012190654 -0.000118023585 -0.00028928 0.00063098146 0.0006879003 0.0007153069 0.0011381223 0.0001478412 0.00025802985 0.0010703588 6.620083e-05 0.0012068944 0.00052309944 -0.0011825144 0.0012027298 -0.00093440275 0.0007031579 2.3655928e-05 -0.0010667588 -0.0014414141 0.0009795139 -0.00036835257 -0.0014324279 -0.0016474879 -0.0015884864 0.001318121 -7.5142314e-05 0.00067860354 0.00040300118 0.0012148587 0.0014223582 -0.0012627676 -0.00019297401 0.0014055648 0.00035259052 0.0005080672 -0.00094486226 -0.0013596949 -0.00051267 0.0012851105 -0.00088905136 -0.00081983366 0.0012456219 0.00012493134 -0.00061310653 0.0006559065 -0.0015931415 0.00057443936 0.0001249154 0.0005410857 0.0012703548 0.00035287513 0.00078619894 0.0012746309 -0.00068939285 0.00072810677 2.3817101e-05 -0.0012531345 0.0010636675 -0.00040138143 0.0013356769 0.00019597769 -0.0002794426 0.0007727767 0.0015515719 -0.00051877013 0.0012759484 -0.00020633994 -0.00086788775 -0.0015177854 -0.0014091028 -0.0012509595 0.0003118895 0.0014235999 -0.00107862 -0.00088338426 0.00062041037
egypt 0.00089497806 -0.0012142195 -0.00029081502 -0.0008740386 -0.00060483837 -0.0014511327 -0.0015427755 0.001259381 -0.00069806183 -0.001058426 -0.00062517036 -0.00043270155 0.001367361 -0.0008461215 0.00036633966 0.0010056637 0.00080866204 0.0013295138 0.00039703396 -0.00067130337 -0.0011587419 -0.00085208996 -0.00085995055 -0.00089373183 -0.0015781306 -0.0005444331 0.0007262708 -0.0011677147 0.00085574336 0.00053209194 0.00075855455 -0.0005233545 0.000616303 -0.0008136362 0.00061860384 -0.001511612 0.001143314 0.00071453693 0.0011740768 0.0011778779 -0.00015403789 -0.00088420825 6.80667e-05 -0.001499191 -0.00020089085 0.00036339165 -0.0016478448 -0.0015615954 -0.00046126172 5.096053e-05 0.0013376393 0.0005720661 0.0014561124 -0.000786354 0.0006124315 -0.00097173755 -0.0007981477 -0.00097613153 -0.0003692128 0.00085357705 0.0013680975 0.00047011743 0.00037342586 -0.0013626982 0.0013794882 0.0015174057 0.0006805991 -0.0002731845 0.0004433243 -0.0015652408 0.0004354787 -0.0009632241 0.00025337114 -0.0016515099 -0.0011136888 -0.001000379 -0.0014778968 -0.0002115394 0.00046887627 6.549376e-05 0.0013719151 0.0008221781 0.0011109782 0.0013713142 -0.0010585862 0.0013817411 -0.0015154277 0.00012190731 0.0006826418 -0.001653518 0.0009416618 0.00022492168 0.0003783355 0.0009223002 -0.0014872765 0.00043344492 -0.0012033539 0.0004327353 0.00025452123 0.00023398397 -0.0005129892 0.0012044199 -0.0011850769 -0.0009959653 7.594913e-05 0.0008963519 -0.00068659213 0.00031756941 0.0013351862 0.0016422262 -0.0014048961 -0.0011008374 -0.00035724277 0.00038953248 0.00047737136 -0.000608881 0.0009837495 0.0015414035 -0.00083710195 0.0013674216 0.0004988938 0.0008401424 -0.00075800344 -9.901568e-05 -0.00025698997 -0.00019015683 -0.0013733644 0.00018298562 0.0006555085 -0.0012157889 0.00056113215 -0.00067674357 -0.0015023868 -0.00089226116 -0.0014363596 -0.00081416586 -1.5714337e-05 0.0010142558 0.0002685211 -0.00065977435 -0.00063565216 -0.0008639851 0.000105880805 -0.0016410502 -0.00064317696 -0.0009828547 0.0012188186 -5.03318e-06 -0.00022456035 -0.0009145378 -0.0010791929 -6.783758e-06 -6.701341e-05 -0.00017789319 9.7709635e-05 -0.0011136064 0.00030548056 -0.0014658838 0.0008668552 0.0016147606 0.0011292647 -0.0013748973 0.0011179247 0.0010264703 0.001240952 -0.00020691598 -0.0001961492 0.0015017597 -0.0007335118 0.0016584485 1.5738953e-05 -0.0014540129 0.0006062499 0.000252256 0.00047119238 0.0003539645 0.0013949269 0.0012604244 -0.0010629559 0.00025487924 -0.000118391334 0.000109249115 -0.0014246035 4.8406535e-05 -0.0015557209 0.0006436437 0.0013484602 0.00074387644 0.0016373284 -0.0003076901 0.001306356 -0.0013433815 6.1325016e-05 0.0010345845 -0.0005341123 0.00013783027 0.00038690295 0.0007089839 -0.0007820874 -0.000529637 0.001227847 -0.00014672 -0.00078549644 0.0013458724 -0.0008541155 0.0006509133 0.000245985 -4.8777914e-05 0.00021131145 -0.0013283474 -0.00013139045 0.00031142714 -2.290035e-05 0.00088258606 0.0006404576 -0.0012075484 1.2427035e-05 -0.0015399037 0.0016570475 -0.0011932567 -0.0015162936 0.000529092 -0.00066218764 0.0012459047 0.00038840153 0.00096488325 0.00070935726 -0.0011771088 0.0014134891 0.0011005399 0.00037170373 -0.0016399611 -9.019621e-05 -0.00089759525 -0.0012951319 -0.0012414162 0.0005671794 -0.0011259897 0.001234481 -0.0015506817 4.3251224e-05 0.001189423 -0.00080861687 0.00043848556 0.00049822737 -0.0012424391 -4.2186122e-05 0.0013591095 -0.00014868696 0.0005442082 0.0013963798 0.001443132 0.00069862447 0.001172588 -0.0013933539 -0.0016559334 -0.00025824335 0.0005469453 -0.0007959269 0.0015679756 0.001334654 -0.00056121504 0.00017097608 -0.00046202875 -0.0006460178 -0.00050683145 0.0005140221 0.00021530893 0.00024382542 0.0010072122 0.00039460286 0.00018379539 0.00097506697 8.8330395e-05 -0.001570001 -0.0014433635 0.0007647375 0.0009051006 -0.00044021307 -0.0013102441 0.0010903548 -0.00051418564 0.0010273794 0.0016020429 -0.0014088391 0.0012255975 -0.0016555205 -0.0009967142 0.0005986395 -0.00076053955 0.0005067892 0.0005394551 -0.00023685471 -0.0011921882 -0.0013437874 -0.0011280375 -0.00029758445 1.7382805e-05 0.00074336183 -0.00080491387
egyptian -0.0007802019 -0.0009022043 0.00083806214 0.0010717778 -5.4825534e-05 0.00023806805 -0.001362942 -0.001048788 0.001453393 0.00090478145 -0.000643913 0.0008951656 0.0007672447 -0.0010483426 -0.0015575736 -0.001190788 -0.0012379893 -0.0009567572 -0.0014742195 -0.0010329994 0.0007191567 -0.0013275857 -0.001281727 -0.00079601357 -0.001621536 -0.0012888658 -0.00081406685 -0.0009325705 -0.0016482882 0.0011611345 -5.390732e-05 0.00083866104 -0.0012822752 -0.00039447515 0.00032006696 0.0011503358 0.00031676664 -8.1994185e-06 -0.0014974788 -6.1080515e-05 0.00063513673 -0.0011779187 -0.0015659451 -0.001328003 -0.0012794213 -0.0012580896 -0.0015536156 -0.0007151676 0.0011451561 -0.0011142525 -1.6726408e-05 -0.00019200423 -0.0014958062 0.0007235256 -0.0016211715 0.00018895237 0.0010357529 0.00052653917 -0.0006062507 0.0008959674 -0.0013010417 0.0009217038 -0.0003277841 -0.00051593524 -0.00059587066 0.0016529624 -0.0015795883 -0.0013545536 0.0010000424 -0.0007571741 0.0013445477 0.0010603812 -0.0011729468 0.0010876426 -0.0012821009 -0.00084657856 0.00062247127 -0.00080720294 8.538797e-05 0.0010242623 -0.0013515776 -0.0005678852 -0.0008591589 0.00039032855 0.0011518855 2.6906813e-05 0.00010506024 0.0013770765 -0.0012244969 -0.0015433659 -0.00051382044 -0.0011993983 -0.0016200294 4.030575e-05 0.0014602889 -0.0006607788 -7.545142e-05 -0.001574474 0.0007019479 -0.0014769594 0.00061121077 -4.1585226e-05 0.0015718375 -0.0015401355 -0.0014100701 -0.0010065117 -0.0005059674 -0.0010572729 -0.00016213156 -0.0014495831 0.0009769654 0.0009602375 0.0012987634 -0.0003469254 -0.0003111226 -0.0006688457 -0.0013593988 0.00073554524 0.001361839 -0.00080783764 0.0013932309 -0.0014863382 0.00049367215 -0.0007687328 -0.00013864848 0.00076019164 -0.00019664671 0.00053914654 0.0015115631 -0.00080221833 0.00012708608 0.001628762 -0.001512503 -0.0014501712 0.0013927795 0.001190973 -0.001419039 -0.0007318602 0.00014423141 0.0005903785 -0.0003571208 0.0002883869 0.000933388 0.00091854786 0.000341074 -0.0004048648 0.0016542479 0.00071096706 0.0008695773 0.000626457 -0.0014829446 -0.00072822685 0.001381914 -1.8976223e-05 -0.001045043 0.00065395713 -1.5561387e-05 -0.0007077245 0.0002926383 0.0012115504 -0.0011952057 -0.00074260583 0.0014506212 -0.0015575215 -0.00047204687 0.00053176814 -0.0013029757 0.0009271894 0.0014770805 0.0008848781 -0.00028412405 0.0003777109 -0.0007815307 -7.5393466e-05 0.00021977285 -0.0013364445 -0.0010839271 0.0013373808 0.001631773 0.0009892622 0.001618009 0.0007438612 0.0012906834 0.0006048181 -0.0015227282 0.00064754847 0.0009899868 0.0010145879 5.1382307e-05 0.0013769342 -0.00072692835 0.0014847342 0.00046607485 0.0010111165 -0.0013733807 0.00013679787 -0.0011275104 0.00013741778 -0.0016640376 -0.0015794735 -0.0008564068 -0.00018772225 0.0012187619 -0.00013791687 0.00036939213 -0.0003746593 0.00043818154 0.0013435731 -0.0011476299 0.00048702906 0.0013748237 -0.0005926052 0.0015651762 -0.0010627701 -0.00017041193 -0.0001104272 -4.6809786e-05 -0.0012235733 0.0015172984 -0.0015113852 -0.0006965423 0.0013559128 -0.0014558329 0.0014287943 -0.00083030463 0.00092212117 -0.0011945756 -0.00082524744 -0.00065572927 0.0007281794 0.0014599233 0.0014867283 -0.0002091028 -0.00042412226 0.0005775946 -0.0014365942 -0.0014054965 0.0015144175 -0.0009304654 -0.000559211 -0.0015845253 0.0001441058 7.882606e-05 0.00043271368 0.0011573543 -0.0013095163 -0.0009647862 -0.0005844686 -0.000658358 0.00045503146 -0.0003395875 0.0012726028 0.0008173428 -0.0011481353 0.0003436265 -0.00052739854 0.00021069635 -0.00083200313 -0.0010792481 0.0007272836 0.00039377002 0.0013552194 -0.00068737456 -0.0009115556 -0.0011410062 0.0012894106 0.0011065383 0.00013362782 0.00032187856 0.00082321826 -0.0016374812 0.001018531 0.00074439263 0.0010288856 0.0016648027 -0.0010693573 -0.00071151904 -0.00091239257 0.00017823777 0.00066219294 0.0012748354 4.430739e-05 -0.00054891827 0.00078849535 1.418928e-05 -0.0006978409 -0.00039149149 -0.0005059513 -0.0013193537 -0.00032875102 0.000603297 0.0015098839 -0.0006874587 -0.00061512535 1.42840845e-05 -0.00011096316 -0.0013241832 0.0006168169 0.00037694714 -0.00061465206
as 0.0014934546 -0.0011269818 0.0003006391 0.00065974554 0.0005332815 -0.00124634 -0.00049775053 -0.00038698968 -0.0005081057 0.0012724821 -0.0012907113 -0.0002588813 -0.0013968155 -2.4235966e-05 -0.0011994435 0.0011913313 0.0007681605 0.0014894633 -0.0011547065 0.0010195369 0.00029478496 0.000107368105 0.0013400746 0.0009291058 0.0010974586 0.00023267741 -0.00040533365 -0.0005454948 0.0015326686 0.00011918012 0.0010298735 -0.0012937363 0.0012770495 0.00045502622 0.0013784444 0.0014313259 0.0009994431 -0.0015289715 -0.0015725355 -0.0009474434 0.0006878436 -0.0012379441 -0.0007083927 -0.0014877947 0.0014017917 -0.0005281415 -0.0011758027 0.0002702796 -0.0014714195 0.0002653999 0.0004814689 0.0016036623 0.00036395012 0.0008480408 -0.0006388737 -0.0011526298 -0.0010719539 0.0015914724 -0.0014087078 -0.0015778398 -0.00091507833 0.000738346 -0.0008872134 0.0016089759 0.0010648732 0.00067578355 -0.00010833644 0.00027973967 0.00044721845 -0.001293817 -0.0008306204 0.0015950203 0.0013942543 -0.0013170139 0.001372698 -0.000859474 -0.0004424037 -4.1876603e-05 0.000604454 -0.0012075197 0.00089987286 -0.00035305 0.0016204529 0.001323235 -0.00047565487 -0.0008614653 0.00080722605 -0.0014487043 0.0013836648 -0.0012856313 0.00014633936 -0.00039379843 -0.00045259087 -0.00096437475 -0.0015001404 0.0004821056 -0.00024543356 -0.00083292037 0.0015161971 -0.0011726933 0.00062742346 0.0014429226 -0.0013239295 0.0009088657 -9.980603e-05 -0.00091197324 0.00032888944 -0.0013037642 0.00025184403 0.0004474966 -0.000552879 2.512369e-05 -0.0008537767 0.0007666902 -0.0006909062 0.00065022183 0.0012444867 0.0005793528 0.0006474999 0.0014236501 0.0010285318 0.0016357647 0.0004919226 1.4755889e-06 0.00054991647 0.0006039079 -9.062497e-05 -0.0014660356 0.00039907632 0.0007503411 0.0009481018 0.0010049042 0.001448007 5.5776993e-05 -0.00014638297 0.0011256199 -0.00075096305 0.00089242944 0.00013827106 -0.00015524606 -6.712057e-05 0.00080764625 0.0010456507 -0.00045495492 -0.0011528989 -0.0002554368 0.0015506247 -0.00033412685 -0.00073422247 -0.00019926263 -0.00026594 -0.0013530377 -6.5569734e-06 0.00012809629 -0.0006057299 0.00044077306 -0.00025444102 0.00065317575 0.00020949056 0.0006839096 0.0011961327 -0.00047765693 0.001629341 0.00011618023 -0.0014914767 -0.001552248 0.0012114152 -2.9245597e-05 -0.001290471 -0.0007272316 0.00023684512 0.0014502049 -0.0016306057 0.0016239517 0.0005080131 -0.00032661346 0.00076809933 -0.00087765127 -0.00069131376 0.0012947285 -0.00047196803 -0.0015590142 -0.0006926676 -0.0012024868 0.00024041192 0.00028331965 -0.0009412061 0.00085660385 0.00039209833 0.00029280692 -0.0012672651 8.616119e-05 -0.0012954831 0.0013485033 0.0014522687 -0.0013295624 -0.00035786664 0.0005128331 -0.0009214831 0.0014952362 0.0010679842 0.0015352251 -0.00064762443 -0.0008126398 0.0010513874 -0.0004488982 -0.0015724306 -0.0011874854 0.0014716423 0.0009819698 -0.00055999187 0.0016444152 0.0005096296 -0.001125661 0.00073504634 -0.001563104 0.00045891854 -0.0013380445 0.0009040339 0.0002269556 0.0011535177 0.00073080143 -0.000268744 0.0015055774 0.0015075724 -0.0015775177 0.00070902734 -0.00013949399 0.0008196615 -0.00040417223 3.3171644e-05 0.0016448216 0.0014483419 0.000781641 -0.0013246805 -0.0012322403 0.0012952925 -0.0011986478 -0.0015564981 0.0009412763 0.00038885543 -0.0013614595 -0.00081683154 -0.0007997678 -0.000631729 -0.0012153845 -0.000531959 0.0016647753 0.0002936039 -5.3123033e-05 0.0009686232 0.00019001422 0.0008632199 -0.0009823131 -0.0008709605 -0.0012479463 -0.00037776201 0.0015847486 0.0009987074 -0.00026755148 0.0016475735 0.00020374307 0.00055484346 -0.00066464965 0.0010709171 -2.6978054e-05 -0.00087298796 0.0010884631 0.00052414765 0.0015050076 5.029734e-05 0.0014086947 0.0015397108 0.0009000471 -0.0013958071 0.00010433739 -0.0006166822 -0.00032204296 -0.0010309349 0.00034151122 -0.0014445293 -0.0007861763 -1.931711e-05 0.00033671487 -0.00040435302 -0.000373261 0.00088811724 -0.00033613932 0.0013759023 -0.0008088016 -0.00042631925 -0.0015974608 -0.0005733186 2.0920357e-05 0.0016146437 -0.0007138387 0.0008952602 -0.00057628273 7.651558e-05 0.0009050726
are -0.0010298503 0.00017819193 -0.00079294 -0.0016409742 0.0015964431 -0.001285956 -0.0006784429 0.0012635823 -9.750718e-05 0.0007374422 0.001159989 0.00073407684 0.00036255165 -0.00065796566 0.00047629466 0.0008943008 0.0007999678 0.0009449664 0.0011210807 0.0010042263 -0.0008139176 -0.0011131893 -0.0001066597 -0.0011601784 0.000913004 0.00087765825 0.001587043 0.00079333066 0.00029121785 0.0015681753 0.00028953064 -0.0011462021 -0.00059143367 0.0016190291 0.0012891667 -0.00029398908 -0.0014581167 0.0013605008 -0.00043852083 -0.0016593457 -0.00034973572 0.0015878897 -0.0011187071 0.0014937675 -0.0014075232 -0.0011509148 0.00052309455 -0.00011788752 0.0002197605 0.00026714106 -0.000856071 -0.0015175823 0.0016177752 0.00083476765 -0.0009685484 0.00014668921 -0.0003860513 0.00066614297 0.0009196149 -0.0015560978 0.0011680229 -0.0009156245 -0.00020052906 0.0013052445 0.00020837628 -0.00085396843 0.00027685583 -0.0011381923 -6.659387e-05 -0.00030276005 0.0013415144 -0.000831058 0.00056575896 -0.0013489113 -0.0015896428 -0.0013163558 -0.0006501059 0.0009666918 -0.0013532143 -0.0013956561 0.0010238419 0.0009182869 -0.0012298988 -0.0011077892 0.0012445438 -0.00056586764 0.00070188456 0.00036570488 -0.0006112771 -0.001404508 -0.00043261287 0.0014904569 0.0005728294 -0.001282674 -0.000177085 -0.0016259166 -0.00036338685 0.0006597 -0.0010326914 0.0005241737 0.001477585 -0.0011039617 -0.0015496046 -0.00026758556 0.0015767361 0.0008666987 -0.0016202037 0.0014557131 0.0014499965 0.0009336291 0.0009741661 0.0005393847 -0.0008167363 0.000117320946 -0.00018161323 -0.0010278345 -0.0014671297 0.0004851842 -0.0013517925 -0.0008617673 0.00096607534 -0.000111620124 -0.0010422015 0.0009451221 0.00035734958 0.000641928 0.0001660879 -0.00118768 0.0004756089 0.0009629243 0.0009720824 -0.0016427962 -0.001442794 -0.0016664512 0.0015097369 0.0015589538 0.0008335205 -0.0014091268 -0.00053310534 -0.00061236444 -0.0016156614 -3.6296096e-05 0.0013763257 -0.001048507 0.0010052494 -0.0014848885 -0.0011662595 -0.0011087832 0.00083760684 0.00029236448 0.00027312612 -0.0007990385 -1.5003329e-05 -0.001059516 -0.0013657898 -0.0013036482 0.0016478121 -0.00090119656 0.0008416919 0.0010488925 0.0005345023 -0.0016638238 -0.0012009995 -9.296156e-05 -0.0014070563 -0.00074499747 0.0010336858 -0.0012501335 -0.0012893508 0.00019711562 -0.0013470534 0.0014334181 0.0009931532 0.00040730505 -0.0011022091 -0.00085167453 -4.776864e-06 0.0007257385 -0.0006125608 0.00078491523 -0.00026558802 -0.0008386285 -0.0010105425 0.0011657376 0.00084643916 0.0007425526 0.001321683 -0.0011363268 0.00036258015 0.001501079 0.00056012213 0.0013733588 -0.001041109 3.84228e-05 0.00029717764 -0.00082409364 -0.0015899108 0.0011493433 -0.0012782214 -0.0014236369 0.0003439273 0.0010561041 -0.0013648452 -0.00025110738 0.00020874037 -0.0011247385 -0.0014638101 0.0012619417 -0.0015165556 -0.0011300226 0.0006463851 0.0014606289 -0.0016345974 -3.5670804e-05 0.00085479714 0.0013189559 0.0015266616 -0.0010397737 0.00044075455 -0.000938531 -0.0012448423 0.0012502172 -0.00090815505 0.0013887667 0.0011638445 -0.0011192089 0.00049821235 0.00075787085 0.0013733656 -0.00090314355 -0.000611823 0.0011512425 -0.00041891512 -0.0015540988 0.001254434 -1.6502678e-05 0.001414587 0.00092725165 0.0007121956 -0.000562836 -0.0011556281 -9.420214e-05 0.0012031347 -0.00049611507 -0.0016153421 -0.00035993053 -0.00018229807 0.00024150692 -0.0012438088 0.0010250342 0.001039711 0.00046379978 -0.0016372703 0.0007294448 -0.001271794 -0.00061569805 -0.00085207925 0.0012583927 0.0010512966 0.00035705144 0.0010273294 0.0007593515 0.0009730931 0.0013191174 0.0006687511 0.0012882279 8.8801615e-05 -0.0010523052 0.00084436627 0.0007711849 0.001277704 2.0016656e-05 0.0013707926 -0.00029573732 -0.0005504405 0.0012609952 -6.805809e-05 0.0015118385 0.0007414236 -0.0014888834 0.0009763678 0.00018799564 -0.00047899716 -0.0012621655 -0.0001980982 -5.592867e-05 0.0006683316 0.00020317808 0.00039109186 0.0009806448 0.0013123209 -0.0001813504 0.0014342504 0.0007453924 0.0005613334 0.00079386675 -0.0013333021 0.0013248227 0.0009955408 0.00059317617
it -9.2418784e-05 0.00048135823 0.0013235442 -0.00036635456 -0.0016290213 -0.00059041294 0.0014814035 -0.0004446037 0.0005691783 0.0004153269 -0.0002665959 -0.0012796245 9.5204035e-05 -0.0012655469 7.162601e-05 -0.00027694498 0.00066157145 -0.0015544464 0.0006911309 0.0012546818 -0.001280093 0.0012282092 0.0011684202 0.00076305884 -0.00014976042 0.0011927469 0.00089544046 -0.00010572206 -0.00017002039 0.0001526991 -0.0001138257 0.0009968828 0.0005717954 -0.0009391232 0.0013223451 0.0003001596 0.00064893597 0.00018466909 -0.0012636749 -0.00010169099 0.0013449789 0.0008743031 -0.0010196996 -0.0009727708 -0.0010902475 -0.0015070349 -0.0003942197 0.00089615403 -0.0015999064 0.0009127801 -1.9307518e-05 -0.00052338 0.00060758844 0.00079497223 -0.00059854245 -0.0009215116 0.00042719234 -0.0008172953 -0.0013318452 0.00095976214 0.0011167428 -0.0013540251 0.0010973173 0.00031571125 -0.00090337783 0.001481099 -0.0007822652 0.00037283794 0.00020949378 -0.001204303 0.0004132059 -0.00033449277 -0.0007575125 -0.0010878512 -0.0014410485 0.0011695146 0.0014114003 7.502302e-05 0.0013493783 -0.00079107843 0.0011118194 0.00069269614 0.0015784419 -0.001601416 -0.0016607291 -0.00013061248 -0.00076633896 0.0011647801 -0.0015890907 0.0013029323 -0.00096982974 0.00075292616 0.0011188808 -0.0013532585 -0.0009780715 0.00044387975 0.0010622998 -0.0011298131 0.00033117458 0.0012211362 5.9264818e-05 0.0014350441 -0.0007162782 -0.0010757511 0.0010669436 0.0004196863 0.0013253042 -0.0013981079 -0.0012182748 -0.0011000744 0.00053846685 0.0013730917 0.00026154044 0.0012696076 -0.0011960602 0.00017034767 6.292193e-05 -0.00092700805 -0.00015311239 0.0012100923 0.00078279205 0.0015636209 -0.00010120149 0.0009041597 -0.0013904683 -0.0004728643 -0.00092701096 0.00086251943 -0.0010650655 0.00016989892 -0.0013652537 0.0016532921 6.442338e-05 0.0010798513 0.0009455414 -2.2358618e-05 0.0015898516 -0.001617484 -0.00019791644 0.00072912464 0.00042372892 0.001061838 -1.3154597e-05 -0.00023445098 0.0006107641 0.00089193037 0.0006374225 0.0010535914 8.149111e-06 0.000846714 0.00033059143 -9.36162e-05 0.00027696922 0.00052930386 0.0009489642 -0.00084898283 0.0011018987 -0.0014065574 -0.0008697562 0.0016412053 0.00015420267 -0.001073187 0.0013443952 0.00012261327 0.0013321958 -0.0015929266 -0.0014801894 0.00023251805 -0.0016454894 0.0006911292 0.0005586675 -0.0011243429 -0.00016992683 0.00031531067 -0.00025860095 -0.00035008736 0.0003191148 0.0016469882 0.0008931743 0.0004922117 -0.0012667861 -0.0007665107 -0.0012917141 -0.0007256678 0.00089462526 -0.000290283 0.00081260665 -0.0003219744 0.0009984755 0.0010462893 -0.00031253198 0.000117928816 -0.00060510857 0.0006900076 -0.0012344025 0.00040818457 0.0011830135 0.0008726418 0.00092371297 -0.000297219 -0.0011427948 0.0016318881 -0.0009220725 -0.00061891164 -0.0013770751 0.00024869133 0.0013576095 -0.0002261802 0.00088681973 0.0005056103 -0.00044700288 -6.334801e-05 -0.0011323052 0.0002775349 -4.035502e-05 2.9204608e-05 3.7243904e-06 -0.001457782 0.0012644527 7.449239e-05 -0.000416811 -0.0010706824 -0.0009635696 -0.0009976255 -9.13537e-05 0.0012619097 -0.0008713665 -0.0015011687 -4.9961836e-05 -0.0009741121 0.000714137 0.001192018 0.0006122716 -0.00011612787 -0.00087891915 -0.00036943424 6.118287e-05 0.0012192082 0.0001832827 -0.00017834877 -0.0014676499 0.0011259114 0.001585442 -0.0007190664 -0.00092258956 0.0013555078 -0.0013244873 0.0011543962 -0.0013383073 -0.00019033116 -0.0008534639 -0.0012942691 0.0004164308 0.0011365602 -0.0011386982 0.0008231731 -0.0014036078 0.0007843769 -0.0003922409 0.0015738977 0.00090560666 -0.00013266393 0.00094534026 -0.0007203393 0.0007137026 -0.00093194016 -0.0010992833 -0.00029797642 0.0010830038 0.0015736739 -0.00084852625 -4.9510596e-05 0.0010538367 -0.0006702929 0.0003787404 -0.0006559469 0.0008840908 5.967933e-05 -0.0008118448 -0.0008043041 -0.00093427417 0.0006851894 0.0016130522 0.00087232585 -0.0003696604 -0.0012538309 0.00033381573 0.0011248764 0.0005605939 0.0013079447 -0.0003666103 -0.0006991774 -0.00055691245 -7.1008426e-06 -0.0015385239 0.0014215417 -1.2564221e-05 -0.0012720632 -0.0005023354 -0.00073413795
tea -0.00068268913 0.0005609162 0.0010496293 -0.0013418697 0.001476678 0.00028158995 0.00022995994 -0.00039564935 0.0011863164 0.000103597165 0.0014794492 0.0008793991 0.00029773777 0.0013991246 -0.0010613402 -0.0002712437 0.00019281948 -0.00046434352 0.0009840381 0.00079291745 0.0008000784 -0.001414113 -0.0015631435 0.001371419 -0.000106193234 -0.0011024749 0.0008120189 0.0016483403 0.0006022166 0.0005037358 0.0011873642 0.0014785822 -0.0010746545 -0.00013291869 -9.510189e-05 6.346807e-05 -0.00047178048 -0.00077699707 0.0012031762 0.0013530445 0.00018945786 -0.0015766213 0.0015910855 0.0012822573 -0.000248755 0.00014782489 0.00012049069 0.0009041374 0.00020942987 -0.0015629035 -0.0012859642 0.0011850899 0.0006449498 0.00043132214 -0.00036886687 0.0008099797 0.0010531553 0.00044676443 0.0014483674 0.00037041912 -0.0013488368 0.0006048489 0.00038407458 0.0009791998 0.00020691965 -0.0012648198 0.00026660424 0.0006376478 -0.0004638737 -1.1695029e-05 0.0015815643 0.0009787682 -0.00069169817 -0.0012424247 0.0014834821 -0.00021186387 -0.0011590366 0.00017305223 -0.0008804701 -0.0016329533 -0.0013388221 -0.0010006049 -0.00041362373 0.0004695455 -0.00010749796 0.000584161 -0.0015493565 -0.0009222158 -0.00050642894 -0.0015207492 -0.0015330374 -0.0016565175 -0.0013620864 3.4909794e-05 0.0008365351 -1.36468625e-05 -0.00017467064 0.000471674 0.00034198782 -0.00043168443 -0.0014467142 0.0015256724 -0.00091658084 0.0012260089 -0.00034146203 -0.0009937298 0.0014931621 0.0006948173 -0.0013252022 0.00081114366 -0.0016136708 0.0008015984 0.0015593548 0.001386702 -0.0006194003 0.00041071954 -0.0012622726 -0.00068456074 -0.0005614494 -0.0010927853 -0.0012319975 0.0016200589 -0.0007667552 0.0013897251 -0.0016501448 0.0010103945 0.001655769 -0.0015027566 0.00080828834 0.00020333474 0.0014724036 -0.0010060576 0.0013729259 0.0013068293 0.0013819538 0.00097016105 -0.0012489881 -0.00024533257 -0.00034156122 0.0011751724 -0.00013347021 -0.0013916714 0.00025460665 0.0005305024 9.069271e-06 0.0015521456 -0.0005557548 -0.00039977668 0.00057598704 -0.0012085253 -0.0010230013 0.0003025154 -0.0014651696 -0.00081284466 0.0005127172 -0.0014785853 0.00028864996 -0.00026538188 -0.00092256675 -0.0015769829 -0.0013828526 -0.0004164778 0.0012394864 -0.00089868257 -0.00096090225 -0.00092672836 -0.0006427091 -0.00047712293 -0.00152063 0.00024798856 0.001292875 3.090421e-05 0.00017997797 -0.0014936142 -0.00060482114 -0.0005964621 0.00093974784 0.0015866153 0.0011348801 -0.0004728986 0.00082344236 -0.00027221115 -0.0015585058 -0.0015052377 -0.0011889404 0.0004886316 -3.3980574e-05 -0.00045629594 0.0011806813 -0.00035167718 0.00019674365 -0.0005900242 0.000353286 -0.0009661908 0.0003731567 -5.430462e-05 -0.0012760651 -0.0015057131 0.00092729164 0.0003335572 0.00028273504 -0.00065692497 -0.0015371805 -0.0012237586 -0.0013491283 0.0003090462 -0.0013511765 -0.0014851381 0.0008649791 -0.0006887271 0.0010348625 0.00013569524 0.00039018123 0.0008334265 -0.0015766849 0.0008588051 -0.0007210633 -0.0009970303 -0.0006374514 -0.0007391568 0.0015488757 -0.0012039008 0.001475474 -0.001036806 0.0015133788 0.0009880696 -0.0014160705 -0.0011445768 -0.00075944327 -0.0008974968 0.0009998276 -0.00045103586 0.00095326593 0.0010436418 -2.1143198e-06 0.00035405936 -0.0011481358 0.001163221 0.0013043233 -0.0010818179 -0.0014162114 -0.00076561066 -0.00016218919 0.0005861254 -8.38709e-05 0.0010980365 0.0005055521 -0.0016472181 0.0016410139 9.4226205e-05 -0.00025459586 0.000758288 -0.0011538635 -0.001512656 0.00081357616 -0.0010259801 0.000287845 -7.6307406e-05 0.0005630645 -0.00015081116 -0.001415338 -0.00045619733 0.000739481 0.0012359351 0.00090722623 -0.0015745059 -0.00094335945 0.0014250793 -7.652552e-05 0.00076904707 0.0014261185 -0.0010033579 4.9603864e-06 0.0015230242 0.0016163813 0.0013952286 -0.00080145727 0.0008551761 0.00159752 0.00084288564 0.0006103032 0.0009727228 0.00067570555 0.0009791454 -0.0009595818 0.00026312814 -0.0009310423 -0.00041585055 -6.221429e-05 0.00069668837 -0.0013222726 0.0006109023 -0.0006126107 0.0014863601 9.3409726e-05 7.38876e-06 -0.0001279649 0.0014970821 -0.00089872576 0.00038060604
or -0.0011814093 -0.0012587248 0.00016845626 -0.00015058796 0.0012107136 0.000643811 0.0009577063 -0.0006877553 0.00062535465 0.0007752826 -0.0015836745 0.00059605914 0.0002050907 -0.0006660668 -0.0003465419 0.0013741369 -0.0006073265 -0.0013919562 -0.0005674918 -0.0013536225 0.00060844794 -4.206934e-05 0.0002544215 -0.0008266095 0.0009969851 5.1074614e-05 -0.0010248247 -0.0016111546 -0.0015074748 0.0011070359 -0.0014213497 0.0012002796 -0.00013934748 -0.0016078438 0.00018125321 0.00039839238 0.0013793973 -0.00026435227 0.0014254035 -0.00022719598 0.00055941776 -0.0010919687 0.0015257844 0.00065910874 -0.00012655862 -0.0013679395 -7.0033806e-05 0.0006995145 -0.0013514061 0.0010575926 -0.0015157637 0.00091609417 0.0010370484 0.0013871038 0.0014103915 -0.00073665695 0.0014506201 0.00028796363 -0.0007864355 0.0014508534 0.001502237 0.00066075736 0.0011976568 0.0011103794 0.00051930494 -0.00088234415 -0.00077705964 0.0004544868 -0.00109159 0.0011373744 0.00017872718 0.0005268431 5.485764e-05 -0.0007893824 0.00042654332 0.001015162 0.00032592512 0.0014824498 0.0009245272 0.0007748559 -0.0016638984 0.00039893942 -0.0010272255 -0.0015577953 -0.00035863803 0.0010442096 0.0010068968 0.00025268973 -0.0003151212 -0.00073026965 0.0015265066 -0.0015951917 0.0001378801 0.0003831376 -0.0014019957 0.00029445824 -0.0007915225 -0.0007967474 0.00071063504 0.0008292645 0.0010351047 0.0009713717 -0.00052231376 0.0011444809 0.0012753666 0.0004527254 0.00097271224 0.0007584111 -0.00063291553 -0.00067863864 0.001126797 -0.00094487006 -0.0015939162 0.0013028858 -0.0011317125 -0.000571012 -0.0013286342 -0.0004189418 0.0011845668 0.0007044282 0.0011678834 -0.0015464532 0.0008192656 -0.00069111877 0.0008580125 0.0007888926 -0.0014535446 0.0012824459 -0.00091900275 -0.0009910219 -0.00029503385 -0.0014389936 0.0007577765 -0.0007254693 0.0003763269 -0.00051773316 -5.0863902e-05 -0.0013578648 -0.00012993884 -0.0012017995 -0.0014408855 -0.00083716353 -0.0013958311 -0.00026599545 -0.0004393071 0.0012522674 -1.6549486e-05 -0.0014362645 0.00062557595 0.0009293896 -0.0007556576 0.0011840331 0.00011654947 -0.0009818112 -0.001666166 0.0016081799 0.0011767898 -0.0009817802 0.00011152451 0.00036103482 -0.0011335504 0.0011204171 -0.0012293103 0.00023401428 -0.0011498788 0.0011317175 -0.00067086914 0.00022413247 0.0011984373 -0.0008335554 0.0013911879 0.00027216945 -0.0011455489 -0.000110096895 0.001387583 0.00014367026 -0.00037844406 -0.0004399353 0.0008333829 0.000748016 -0.0006828763 -0.0006456135 -0.0016144663 0.00021767881 -0.0010953648 -0.0003526722 -0.0015315613 0.0004124041 -0.0011506651 5.4686385e-05 -0.00058984896 -0.0015091088 -0.0014200213 0.0010152304 -0.000105007486 -0.0011118469 0.0005416045 -0.0003846343 0.0014865688 0.00156675 0.00031247013 0.0013985303 0.0006440714 -0.0013084757 0.001572895 0.00078929996 -0.0010581037 -0.00082199386 -0.0008961704 -0.0016327853 0.0013472968 -0.0014541316 -0.00091360486 -0.00060317223 0.0008127139 -0.0009163283 0.00066213676 -0.00066297234 0.0006695289 0.0009811758 -0.0015537048 0.0014109096 0.0012447269 0.0012932732 5.7968246e-05 -0.0009180064 -0.0014497259 0.00020951116 -0.00149738 -0.0010900593 0.001273758 -0.0013723944 -5.8410307e-05 0.00039956297 0.0011165682 -0.00058335974 0.0011711435 0.000684627 0.0004496007 -0.0014155179 -0.00087954703 0.00017757762 -6.897653e-05 0.0007179066 0.00075638335 0.00014658736 0.0005880449 0.0008023671 0.00086918013 0.00019993009 0.00034564297 -0.0007876301 -3.1082566e-06 -0.00029153755 -0.0004657317 -0.00089801446 0.0009941893 0.0010638084 -0.0011633902 0.0011134474 0.0015654843 -0.00027029458 0.00026142417 0.0013188197 0.0008473 -0.00070010015 0.0011991782 0.00039558476 -7.308532e-05 -0.0012827269 -0.0005789977 -0.0005615842 0.0005808547 0.0015237342 0.0015360618 0.0007687654 -0.00097254646 -0.00010046729 -0.00073299074 -0.00043859563 0.0009168249 -0.00039120988 0.00061653735 0.00055386266 0.0011150792 -0.00021332844 0.0004367736 -0.0011880782 0.00051163265 0.0005319363 0.0011126181 -0.00013953826 -0.001333858 -0.0011362236 -0.00067734934 0.0015349906 -0.0012753245 -0.00093698816 0.0003760533 0.00017120596
bread 0.00068364287 0.000396728 0.0011506713 0.0009516225 0.0009291838 -0.0014551168 -0.0003277125 -0.0013569762 -0.0014893207 -0.0014925299 0.001481098 0.0015860463 0.0016159036 -0.00065250526 0.00090617203 -0.00086153735 -0.0013685538 0.0016041403 0.00091728056 0.00086811336 -0.0003791245 0.0012713694 0.00021133087 -0.00062415376 -0.0014226296 -0.0006626308 0.00086167833 -0.00066185254 -0.00066131697 -0.00027376343 -0.00027821 0.0006568964 -0.00033045997 0.0011454775 0.00021116335 -0.0012898945 -0.0007519224 -0.001067102 -0.0010443726 -0.0010140751 0.0003401749 0.0012452855 0.00070287735 0.0012375267 0.00093014643 0.0001319662 -0.0006945482 -0.0014352873 0.000993298 -0.00046526018 8.391307e-06 -0.00036815758 0.001342834 0.0014712064 -0.00096758205 0.0005540652 0.00082360365 -0.0013151667 0.00060524733 -0.00021652022 -0.000527938 -0.0006015704 -0.0013758341 0.00056689745 0.0009269503 0.0008011165 0.00032792025 -0.00082595303 -0.0015519314 0.0010140556 0.00036478144 0.0008659188 -0.00060368684 0.00012434271 0.0005204936 -0.00067144237 -0.0007667408 -0.0013736112 0.0012898141 -0.0016160357 -0.0012046226 0.00022322839 0.0009319321 -0.0009723092 0.0011226933 0.0004590829 -0.00016242643 -0.0005893142 -0.0007512469 -0.00012535928 0.00010735841 -0.0005811615 -0.0010931606 0.0008228173 -0.00028118727 0.0011110771 -0.0010452156 0.000651524 -0.001571725 0.00031166174 -0.0011809507 0.0009043373 -0.0010327285 0.0016507119 0.0005091017 -0.00012822177 0.0007980654 0.0013795012 0.0008592835 0.0014483697 -0.0016406147 -0.00035190687 -0.0011501799 -0.0016485509 -0.0005454869 -0.001333777 -0.0010817233 0.0014004254 0.0010086577 -0.0008491344 0.00015496355 -0.0007637231 -4.8579725e-05 0.0012804447 -0.00090599776 0.0005943596 -0.000654337 0.0009112359 0.0010810281 -0.001316038 -0.0012934002 0.000717652 0.00153609 -0.00017015709 0.0010436142 -0.00096715573 -0.00079915725 0.00048395497 0.00078663847 0.00095155614 0.0014954702 0.001503987 -0.00020059955 -0.0013023327 -0.0004665956 0.00064104906 0.0016086051 0.0016224673 -0.0013857812 -9.5717136e-05 -0.0006105211 0.00082987454 -0.0008126402 3.3799442e-05 1.5760825e-05 0.0008634257 -0.0012101366 -0.001419735 -0.0013373179 -0.00039606536 -0.001137701 0.001316768 0.0007003774 0.0015989697 -0.0013151051 -0.0009781016 -0.0011479211 0.0002778593 -0.0006063689 0.00024544093 0.0006472113 -0.001602038 -0.0013176278 0.0014949534 -0.0015175769 -4.352325e-05 -0.00070906524 -0.0009394132 0.0007234476 0.0013463371 -0.0007862871 0.0013653788 0.0007451743 -0.001036665 0.0016556421 0.0008174626 0.0003548404 -0.00094892527 -0.0014806888 -0.0007312802 -0.0003481318 -0.000714951 8.0533464e-05 -0.0010580168 -2.6005403e-06 6.803235e-05 0.00083090557 -0.00080044917 -0.0016318522 -0.00032485067 -0.0011589851 -0.0010132194 0.0009353682 -0.0005078642 -0.00055642193 0.00012048886 0.000552845 0.0014157068 -0.0008667518 0.00012583565 0.0013105813 0.00017319393 -0.0012225849 -0.0013036802 0.00014070263 0.00050303235 0.000633831 0.00083407795 -0.0001691216 -0.0006039471 -0.00024055039 -0.0012641451 -0.0014655185 -0.00046672527 0.00091788516 -0.00079487875 0.0005364637 -4.7647794e-05 0.0015967963 -0.00025831073 -0.0012437473 0.0014669524 -0.0015996085 0.0008492146 0.0005269816 0.0015037461 0.0012558152 0.00031233233 5.0189516e-05 -0.0012870741 0.0003114862 -0.0012766623 0.0007298526 0.0014143354 0.001159228 0.0014550864 0.00022954334 -0.00070784334 -1.3081529e-05 -0.0009313539 -0.0004993633 -0.00061802287 -0.0002431582 0.0013230881 -0.00064471946 0.00047341903 -0.0010962491 0.0013412682 0.0006835959 -0.0011555916 0.0016354017 0.00038701086 0.0011121433 -3.4745288e-05 0.0007790687 -0.0014200632 -0.0013180388 0.00046711013 -0.0002991645 -0.0013907426 0.00038803607 0.0015917997 0.0015087526 -0.00016906344 0.0005051547 -0.00082883594 -0.0006006542 0.001609536 0.0013538963 -0.0012802961 -0.0010555849 -0.0014781399 0.00048189575 0.0010890777 0.0012001167 -0.00025984942 -0.00016214109 -0.0012337968 0.00081890455 0.00038065508 0.00033489233 0.00052210916 -0.0011533785 -0.0011909471 0.00020337306 -0.0008342127 0.00064641825 -0.0012870599 0.000117313335 -0.00023009964
for 0.0008318159 5.454365e-05 -0.0011244357 -0.0008398467 0.0016578833 -0.0014055643 -0.0008294465 -0.00042769848 0.0015661685 0.0009564411 0.00011664023 0.000354564 -0.00062177307 -0.00041972587 0.00053501205 -0.0013028665 0.0009526612 -0.0015908359 0.0012497552 0.00022144237 0.00097292376 0.0015531752 -0.0010382372 0.00053605466 0.00025881 -0.0014253805 0.00097314484 0.0007304642 0.0014524902 0.00014806514 -0.00015519591 0.0005859139 0.0008702171 0.0014072723 0.00081164547 -0.00037957876 0.00055335916 0.00072970963 0.0010911379 0.00042477617 -0.0006050663 -0.00075656513 0.0007016417 0.0014703545 0.00059395237 0.00034863982 1.3657889e-05 -0.0011197993 0.001401496 0.0009808372 4.9681985e-05 -0.00020171626 -0.0004453504 0.0002341567 -0.0013566081 -0.0003364024 0.001028615 0.00035093204 -0.0007169071 0.0012429877 0.0012768924 0.0016643122 0.00027313695 -0.0010503988 0.0016304075 4.5937933e-05 2.330697e-06 -0.00015425381 -0.0003261036 0.001652225 -0.0013506153 -0.0005365855 0.0014777532 0.0009930517 -0.0007865233 -0.00034450903 -0.0012755065 -0.0016244858 -0.00080722733 -0.00083431497 -0.001478913 0.0001278927 -0.0008453384 -0.0005061708 -7.7505625e-05 0.0010406846 -9.44265e-06 0.0013491389 0.001230036 -0.0014298299 -0.00029073146 -0.0010134069 -0.0012753145 0.00143741 -0.0010393108 0.0013615371 0.00010068663 4.6270743e-05 -0.00038515267 0.0011158009 0.00095341995 0.00060382334 -0.0007349839 0.00089662767 -0.0011753663 1.937635e-05 0.0010498577 0.0013619757 6.2167426e-05 -0.00083421613 -0.001156581 -0.00035174348 -0.001135995 0.0012135865 0.00080441294 0.0004761179 0.0006054825 -0.0015373965 0.00087428075 6.167443e-05 0.00033994069 0.0012270405 -0.00025268216 3.9888844e-05 0.0013402138 -0.00039744753 -0.0016404251 -0.00061395986 -6.093871e-05 -0.0014349282 0.00069446606 0.00022378491 0.0015583765 0.00025291875 -0.001130357 -0.001105646 0.0016618484 -0.00093023793 -0.00015398594 -0.0008954543 0.0012220544 -0.001509384 -0.00016809357 0.0012786388 -0.0011487977 0.0009636124 -0.0008336108 0.0012836778 -0.0007818395 -0.0016408783 -0.0005460556 -0.0006728924 -0.0012248007 -0.0016539721 0.0015672157 -0.00044493715 -0.00024250752 0.0013529524 0.0013441262 -2.658678e-05 -0.0008295973 -0.0010539256 -0.0013036289 -0.00010464564 -0.0004823287 -0.0008882116 -0.001160599 0.0003114056 -0.00011929501 0.00027579375 -0.00078171515 -0.0012297721 0.0013245672 0.0011341168 -0.00039670643 -0.0015645903 0.0015412249 -0.00046574566 0.00091831654 -0.0013211934 -0.0008524468 0.00044975764 0.00021309285 0.0010252177 0.0014283323 0.0013582875 0.0011439379 -0.00014827683 0.0015771807 -0.00074090005 -0.0005917406 -0.0007986283 0.0011036141 0.001506378 -0.0014798155 -0.0008507087 -0.00031288204 0.0015186811 -0.0011958914 0.00092754146 -0.00079422933 -0.0011129243 0.0013321979 -0.0013695041 -0.00086551986 0.0010503938 -0.0010528554 -0.00033852554 0.0016080507 -0.00078332826 -0.00036723647 0.00019449368 0.0010469378 -2.5700172e-05 -0.00054067647 0.0004699258 -0.00051310856 0.00061152736 0.0013221953 0.0015989257 -0.0012492054 -0.0015905278 -0.0008810297 -0.0013812551 0.00068863994 0.00033435744 0.0014272346 0.0011198028 -0.00054428924 0.00096626516 0.0001646978 0.00011752863 -0.00051282585 0.00013538793 -0.00039737858 0.0005474924 -0.0003915712 -0.0007172341 0.0013471276 0.0004927071 -0.00011157641 0.00074065954 -0.0013457487 -2.585126e-06 0.00062053796 -0.0010903764 0.00063253805 -0.0013143669 0.00075076864 -0.0011696139 -4.6806428e-05 0.0016152485 -0.00032545417 -0.0013673543 0.0002885864 0.0009902366 5.625287e-05 0.0010796696 -0.00040669393 4.0252868e-05 -0.0015987464 0.0005869325 -0.0015924826 -0.0010574444 0.0016005172 0.0016348849 0.0003200001 -0.0006998715 0.0009781028 -0.0008881686 -0.00035193306 0.00023053409 0.00020678427 0.0009814077 0.0013072795 -0.0015007548 0.00035891516 -0.00054686965 -0.0008988473 -0.0014231662 0.0005171729 0.0008806334 -0.00049411465 0.00019884332 -0.0016078611 -0.0013060914 -0.0015883208 0.00042848985 0.0016342694 0.00084250176 0.0015695484 0.0015081419 0.0011363593 -0.0005910611 0.0003302211 -0.0010251058 -0.0012528088 0.0013216807 -0.00015213797 -0.00025047263
served 0.00152668 -8.2387414e-05 0.00012859823 -0.00018231336 -0.0012159109 -0.0004116594 0.0008436095 -0.00017166727 0.0007773903 0.0008371046 0.0011553855 -0.0010910123 0.0007876916 -0.0012933776 0.0015945125 -0.0011349752 0.0011428928 0.0004232689 0.0008745649 0.00028351296 0.00035329192 0.0015223091 0.001314566 -0.00042788123 -7.959243e-05 0.000205231 0.0004512596 -0.0016355688 0.0013366336 0.001136916 0.0013246055 -8.310331e-05 0.00055836735 0.00094232365 0.00015251193 0.0015117241 0.0012615991 9.054538e-05 0.0001825883 -8.04633e-05 3.247167e-05 -0.00017815357 0.0008217338 -0.00029339152 0.0010872429 -0.00053844234 0.00011123458 -0.0011976216 0.00035155087 -0.0010307577 -0.00095278886 -0.001092903 -8.56253e-05 0.0014048766 -0.0015111495 -0.0011141913 0.0016631947 0.0011824642 0.0009201488 -0.0010320441 -0.0013510826 -0.001494848 0.0005864365 -0.0011687558 -0.0015245586 -0.00033817053 -0.00067083334 -0.0012761339 -0.0005524475 0.00025959432 -0.00080059463 -0.0006698018 -0.001476725 0.0009113998 0.0009511729 0.00024763425 -0.001072667 -0.0003972004 0.0014795546 0.0009420271 -0.00047184902 -0.0014258666 0.000808336 -0.0011600736 0.0007712386 0.0008548972 0.0010566266 -0.0011469409 0.0010481222 -0.0013051925 0.00067108695 0.0005561652 0.0013404915 0.0002883124 0.0010331182 -0.0011541721 -0.0010740005 0.00028817303 0.00010263372 3.852334e-05 -0.0012613933 -0.0015992725 -0.0003749537 0.00018488443 -9.008468e-05 -0.001596218 -0.0016151571 0.00095517794 -0.00048673621 0.0010064279 0.00044995756 0.0009985309 -0.00053397147 -0.0014615261 -0.0013029957 -4.398558e-06 -0.0014744446 -0.00038992983 0.00053507666 0.0016608028 -0.0009866212 -0.0015852278 0.001153148 0.0014954885 -0.0015989246 0.0012048905 0.00042330768 -0.0016219094 -0.0013503033 -0.0014297841 0.0004712637 -1.5621257e-05 -2.5027315e-05 -0.0012926076 0.0011096968 -0.0015103098 -0.0004260062 0.0010754253 -0.0015926353 0.0013225378 0.0016347187 0.00017645663 0.00087076065 0.0016423769 0.0014134899 -0.0012810199 -0.001592022 5.143136e-05 0.000754209 0.0009834294 0.00043724143 0.0011447928 0.0008617818 -0.00086889905 -0.0011033114 -0.0001574398 -0.00068325124 0.0015509366 0.0005082317 -0.0015243362 -0.0012083235 6.475348e-05 0.0012926206 -0.00047369106 0.0009599398 2.0128993e-05 0.0015160213 0.0014593424 0.00014820686 0.0006680153 0.0013604934 -0.00095030124 -0.0005803465 0.00016218059 0.0011762847 0.001398109 0.0015326694 0.0002975261 0.0013331469 -0.0011631986 0.00028115415 0.0008874848 -0.0013714537 0.0012210298 0.00097526837 0.00028394148 -0.0003838777 -0.0010115624 -0.0003226623 -2.6529655e-05 -0.0009658471 0.00016560762 0.00080393377 0.0013102465 -0.00019343407 -0.00022056086 0.00047010215 0.0016294963 0.0011084932 -0.00046721913 -0.0012542441 0.001463288 -0.001635238 -0.0016263335 0.0010931814 -0.00071144087 -0.0006735662 -0.00058646593 0.0010067971 0.0011854391 -0.0011200143 0.0016118846 -0.0008924051 0.00066444656 -0.0013533151 -0.00018000006 1.0361433e-05 -0.0012605255 -0.0006378636 0.00018938122 -0.0011471384 0.00126382 -0.00067813025 0.0015094128 0.0014853971 0.00029210863 -0.0011214558 0.00047902114 0.0014143486 0.000699679 -0.00035241724 -9.464382e-05 -7.390702e-05 0.0004385674 0.00094329164 0.0004840362 0.0010893288 -0.0010476757 -0.0014534929 0.0006224365 0.00010806199 0.00045760153 -0.0011991565 0.00051595323 0.0010733029 -0.00014460558 0.0016056672 -0.0010085887 0.0011026342 0.0004093763 -0.0013152731 0.0015576319 -0.0005481681 -3.0290646e-05 -0.001314577 0.0005010057 -0.0005016283 0.00024250498 0.0013450377 0.00037568097 -4.7813315e-05 0.000673239 -0.0009116659 6.189202e-05 0.0011170728 0.0014482089 0.00030450706 -0.00056540675 -0.001067224 -0.0016517218 -0.0012565156 0.00021903132 0.00017944956 -0.0013178549 -0.0002228858 0.0011871033 4.720812e-05 -0.0010163514 -0.0010688067 0.0009020758 0.0014913838 -0.0013160243 -0.00059764367 0.0006399385 -0.0009004377 -0.00058931625 -0.0013660073 -0.0014429108 -0.00088936783 -0.0004630252 0.00044434884 0.00062886154 0.0007773354 -0.0015783777 0.0015461295 -0.0012533071 -0.0011136543 0.0009810257 -0.00086230587 0.0004737857
most -0.0011356331 0.0015257582 -0.00024743754 -0.001539078 0.0011648724 -0.0015633402 0.0010018647 -0.00020338061 -0.00041146151 -0.00046068255 0.0015481581 0.0015572436 -3.592342e-05 -0.0003778899 -0.0013028869 -0.0007665402 -0.0009879357 0.0015990491 -0.0014848119 0.00022643317 -0.0012094075 0.00026244624 0.00071086077 -0.0011578863 -0.0010756655 0.0012340962 -0.00017360959 -0.0012089934 -0.00010322403 0.0011345297 -0.0016601137 -0.001101508 0.0010914203 -0.0010551536 -0.00051721465 0.0012980935 -0.0011253029 0.0005922034 -0.0009711645 0.0015623105 0.0011574968 0.00089185126 0.0013180873 -4.514726e-05 -0.0016475171 1.0249153e-06 0.0012402157 0.0005905756 -0.001162002 0.001346512 -0.0007477269 -0.0004410882 -0.000388065 -0.001150251 -0.00035636424 0.00025448576 0.00088942767 -0.0011215901 9.176434e-05 9.050374e-05 0.0010816669 0.00075719005 -0.0015797055 -0.00044021668 -0.0009549128 0.0015359714 0.0014311479 -0.0011351878 0.00052441057 -7.163921e-05 -0.0007626486 -0.0008224144 -0.00029056068 -0.0008659349 -0.0016509163 -0.00031593192 -0.0009187779 -0.00012691622 0.0007106584 0.0008817218 6.69417e-05 -0.0013613928 0.0008943134 -0.0012983104 0.00079063 -0.0010091105 0.0003476989 -0.00046631202 -0.0016521533 -0.0003320287 -4.6778165e-05 0.0001037897 -0.0001899263 -0.0010745028 -0.00036299796 0.0013534839 0.0012263723 -0.00015186751 0.00089757616 -0.00032832427 -0.0003418471 0.0011818473 -0.001345159 -0.0013149898 -0.001116442 0.0011961558 -0.0015767637 -0.0015880975 -0.0014283663 0.0008632408 -0.0012583894 -0.0011080345 -0.0010766371 -0.0003774352 -0.00019550677 0.0009236259 0.0009898682 -0.0010388006 0.00048218181 -0.000248325 0.0002052163 0.0011646181 -0.0013884034 -0.0009928778 -0.0013080717 0.0010859955 7.012033e-05 -0.0006299324 -0.0011157462 9.511281e-05 -0.0011713025 -0.001664597 -0.0014252937 -0.0011563284 -0.0012894638 -0.00023768259 -0.0005485478 -0.00053317106 0.0013487866 6.419399e-05 0.0016528287 -8.808014e-05 -0.0009782736 0.00026780207 0.00055292476 0.0009885004 -0.0009029999 -0.00040549008 0.0011886639 0.001060997 -0.0004623979 -0.0004161475 0.0010232943 -0.0012461372 -0.001567081 -0.0011014579 0.0012273734 -0.00084416405 0.0016641624 -0.0015425195 2.4077617e-05 -0.00032724714 0.0007164103 -0.0007685301 8.5162705e-05 0.0013620923 -0.00020616093 7.12669e-05 0.00022549792 -0.0008136806 0.00074521056 0.0013688112 0.0008727177 -0.0013108468 -0.00071844365 -0.0013195201 -0.0014551043 -0.0006989436 -0.0013525577 -0.00086357736 0.0012732652 -0.0016594799 -0.0010352343 0.0015971903 0.000672138 0.0013483689 -0.00152673 0.00044233465 -0.0005852778 -0.00043054603 -0.0012862853 -0.0016363065 0.000652511 -0.0010888545 -0.0013031734 -0.0005790896 -0.0004649005 0.0011919638 0.0016550862 0.0015245462 -0.0004368864 -0.00010743109 0.0006503595 -0.0012299103 0.0013708108 -0.0005047138 0.0012094901 -0.00050883886 0.0016162493 -0.00039860405 7.743395e-05 -0.0010471366 0.00023999729 0.001135172 -0.0013095726 -0.00037703858 0.00059010694 0.00036437498 -0.0008771193 -0.0016415458 -0.0008777062 -0.0008883064 -0.0011202609 -0.0005581825 0.0009395512 0.00025790485 -0.0016339085 -0.0012329282 -0.00077335245 0.0013337393 -0.0012104067 0.000868021 0.0011030217 0.0010413243 -0.0005494394 -0.0005322406 0.00025965393 -0.0010253254 0.0016379269 -0.0008073632 -0.0012566131 0.00060947257 0.0010134524 -0.0008328009 0.00022717896 -0.0016295097 0.0014208824 -0.00080710195 -0.0014635524 0.00052731147 -0.0010398283 -0.0013631663 -0.0010515006 0.0004279544 -0.00033766154 -0.00062980497 -0.0010126756 -0.0005537262 0.00090202695 0.0015885945 0.0014947965 5.505063e-05 2.6672058e-05 0.0014814853 0.0013916236 -0.0013976551 0.0015723734 -0.0012487342 0.0015729463 0.0015959652 0.001391972 -0.001132452 -0.0005234112 -0.0010104385 -0.00037359967 -0.0011042418 0.0012429461 -0.0008693216 0.0007089047 0.0006674881 0.0012339746 -0.00079100236 0.001036583 -0.00068612624 0.0007691657 -0.0006221685 -0.001254269 -0.00133943 -0.0005879639 0.00021596756 -0.0002594076 0.00080199505 -0.0011469105 5.416024e-05 0.0014548806 -0.0016473313 0.00020265911 0.0016135782 0.00064992614 -0.0016537426
cuisine -0.0013646637 -0.0006214866 -0.00062198803 -0.0015691407 0.0004366088 -0.0003051037 -0.001366013 0.0006944052 0.0010614236 0.0013085335 -1.1481659e-05 -0.00061773363 0.001479192 -0.00020999105 -0.00083238864 0.0016191244 -0.0012890096 -0.00041867237 0.00031332445 0.0003546103 -0.00078641204 -0.00012492982 -0.0006802265 0.0003534031 -0.0007615596 -0.0016186452 -0.00080856984 -0.000443347 0.0015817644 -0.0016640073 -0.0002832089 0.00085543824 -5.2013835e-05 -0.0008081647 -0.00041591312 0.0003289198 -0.0009889452 -0.0006119997 -0.00018237958 0.0013955456 -0.0006259248 -0.0012352119 0.0011010333 0.00055767683 -0.0015359254 3.4130655e-05 0.0013679379 0.00033329372 -0.0002978865 0.0014963766 -0.00135139 -0.0015953515 0.000837114 -0.0015277467 0.0014188285 0.00017261533 2.839897e-05 -0.00053290115 0.0014754734 0.00040649556 -0.0012626483 -0.001105928 0.0007686897 0.00011015799 0.00018200686 -0.0016333966 0.00034614233 0.00021743684 0.0013592619 0.00069945987 -0.0012287085 -0.0015593672 0.0015950598 0.0009134231 -0.0015340871 -0.0010235044 -0.0001486743 0.0012608393 0.0008929021 0.0006039603 -0.00022499925 -0.00039748382 -0.00042267342 -0.00033919976 -8.24575e-06 0.001265228 0.000821083 -0.00028727096 0.00091139256 0.001282544 -0.00068338786 7.802544e-05 -0.000120009194 0.00025585518 0.00047552705 -0.0003681769 -0.00039616245 -0.001471294 -0.00087749923 0.0012649534 0.0016170419 -0.0013829466 -0.00024445434 -0.00019917819 0.00044376327 -0.00011125414 -0.00013321164 0.0011210393 -0.0010471864 -0.0011077645 -0.00061083696 0.0012666889 0.0009631128 0.00022230053 -0.00020690882 0.0011387765 -0.0005752528 -0.0015273768 0.0012595884 -0.00068445056 0.00049438095 1.779825e-05 -0.0011466112 0.0008459088 0.00083706557 -0.0007442672 -0.0004977281 0.0015084653 -0.0014310913 -0.0009229661 0.001176995 -0.0002361977 0.001030533 0.00094081595 0.00090507005 -0.001417443 -0.0010728721 -0.0015435297 -0.00111839 0.0007807821 -0.0009444219 0.00041031148 -0.0008843546 -0.0016399602 -0.0012109621 0.0008247137 0.0016019874 -0.0005206441 -0.000676864 7.219371e-05 0.00019232699 0.00065770483 0.0014405671 -0.0009152752 9.1282214e-05 0.0011142973 -0.0011740362 -0.0006552379 0.0007264361 -0.001055499 -0.0013450842 0.0014361483 0.0007058203 0.00023598979 -0.0014930419 0.00021690952 -0.0007698103 -7.208163e-05 -0.0010565344 -0.0013583502 -0.0006181533 -0.0015339567 0.0003501086 0.0006749816 -0.00086062663 0.0003576898 -0.00057495164 -0.00141893 -0.001530484 0.0015760277 0.0016286892 0.0014656144 0.0003615555 -0.00046123296 -0.0009883584 -0.0016266286 0.00024398066 0.0015009006 0.00049462786 -0.00010439101 -0.000523348 -0.00048697926 0.0015951139 0.0008815696 0.0014766086 -0.00035522334 -0.001265627 0.0006763828 -0.00045837066 7.246656e-05 -0.0016391546 -0.000452227 0.00081495545 0.0013887034 0.0014350531 0.0011433724 2.776842e-06 0.0009312738 0.0012881992 0.001105393 0.0008494109 -0.0015773352 0.00038991706 -6.517834e-05 0.000641172 0.0008243018 -3.294155e-05 -0.001338473 -0.00053511345 0.00043559363 0.00033679325 -0.0014278314 6.83362e-06 -0.00048508015 0.00093003525 0.0013555654 -0.0013963956 -0.0006428535 -0.001598569 -3.8610993e-05 0.001503153 -0.00066863623 -0.0011636965 0.00096817804 0.001502768 -0.00048613208 -0.0013593931 0.00126764 -0.0015133037 -0.0007620592 -0.00064113905 -0.0013520444 -0.0009099383 -0.0005700243 -0.0013663244 -0.00082043564 0.00035074344 -0.0002186557 0.0013385699 0.00080141047 -7.1730574e-05 0.0007512565 -0.00010352422 -0.00061662256 0.0013969429 -0.00027756003 0.00027362566 -1.6496959e-05 0.000601287 -0.0009772615 -0.0012437949 0.00017132964 0.0010267857 -0.00018719852 0.00041439873 -0.00084319426 0.00081503025 0.00019564052 -7.408135e-05 -0.0002688264 0.0010793154 0.0015967418 0.00129768 0.0016068915 -0.00094278506 -0.0011118886 0.00090233627 -0.0013781525 -0.0015743697 -0.00125283 0.00026932432 -0.0011704746 -0.0011570605 -0.0014136985 0.0002805604 -0.0008231001 0.00072171714 0.00051341485 -0.0005896098 -0.00026180837 -7.900796e-05 0.00046485814 -0.0003564675 0.0014143367 -0.00017316324 -0.0013972819 0.0008843783 0.00043268525 0.0006728833 -0.00056355546
be -0.0016373306 -0.00077654666 0.0009269915 0.00037834572 -0.0008540663 -1.68263e-05 -0.00029962815 0.0011149164 -0.0016008177 0.0014733557 -0.0016037197 -0.0001276347 0.000563722 -0.0005679545 -0.001176526 0.000989308 -0.0012186391 0.0005787992 0.0005063379 0.0013405329 -0.0007197778 0.0007988242 0.000504213 -0.0010861969 -0.00018660967 -0.0007076355 0.0006027459 0.00015625777 -7.384351e-05 0.00096600247 -0.00080318324 -6.224143e-05 0.0004587224 -0.0009027635 0.0015314935 0.0016127768 0.0010010474 0.0008103374 -0.00082473026 0.0014591537 -0.0010003224 0.0009911853 -0.0005119018 -0.0012953494 0.0015375235 -0.001361632 0.00052566215 0.00041861203 -0.00056320836 0.0014057838 -0.00088327273 0.0005327003 0.00054875825 -0.00042286032 0.0003138297 -0.0007933998 -0.00018176122 -0.0007173593 0.0014034479 0.0002442455 -7.234647e-06 8.290893e-06 0.0016165746 -0.0009422001 -0.00058703526 -0.00040674122 -0.0013446236 0.000700502 -0.0012558181 -0.00020388096 0.0006518265 -0.0013749688 -0.00030171254 -0.0008179409 0.0010636887 -0.0009843262 -0.0014385359 0.0010710205 -0.0013570546 0.0010453017 -0.0008053803 -0.00060657336 -7.9039935e-05 -0.00011799088 -0.00034089683 0.0008932903 0.00035376553 -0.0006325369 -0.00050453213 0.0010727324 0.0001567845 0.0014544725 -0.0015467519 -0.00015446832 0.0011065349 0.0005570413 -0.0011552182 -0.0007668399 -0.00070167804 0.00020420123 0.0009766876 -2.1019196e-05 -0.0013548352 0.0011562179 0.00041505025 -0.00072395505 -0.00028561577 0.0015893586 0.0016135391 -8.4231586e-05 0.0007975631 0.0012907531 -0.0006774148 0.0011514425 0.0011923712 -0.0006171693 -4.1420433e-05 0.000764768 -6.353299e-05 0.0011416947 0.0013046406 -0.0008203302 0.0007993344 0.0004909924 -0.0009361372 -0.001186068 0.00013741862 0.0010013412 0.0007157698 0.0005524075 -0.00028993067 0.00030591953 -0.0013719208 -0.00026321667 -0.000153913 0.0013841093 0.0006871714 0.0010897407 -0.0003711285 0.0016538416 -0.0010329155 -0.0013203495 -0.0008718047 0.0015297442 -0.0012864477 -0.0002789656 2.8671551e-05 0.00078340416 0.0013940292 -0.0008747704 0.0005696548 -0.00017186553 -0.0007067507 -0.0005124997 -0.00037784 -0.00015568356 0.0014014908 0.0012172079 -0.00044418 0.001588277 0.001320395 -0.0003434343 0.0006321037 0.00012683176 0.0012613151 -0.0014566446 -0.0008677095 0.0009190156 0.00019312526 -0.0009659215 -0.00070247013 -0.0007587345 0.0011236309 0.00015328596 -0.0009682215 0.00010989744 6.432364e-05 -0.001541622 0.00037370142 0.0004309035 -0.0007707844 -0.0012773398 -0.0005457727 -0.00030035488 -0.0014185578 0.00022619095 -0.00019572988 0.00014493929 -0.0009984273 -9.12859e-05 -0.00092144555 0.00085024745 -0.0015497743 -0.00094135175 -0.00067827664 -0.001627853 0.0010361724 0.0005676958 0.00068928226 0.0012532361 -0.0011330002 -0.00010592836 -0.000909887 -0.000109083405 3.34407e-05 -0.0009264282 0.00040404283 0.0014071389 -0.00021931255 0.00027037345 0.00019651564 0.0009610082 -0.0012949534 0.001460603 0.0013144385 -0.000757135 -0.0003194147 0.0005474717 -2.3099743e-05 -0.0007967089 -0.0011153661 -0.00063290156 0.00053376035 -0.00092836627 0.00089747674 -0.0016539 0.0012738105 0.0004677611 1.6159868e-06 -0.00093854946 -0.0007345944 -0.00076328125 0.00010433311 8.476888e-06 -0.00083260617 0.0012013415 -0.0012730648 0.0014734309 0.0004395206 0.00038783113 0.0010725311 -0.0007769577 -0.0004898969 0.00059464003 -0.00050833035 0.00059244724 0.0008144447 0.0013368994 -0.00050066866 0.0013310789 0.00065349386 0.0010933444 0.00038820112 -0.0013827458 0.0011018506 0.0006641116 -0.0014831871 0.0013818986 -0.0013792762 -0.0006725138 -0.0012242919 2.3442337e-05 0.00083880883 8.241577e-05 -0.00092913286 -0.0003249401 -0.0013265 -0.0014658531 0.00017798296 0.00094120944 7.521721e-05 0.0011064966 -0.0006812005 -0.0004230748 0.0016145381 -0.0007361986 0.0011985282 -0.0014703489 0.0012597645 0.00040817334 0.00016510846 -0.0016582208 0.00040581 0.00059833576 -0.0007261298 0.0010410248 0.0012867671 0.00024435855 -0.0016628611 -0.00044039116 0.0015517263 -0.00027613572 0.00038739116 -0.0015155833 0.0011897639 -0.0010092215 -0.00070208573 -0.00012825962 0.0009892369 0.0010596724
from -0.00075545284 -0.0007333756 0.0014235326 -0.0011368365 0.00086039526 0.0014049076 -0.0013036347 -0.0009871228 0.0011209757 0.0016656967 0.00062106905 0.00081367797 0.0007206338 -0.0010375011 0.00061422354 -7.053989e-05 -0.0013650665 -0.00043318744 0.0007510459 -0.0011680621 0.0003037461 -0.0008917383 0.0010777274 -0.0008687461 0.00034443484 -0.0016180105 0.0009625045 -0.00056666654 0.00046338714 0.0002647207 -0.00071528764 -0.0010494291 -0.0008015181 -0.000978706 -0.00058599364 -0.0011954368 6.7702764e-05 -0.00017060158 -0.00100229 0.00016565522 0.0015444714 0.0009701007 -5.779294e-05 -0.0011844946 0.00030961362 8.722996e-06 -0.0010842218 0.0014232642 0.00081162027 0.0014824532 0.0012460542 0.0010944568 -0.0015071179 0.00044339153 -0.00088842 -0.0006106837 0.00043051664 -0.001117941 -0.0012458592 -0.0007399829 0.0012172203 -0.001413005 -0.00046282558 -0.00091262243 -0.0014315237 0.000871214 0.0009978042 -0.0007506768 -0.001575463 -0.0011840018 -0.00071437674 -8.883529e-05 0.00014604852 0.00072935264 -0.00054694695 -0.00057194073 0.0008240146 0.0010036421 0.00014489952 0.0003536147 -0.001182386 0.0011216521 -0.0010584326 0.0009794112 0.0006371736 -0.0016628974 -0.00037626538 7.2082265e-05 -0.00085550756 8.126895e-05 -0.0008838369 0.0012252282 -0.0007168697 0.00073645805 0.0012686637 0.0013020171 -0.0003835459 -0.0011967419 0.0016141952 -0.00081214 0.00091067766 0.0010366751 0.0010805014 0.00078530173 -0.0012184655 -0.0004034345 -0.0006616499 0.0003218194 5.0484134e-05 0.00018349724 -0.0007928775 4.645033e-05 -0.00062616944 0.00094470114 0.00018798809 -0.0006666997 0.0004881455 -0.0006191354 0.0003929957 0.0012625277 0.00023436935 0.0015452856 -0.001427392 -0.0008906635 -0.00032981831 -0.0016128903 -0.0011688595 0.00048322364 -0.0015189141 -0.00040151752 0.0015401376 0.0008377694 -0.0015098902 -0.00061414996 -0.0013192425 -0.0012473133 0.000415431 7.6023534e-05 -0.00023285726 0.0010097239 0.00010896321 0.00084411347 0.00054178905 0.0013416476 -0.0014278161 0.0012251557 0.00082071323 -0.00034999306 -0.0011229136 0.0015490353 0.0010862912 0.0002029683 0.0010526906 0.0016419813 0.0012451308 -0.00042039243 -0.00042462422 4.83872e-05 0.0006024928 0.00012318537 -0.00092723436 2.4043102e-05 0.0008141406 0.0014567327 -0.00020265822 7.2721276e-05 0.00013843343 0.0004137301 -0.0014346574 0.00014883465 -0.0014560219 0.00059798517 -0.0004720732 -0.00039052125 0.00019055317 -0.0007758256 0.0008226392 0.00143239 0.0008893452 0.00090905715 0.0011629239 6.461504e-06 -0.0010104701 0.0016252781 0.00033557948 0.00048603452 -0.000135323 -0.0012364868 -0.001560151 0.0007206016 0.0014176109 0.00030302352 0.0014888282 -0.0013975566 0.0015918958 -0.00050002517 0.0015610049 0.00034350718 -0.0014433872 -0.0015068247 -0.0009730318 0.00038130986 0.00037197798 0.00073496415 1.5291604e-05 -0.00041477042 -0.00045889188 0.00034034782 -0.00021095388 0.0011020146 0.0010834996 -0.0011085877 -0.000490192 0.0011406871 0.0013659527 0.00028216594 -0.0012745904 -0.00012738345 -0.00048727877 -0.00023849405 0.0006733248 -0.00068462646 0.0008696896 -0.00022371617 0.00044532627 -0.0009849357 0.0011313802 -0.00039352904 -0.0013295504 -0.0011665062 -0.0012577855 0.0005033829 0.0014617211 -0.0015561652 0.00028216466 -0.0015851428 -0.0010236439 -0.00012220742 0.0009911612 0.0014527624 0.0005577213 -0.0014995519 -0.0001316862 -0.0016216639 -0.00024122339 0.00048991654 -0.0012035818 2.6027346e-05 -0.0016135357 -5.54252e-06 -0.0010248462 0.0012113147 0.0013026631 -0.0006309413 8.581954e-05 0.0010721346 0.0016353623 0.0014180981 -0.001452846 -0.000943519 0.00058011495 0.00072487665 0.00089536066 -0.00042510216 -0.0007373368 -0.0015452248 0.0010162526 0.00065026415 -0.0011417574 0.00093382865 -8.271363e-05 -0.0007278724 0.00028381724 -0.0015667191 0.0008768421 -0.0016579794 0.001394648 -0.001073675 0.00040123684 0.0013200095 -0.0016438386 0.0006481817 0.0014570991 1.1748196e-05 -0.0015698948 0.0010785003 -0.00056700874 0.0012753867 0.0012515583 0.001434079 -0.0011153729 0.0008666155 -0.00030224954 -0.0010962232 -0.0008805913 -0.00084693235 0.0014478966 -6.726187e-05 -0.0014997822 0.0006079176
popular 0.00051323214 0.0011829408 0.00026682718 -0.0012691192 -0.00027442435 -0.0014938219 -0.00060877076 0.0015320287 -0.00028783633 -0.0009062633 -0.0005492704 0.0010848298 0.0004043528 -0.00088406756 -0.00095305796 0.00031021558 0.0012723474 -0.0005544792 -0.00035957308 -0.0015915638 -0.00035488463 0.0011947451 0.0007189661 0.0007162896 0.00038086128 0.00031628177 0.00026907166 -0.001007387 0.00132586 3.4570567e-05 -0.0008579402 0.0010477462 -0.00038094207 -0.00095021666 0.0013990466 0.0015972158 -0.0008748312 -0.0010342578 -0.00042332488 -0.000847513 0.00023047418 -0.00017702245 -0.0007708234 -6.442417e-05 0.00078654155 -0.0010478143 -0.00095389463 -0.00027525472 0.00089776353 0.00029837675 -0.00015381943 -5.4046577e-05 0.0008120639 0.0009885653 0.000947382 0.0003318043 -0.00043035313 -0.0012124181 0.0011199251 -0.0007379174 0.00026817343 7.350155e-06 -0.001516549 -0.001062333 0.0012906458 -0.0012371709 0.00050599873 -0.0008405178 0.0002797728 0.00041872662 0.00082203234 0.001147828 -0.0001290645 0.0015832962 -0.00048158623 0.000787265 -0.00013235965 -3.1715363e-06 -0.0013790437 0.0013118163 -0.0013661404 -0.00038950462 0.0016475227 0.0011562821 0.00033642177 0.0016462696 -0.0012458807 0.001073895 0.0014406474 8.673442e-05 -0.0012947345 -0.00014780107 0.0016554153 -0.00068503345 -0.0014292237 0.0015892807 0.0010995135 -0.0008274631 0.0014159515 -0.0015640511 0.0012549829 0.00075972546 0.00050987635 0.00061525166 0.0008155747 0.0003006137 -0.0014789446 0.0013491078 0.00091131584 0.00038050048 -0.00091991504 -0.0011903177 0.0004545769 -0.00032130306 -0.00069671264 0.0005292142 -0.00032751312 -0.0015482425 0.0016112059 0.0007854179 0.0012811886 -0.0013201614 0.0016223957 0.001121632 -0.00035255437 -0.0008828876 -0.00025042315 0.00086417154 -0.0010849513 -0.0013860543 -0.0008485713 -0.0009860469 0.0014278974 0.001375214 0.0007215234 -0.0013983423 -0.0005803144 -0.00037276832 0.0016332283 -0.00043263205 -0.00014591895 0.0002836521 0.00064636965 0.00038893073 -0.0012638225 0.00087420177 -0.0015458214 -0.0006701591 0.00058997906 -0.0005543932 0.0007728044 0.0016464465 0.0006170415 0.0005568712 -9.252005e-05 0.000859477 0.0008667895 9.893625e-05 -0.0010718687 -0.0009367421 -0.00031655666 -0.0013472702 -0.00010166593 -0.0003336324 -0.00076187524 -0.0002465635 -0.00081873743 0.0009589934 -0.0012481771 0.0009986325 -0.00030300725 -0.0005857143 -0.00022652253 4.777774e-05 0.00038316174 0.00013132908 0.0006363984 0.0010397496 -0.00043963574 0.0013291987 0.0010372923 -0.0014058152 0.00156502 0.0010425147 0.00011782327 0.0005576918 0.0013795814 0.0005275558 0.00091538485 -0.0010110965 0.0014926491 -0.00051098975 0.001489624 -0.0010431868 -0.0011004467 -0.0002680228 0.0013475958 -0.00016940595 -0.00071564456 -0.00044157315 0.00084369787 -0.00013070814 0.00024534878 0.0016102116 0.000264802 -0.0006653239 -0.001482444 -8.604337e-05 0.000157226 0.0009565727 -0.0013438867 0.000102192156 0.0014409194 -0.00025528297 -0.000862582 0.0010144421 -0.00020503394 0.0014799848 0.0007458623 0.001350754 -0.0009565322 0.00060685293 -0.0005085715 0.00024240125 -0.0008430707 -0.0010161238 0.0015219329 -0.00038996915 -0.0012610805 -0.0012633203 0.0006501905 0.0016324864 0.0008920612 -4.0515366e-05 -0.001195499 -0.00054582075 -0.00054108014 0.00070571236 -0.0006919505 -0.00033121413 0.00031780117 -0.00024940874 -0.000655018 -0.0010800051 0.00068012683 -0.0015561841 0.000679572 -0.0014796352 -2.6116402e-05 8.622377e-05 -0.00097472215 0.0010036002 0.0011290127 0.00037917332 -0.0013586628 -0.0005102885 -0.0011627426 -0.00015461762 -0.00043584462 -0.0009873109 0.0013606871 0.00034679633 0.00035801504 0.0016065271 0.0006093727 -0.00085285277 0.00046336753 0.00068193313 0.00016404592 -0.0014900202 0.00086035463 0.001501866 -0.00032246386 -0.0013154321 0.00038827088 -0.00016483615 0.0007772755 -0.0012703148 0.00091390003 -0.001363313 -0.0012945702 -0.0015444586 -0.0009969687 -0.0013183855 -8.5376894e-05 -0.00023513866 -0.00016687361 0.00052107085 0.0015180144 0.0005610099 -0.0011049053 -0.0008562873 0.00040002546 0.00055061653 -0.0004663966 -0.0012434331 0.00016433993 -0.0007542632 6.9091926e-05 -0.0013072826
made 0.0012484959 0.0007097366 0.00060462847 -0.0012004517 0.0004035686 0.0014161204 0.0010103282 0.0004328572 0.0010261282 3.7459948e-05 0.0009706137 0.00035799592 -0.0008564247 -0.0005679883 0.0011218925 0.00019620755 0.0009110283 -0.0007487149 0.00035734876 -2.6714513e-05 0.00042080303 -0.00025385208 -0.0013431354 -0.0001426901 0.0006094724 -0.0014863826 0.0012195484 -0.0007885121 0.0006360896 0.00078321854 -0.0010321557 0.00045265313 -0.00085292215 0.00078180304 -5.3142758e-05 -0.0005448867 -0.001628837 0.0015022141 -0.0011518012 0.0010228449 -0.0011095237 -0.00073320704 0.0011494138 -0.0008558532 -0.0009692957 -0.00072103133 0.0005314925 -0.00044544862 0.0011385764 0.0011917597 -0.0013572676 -0.00036297462 -0.0011757483 0.0016493083 0.0011579148 -4.9462487e-05 0.0015191593 -0.0014158434 0.0006241855 0.0001516738 -0.0006039678 -0.0011531726 0.0003979452 -0.0010521652 0.00057652744 -0.00077549816 0.0007468497 -0.0006217793 -0.00063302653 -0.00066702085 0.0016414971 0.0009865735 -0.0015028557 0.0007780442 -0.0001321129 -0.00039134716 0.00062562485 0.00057824526 0.00030136755 0.0012418104 -0.00042365456 0.00025739658 0.00026310407 0.00142025 -0.0006507283 -0.00039055405 -0.0010145338 0.0012972322 0.00046682806 0.0012348312 0.000988705 -8.234017e-05 0.0002324934 -0.0010442259 -0.0014963283 0.00050186407 -2.9824732e-05 0.00089104136 -0.0007767665 0.00027875122 -0.00084531785 5.236692e-05 -0.00075666036 0.0007688195 -0.0007110107 -7.134746e-05 0.0013199934 0.0011640571 -0.0011922524 -0.00016705685 -0.000787683 -0.0005827808 -0.0002882001 -6.549241e-05 -1.6475626e-05 -0.0009790849 0.0013815461 -0.0011195205 -0.0015705772 -0.00024975627 -0.00042047008 -0.0006609805 0.00082153064 -0.0011828304 0.0015927136 0.0008098115 -0.0010433993 0.00070713024 0.0011901082 0.00066012016 0.0014883388 0.00014029631 0.0010485069 0.0013282578 -2.2493814e-06 0.0013132843 8.6037304e-05 0.0007210265 -0.00037223357 0.00021900938 0.0007375419 -0.0006242196 0.0011775775 0.00080277846 0.001018621 0.0008881216 -0.00019376526 0.0003564187 0.00017917233 -0.00135952 0.0015358513 -0.00076876086 0.00018426425 -0.001015927 0.00032779673 0.00047369802 0.00038794687 -0.0010176429 -0.0015209417 -0.00040977664 -0.0011460863 -0.00011461481 0.00025289602 0.000687343 0.0006446154 0.0010527223 -0.0012885306 0.0015309976 -0.00046151836 0.00059860176 -0.00052752654 0.0016519115 0.00067666057 -0.0003059689 -0.0011556401 -0.00024344357 -0.00040587413 -0.0003760619 -0.0011032156 -0.000118325705 -0.0006355859 -0.0010413834 0.0006433866 0.0009609265 0.0009877649 0.00050096493 0.0016636739 -0.000669042 -0.0005987339 -0.00040947294 -0.00057095883 -0.0006270013 -4.9587e-06 0.0011791104 -0.00042840428 0.00059475715 -0.00023833968 0.0008850789 -0.0015338332 0.001164467 0.001015274 0.0005485534 0.0008190064 0.0005069782 0.0016196124 -0.00060058787 -0.0001998218 -4.3467993e-05 0.00022751755 0.00013287703 0.00063465023 0.00030178757 -0.00080988446 -0.0005268687 -0.00035738715 0.0015904265 0.00031319808 8.349426e-05 -0.000999194 0.0006236204 0.0016266351 -0.0008452791 0.0015915743 -0.0005628339 -0.001198127 -0.0007363166 -0.00087267446 0.00041540246 0.0016264217 -0.00016062622 -9.084142e-05 0.0007419177 -0.00025648955 -0.000110281595 -0.00036952563 -0.000606654 -0.00084094715 0.0010863668 -0.0009808743 0.0009339054 0.0015348574 0.00082870596 0.0004473582 -8.400742e-05 0.0012687107 0.0014360087 0.0009656303 0.00095653074 -3.0473117e-05 0.0016447856 -0.0012999881 -0.0013609228 0.0003193661 0.0011019023 7.953773e-05 0.0010733474 0.00037434307 -9.465667e-05 -0.0015582292 -0.00049663935 5.803251e-05 -0.00074627297 0.001337195 0.0013094431 0.0015435495 0.0008909777 0.001540294 0.0005686877 -0.0010607585 3.0966006e-05 -0.0005119248 -0.00077027123 0.0006440322 0.0015525133 -0.00029812334 -0.0015552397 -0.0012796593 0.00057516765 -0.0011561427 0.000589707 0.00017558593 0.0001207098 0.00023568174 0.0007633585 -0.0006733785 -0.00035809714 0.0015363878 0.0015995962 0.0006386159 0.0008106004 -0.00021403612 -0.0013458751 -0.00020284412 0.0014605122 0.0007173291 -0.0015656577 0.00094769045 0.0015008929 0.001522931 8.279906e-05
